{"learner":{"attributes":{},"feature_names":[],"feature_types":[],"gradient_booster":{"model":{"gbtree_model_param":{"num_parallel_tree":"1","num_trees":"100"},"iteration_indptr":[0,1,2,3,4,5,6,7,8,9,10,11,12,13,14,15,16,17,18,19,20,21,22,23,24,25,26,27,28,29,30,31,32,33,34,35,36,37,38,39,40,41,42,43,44,45,46,47,48,49,50,51,52,53,54,55,56,57,58,59,60,61,62,63,64,65,66,67,68,69,70,71,72,73,74,75,76,77,78,79,80,81,82,83,84,85,86,87,88,89,90,91,92,93,94,95,96,97,98,99,100],"tree_info":[0,0,0,0,0,0,0,0,0,0,0,0,0,0,0,0,0,0,0,0,0,0,0,0,0,0,0,0,0,0,0,0,0,0,0,0,0,0,0,0,0,0,0,0,0,0,0,0,0,0,0,0,0,0,0,0,0,0,0,0,0,0,0,0,0,0,0,0,0,0,0,0,0,0,0,0,0,0,0,0,0,0,0,0,0,0,0,0,0,0,0,0,0,0,0,0,0,0,0,0],"trees":[{"base_weights":[-1.4547009E-6,5.14623E-1,-6.028472E-1,9.2037857E-1,1.0642554E-2,-1.1369377E0,-6.2370308E-2,1.0104856E0,-6.818027E-1,1.3566086E0,-2.060928E-1,7.98626E-1,-1.2997795E0,1.0162299E0,-2.7999282E-1,1.074886E0,-4.8031983E-1,3.512992E-1,-1.3414757E0,4.3431392E-1,1.7194836E0,7.117105E-1,-4.9819335E-1,6.821736E-2,1.8309222E-1,-1.4426473E0,-7.0969075E-2,1.2285335E0,-5.768198E-1,1.5911244E0,-3.8340244E-1,1.1108748E0,-1.7111759E-1,-8.891459E-1,1.1122129E0,-1.767596E-1,1.389014E-1,1.1255779E-1,-1.5601535E0,-6.87261E-1,1.0241646E0,-3.8452726E-2,1.7940224E0,-1.6684967E-1,1.3451462E0,-6.953974E-1,4.6492666E-1,-1.3111179E0,6.9106054E-1,-1.513031E0,4.648499E-1,-6.5410084E-1,7.076304E-1,1.4021156E0,-1.0699035E0,7.8721955E-2,-1.0744141E0,1.8668924E-1,-8.9273445E-2,1.5153396E-1,-7.4430907E-1,1.1683168E-1,-3.7542414E-2,2.4427924E-2,-1.355452E-1,1.5493791E-1,-2.0787919E-2,-7.2748564E-2,1.3507186E-1,6.810922E-2,-1.7536385E-1,-1.05519734E-1,6.810922E-2,1.3039844E-1,-7.845673E-2,1.8526231E-1,-2.0787919E-2,-1.1760547E-1,3.3910196E-2,1.543501E-1,-1.02683E-1,-8.529018E-2,5.917527E-2,7.060546E-2,-8.660378E-2,2.3660652E-2,-1.658517E-1,1.2239722E-1,-7.7942245E-2,-1.579386E-1,4.3906327E-2,-5.228127E-2,1.4892875E-1,1.21910766E-1,-9.14125E-2,-2.3067778E-3,1.3724926E-1,1.5276961E-1,-6.466434E-2,-1.4102739E-1,-3.1613376E-2,-1.4984946E-1,4.1555297E-2,3.260832E-2,-1.3953887E-1,4.7778364E-2,-9.047208E-2],"categories":[],"categories_nodes":[],"categories_segments":[],"categories_sizes":[],"default_left":[0,0,1,1,0,0,0,1,0,0,0,1,1,1,0,1,1,0,0,0,0,1,1,0,0,1,1,1,0,1,0,1,0,0,1,0,0,0,0,1,1,0,1,0,1,1,1,0,1,1,0,0,0,1,0,0,0,0,0,1,0,0,0,0,0,0,0,0,0,0,0,0,0,0,0,0,0,0,0,0,0,0,0,0,0,0,0,0,0,0,0,0,0,0,0,0,0,0,0,0,0,0,0,0,0,0,0],"id":0,"left_children":[1,3,5,7,9,11,13,15,17,19,21,23,25,27,29,31,33,35,37,39,41,43,45,47,-1,49,51,53,55,57,59,61,-1,63,65,67,-1,-1,69,71,73,-1,75,77,79,81,83,85,87,89,91,93,95,97,99,-1,101,-1,-1,103,105,-1,-1,-1,-1,-1,-1,-1,-1,-1,-1,-1,-1,-1,-1,-1,-1,-1,-1,-1,-1,-1,-1,-1,-1,-1,-1,-1,-1,-1,-1,-1,-1,-1,-1,-1,-1,-1,-1,-1,-1,-1,-1,-1,-1,-1,-1],"loss_changes":[6.3650446E2,2.2632602E2,2.7267062E2,8.9207886E1,1.4458322E2,1.5080743E2,1.1076417E2,5.628778E1,2.3127773E1,2.2258492E1,1.1481027E2,2.8145426E1,7.6910645E1,2.750737E1,7.654281E1,5.776544E1,1.7100292E1,7.779002E0,1.2813862E1,1.4429088E1,8.373291E0,5.7813835E1,6.194571E1,2.0662424E1,0E0,5.3457397E1,2.168511E1,2.9522972E1,7.632162E0,1.5877472E1,7.20647E1,4.74516E1,0E0,1.1031998E1,3.4956975E0,9.393585E0,0E0,0E0,9.540779E0,4.6199875E0,8.107635E0,0E0,5.9565887E0,2.2989557E1,2.9927444E1,5.518248E1,1.850053E1,4.4244156E0,1.3881981E1,4.9809998E1,1.5700325E1,1.4385195E1,9.989257E0,1.790155E1,9.650564E-1,0E0,5.5189505E0,0E0,0E0,4.1220383E1,4.4092445E1,0E0,0E0,0E0,0E0,0E0,0E0,0E0,0E0,0E0,0E0,0E0,0E0,0E0,0E0,0E0,0E0,0E0,0E0,0E0,0E0,0E0,0E0,0E0,0E0,0E0,0E0,0E0,0E0,0E0,0E0,0E0,0E0,0E0,0E0,0E0,0E0,0E0,0E0,0E0,0E0,0E0,0E0,0E0,0E0,0E0,0E0],"parents":[2147483647,0,0,1,1,2,2,3,3,4,4,5,5,6,6,7,7,8,8,9,9,10,10,11,11,12,12,13,13,14,14,15,15,16,16,17,17,18,18,19,19,20,20,21,21,22,22,23,23,25,25,26,26,27,27,28,28,29,29,30,30,31,31,33,33,34,34,35,35,38,38,39,39,40,40,42,42,43,43,44,44,45,45,46,46,47,47,48,48,49,49,50,50,51,51,52,52,53,53,54,54,56,56,59,59,60,60],"right_children":[2,4,6,8,10,12,14,16,18,20,22,24,26,28,30,32,34,36,38,40,42,44,46,48,-1,50,52,54,56,58,60,62,-1,64,66,68,-1,-1,70,72,74,-1,76,78,80,82,84,86,88,90,92,94,96,98,100,-1,102,-1,-1,104,106,-1,-1,-1,-1,-1,-1,-1,-1,-1,-1,-1,-1,-1,-1,-1,-1,-1,-1,-1,-1,-1,-1,-1,-1,-1,-1,-1,-1,-1,-1,-1,-1,-1,-1,-1,-1,-1,-1,-1,-1,-1,-1,-1,-1,-1,-1],"split_conditions":[4.742557E-2,8.541321E-2,2.3778211E-2,4.4921033E-2,7.028684E-2,8.623041E-2,1.4840336E-1,3.032893E-2,4.7566004E-2,1.93764E-2,1.16441146E-1,3.9807934E-2,5.3385377E-2,4.7023103E-2,9.815491E-2,1.3957208E-2,3.8207706E-2,4.412693E-2,3.405401E-2,8.627269E-2,6.4874634E-2,1.46977035E-2,2.3093656E-2,2.393368E-2,1.8309222E-1,4.377109E-2,3.674331E-2,6.780765E-2,6.4564966E-2,1.6193224E-1,9.421159E-2,3.841846E-2,-1.7111759E-1,3.13668E-2,2.8427659E-2,5.462915E-2,1.389014E-1,1.1255779E-1,4.2513087E-2,3.0596405E-2,9.03388E-2,-3.8452726E-2,6.545442E-2,4.8696686E-2,3.0304024E-2,2.6512425E-2,3.388916E-2,2.584054E-2,5.2325282E-2,6.8393625E-2,3.284894E-2,5.0638806E-2,6.9460094E-2,5.1349685E-2,3.385703E-2,7.8721955E-2,3.9735887E-2,1.8668924E-1,-8.9273445E-2,3.1017957E-2,1.0489382E-1,1.1683168E-1,-3.7542414E-2,2.4427924E-2,-1.355452E-1,1.5493791E-1,-2.0787919E-2,-7.2748564E-2,1.3507186E-1,6.810922E-2,-1.7536385E-1,-1.05519734E-1,6.810922E-2,1.3039844E-1,-7.845673E-2,1.8526231E-1,-2.0787919E-2,-1.1760547E-1,3.3910196E-2,1.543501E-1,-1.02683E-1,-8.529018E-2,5.917527E-2,7.060546E-2,-8.660378E-2,2.3660652E-2,-1.658517E-1,1.2239722E-1,-7.7942245E-2,-1.579386E-1,4.3906327E-2,-5.228127E-2,1.4892875E-1,1.21910766E-1,-9.14125E-2,-2.3067778E-3,1.3724926E-1,1.5276961E-1,-6.466434E-2,-1.4102739E-1,-3.1613376E-2,-1.4984946E-1,4.1555297E-2,3.260832E-2,-1.3953887E-1,4.7778364E-2,-9.047208E-2],"split_indices":[4508,2081,3022,1144,1505,2154,423,605,1454,3429,4572,4483,4973,1070,3824,1680,4096,4508,443,4761,2043,3825,3656,2125,0,1383,2531,4217,3859,74,4065,463,0,4065,251,995,0,0,91,1100,1100,0,1876,3926,250,4671,4469,377,1259,1242,1466,4913,4205,4671,1466,0,4522,0,0,1408,4846,0,0,0,0,0,0,0,0,0,0,0,0,0,0,0,0,0,0,0,0,0,0,0,0,0,0,0,0,0,0,0,0,0,0,0,0,0,0,0,0,0,0,0,0,0,0],"split_type":[0,0,0,0,0,0,0,0,0,0,0,0,0,0,0,0,0,0,0,0,0,0,0,0,0,0,0,0,0,0,0,0,0,0,0,0,0,0,0,0,0,0,0,0,0,0,0,0,0,0,0,0,0,0,0,0,0,0,0,0,0,0,0,0,0,0,0,0,0,0,0,0,0,0,0,0,0,0,0,0,0,0,0,0,0,0,0,0,0,0,0,0,0,0,0,0,0,0,0,0,0,0,0,0,0,0,0],"sum_hessian":[2.0496575E3,1.1058152E3,9.438423E2,6.121477E2,4.936675E2,4.7417078E2,4.696715E2,5.799031E2,3.2244614E1,6.773868E1,4.2592883E2,3.64939E1,4.3767685E2,7.823692E1,3.914346E2,5.5615704E2,2.3746033E1,1.27478695E1,1.9496742E1,1.97467E1,4.799198E1,1.0248287E2,3.2344595E2,2.1996325E1,1.4497578E1,3.919345E2,4.5742355E1,6.9238434E1,8.998496E0,1.97467E1,3.716879E2,5.4965814E2,6.4989142E0,1.9246784E1,4.499248E0,8.998496E0,3.7493734E0,1.2497911E0,1.824695E1,6.7488723E0,1.29978285E1,1.4997494E0,4.649223E1,4.3242775E1,5.92401E1,2.687051E2,5.4740852E1,6.4989142E0,1.5497411E1,3.781868E2,1.3747703E1,2.6245615E1,1.9496742E1,6.473918E1,4.499248E0,2.249624E0,6.7488723E0,1.7996992E1,1.7497076E0,1.4997495E2,2.2171295E2,5.2941156E2,2.0246616E1,5.749039E0,1.3497745E1,3.2494571E0,1.2497911E0,6.9988303E0,1.9996659E0,1.2497911E0,1.699716E1,5.499081E0,1.2497911E0,1.1498078E1,1.4997494E0,4.524244E1,1.2497911E0,1.3997661E1,2.9245113E1,5.499081E1,4.24929E0,2.3970995E2,2.8995155E1,4.6742188E1,7.9986634E0,1.2497911E0,5.249123E0,1.1498078E1,3.9993317E0,3.6593884E2,1.2247953E1,7.248789E0,6.4989142E0,2.7495406E0,2.3496075E1,9.748371E0,9.748371E0,6.1239765E1,3.4994152E0,2.4995823E0,1.9996659E0,5.249123E0,1.4997494E0,1.3547736E2,1.4497578E1,2.5495739E1,1.9621721E2],"tree_param":{"num_deleted":"0","num_feature":"5000","num_nodes":"107","size_leaf_vector":"1"}},{"base_weights":[3.493678E-5,4.6450272E-1,-5.452647E-1,-1.8196024E-1,7.311E-1,-1.024728E0,-5.0399326E-2,1.4460648E0,-5.0924194E-1,1.009298E0,3.2000324E-1,7.0164967E-1,-1.1747684E0,9.270141E-1,-2.4642308E-1,1.6386319E0,-7.8946924E-1,9.8027486E-1,-6.337358E-1,7.173549E-1,1.4473817E0,1.6511621E-2,8.5918754E-1,1.0097061E0,-1.3571697E-1,-1.305786E0,-4.890644E-2,1.2889632E0,9.586344E-2,7.871559E-1,-4.0431073E-1,-2.7726833E-2,1.6929117E0,3.5879273E-2,-1.3843946E-1,1.2623339E0,-8.106437E-1,-8.334855E-1,3.403494E-1,-1.6155079E-1,8.9933753E-1,1.5096667E0,-1.5690178E-1,9.997932E-1,-2.2332545E-1,9.322599E-1,-1.2548274E-1,1.208138E0,-1.2730679E-1,-1.3738829E0,4.794786E-1,1.8366827E-1,-1.5953206E-1,1.4367872E0,-9.2463595E-1,1.3716744E0,-6.26038E-1,1.0852783E0,-4.5116296E-1,1.1671401E0,-5.0987816E-1,1.7487787E-1,-2.5060846E-2,-3.9458115E-2,1.5120827E-1,-1.832706E-2,-1.0770019E-1,6.5093204E-2,-9.776338E-2,1.2602259E-1,-2.2409302E-3,-8.4352E-2,6.532926E-2,9.9475086E-2,-7.3263094E-2,1.5805496E-1,1.1112537E-3,1.5405625E-1,2.9760648E-2,1.5116008E-1,-3.5401743E-2,1.4747548E-1,5.482787E-2,-1.01005726E-1,1.3298813E-1,-1.4398302E-1,3.2672025E-2,-4.0470272E-2,1.389077E-1,-8.964857E-2,4.175752E-2,-1.18416764E-1,1.5260793E-1,-1.5541653E-2,-1.216748E-1,1.5396705E-1,1.6444076E-2,7.9452515E-2,-1.0351826E-1,-5.3275544E-2,1.3309093E-1,1.3365886E-1,-9.4731234E-2,1.3902664E-1,-6.711748E-2,5.1191963E-2,-6.5312974E-2],"categories":[],"categories_nodes":[],"categories_segments":[],"categories_sizes":[],"default_left":[0,1,1,0,0,0,0,1,0,1,1,1,1,1,0,0,0,1,1,0,1,0,1,1,0,1,1,1,0,1,0,0,1,0,0,0,0,0,0,1,1,1,0,0,0,0,0,0,0,1,0,0,0,0,0,1,0,0,0,1,0,0,0,0,0,0,0,0,0,0,0,0,0,0,0,0,0,0,0,0,0,0,0,0,0,0,0,0,0,0,0,0,0,0,0,0,0,0,0,0,0,0,0,0,0,0,0],"id":1,"left_children":[1,3,5,7,9,11,13,15,17,19,21,23,25,27,29,31,33,35,37,39,41,43,45,47,-1,49,51,53,55,57,59,-1,61,-1,-1,63,65,67,69,71,73,75,-1,77,79,81,-1,83,-1,85,87,89,-1,91,93,95,97,99,101,103,105,-1,-1,-1,-1,-1,-1,-1,-1,-1,-1,-1,-1,-1,-1,-1,-1,-1,-1,-1,-1,-1,-1,-1,-1,-1,-1,-1,-1,-1,-1,-1,-1,-1,-1,-1,-1,-1,-1,-1,-1,-1,-1,-1,-1,-1,-1],"loss_changes":[5.178056E2,1.9041127E2,2.2307556E2,1.7292572E2,8.9098694E1,1.2452985E2,8.909389E1,2.4691704E1,5.0654076E1,5.854254E1,5.1864376E1,2.5987312E1,6.480475E1,2.3248512E1,6.349299E1,5.707245E0,3.9023876E0,1.1734467E1,4.8850708E1,4.5176224E1,3.718518E1,4.8301937E1,1.8804901E1,1.7091152E1,0E0,4.85437E1,1.715376E1,1.9012177E1,2.3561005E1,1.9553375E1,5.6416073E1,0E0,5.7716064E0,0E0,0E0,8.339098E0,3.8649917E-1,4.5019913E1,1.4438942E1,2.7859394E1,3.7071335E1,1.9323029E1,0E0,1.4790806E1,3.7882317E1,2.2296936E1,0E0,1.0012566E1,0E0,4.30506E1,1.2797656E1,1.0896953E1,0E0,1.3754425E1,7.077627E-1,1.6168842E0,1.0371025E1,1.7367016E1,1.0780192E1,9.746012E0,4.6588615E1,0E0,0E0,0E0,0E0,0E0,0E0,0E0,0E0,0E0,0E0,0E0,0E0,0E0,0E0,0E0,0E0,0E0,0E0,0E0,0E0,0E0,0E0,0E0,0E0,0E0,0E0,0E0,0E0,0E0,0E0,0E0,0E0,0E0,0E0,0E0,0E0,0E0,0E0,0E0,0E0,0E0,0E0,0E0,0E0,0E0,0E0],"parents":[2147483647,0,0,1,1,2,2,3,3,4,4,5,5,6,6,7,7,8,8,9,9,10,10,11,11,12,12,13,13,14,14,15,15,16,16,17,17,18,18,19,19,20,20,21,21,22,22,23,23,25,25,26,26,27,27,28,28,29,29,30,30,32,32,35,35,36,36,37,37,38,38,39,39,40,40,41,41,43,43,44,44,45,45,47,47,49,49,50,50,51,51,53,53,54,54,55,55,56,56,57,57,58,58,59,59,60,60],"right_children":[2,4,6,8,10,12,14,16,18,20,22,24,26,28,30,32,34,36,38,40,42,44,46,48,-1,50,52,54,56,58,60,-1,62,-1,-1,64,66,68,70,72,74,76,-1,78,80,82,-1,84,-1,86,88,90,-1,92,94,96,98,100,102,104,106,-1,-1,-1,-1,-1,-1,-1,-1,-1,-1,-1,-1,-1,-1,-1,-1,-1,-1,-1,-1,-1,-1,-1,-1,-1,-1,-1,-1,-1,-1,-1,-1,-1,-1,-1,-1,-1,-1,-1,-1,-1,-1,-1,-1,-1,-1],"split_conditions":[4.742557E-2,7.843866E-3,2.4403693E-2,6.2568806E-2,1.4369078E-2,8.8202104E-2,1.4840336E-1,2.7697174E-2,3.1944443E-2,2.7352508E-2,4.088475E-2,5.5421393E-2,5.3385377E-2,3.4285795E-2,1.6638397E-1,6.440503E-2,9.468404E-2,2.6673757E-2,4.290955E-2,1.5553153E-2,4.1215565E-2,1.3210793E-1,4.7616977E-2,3.3768434E-2,-1.3571697E-1,4.377109E-2,3.5750426E-2,4.7257494E-2,4.992527E-2,6.2387984E-2,5.055341E-2,-2.7726833E-2,9.6538E-2,3.5879273E-2,-1.3843946E-1,1.0955697E-2,2.561824E-2,5.689326E-2,4.904716E-2,3.9042186E-2,4.235784E-2,6.4420596E-2,-1.5690178E-1,4.0149737E-2,6.801772E-2,6.218866E-2,-1.2548274E-1,4.0874805E-2,-1.2730679E-1,6.487142E-2,3.284894E-2,2.9667435E-2,-1.5953206E-1,4.1217405E-2,2.746256E-2,3.383592E-2,8.430367E-2,2.6119933E-2,9.420681E-2,6.7355536E-2,6.1897777E-2,1.7487787E-1,-2.5060846E-2,-3.9458115E-2,1.5120827E-1,-1.832706E-2,-1.0770019E-1,6.5093204E-2,-9.776338E-2,1.2602259E-1,-2.2409302E-3,-8.4352E-2,6.532926E-2,9.9475086E-2,-7.3263094E-2,1.5805496E-1,1.1112537E-3,1.5405625E-1,2.9760648E-2,1.5116008E-1,-3.5401743E-2,1.4747548E-1,5.482787E-2,-1.01005726E-1,1.3298813E-1,-1.4398302E-1,3.2672025E-2,-4.0470272E-2,1.389077E-1,-8.964857E-2,4.175752E-2,-1.18416764E-1,1.5260793E-1,-1.5541653E-2,-1.216748E-1,1.5396705E-1,1.6444076E-2,7.9452515E-2,-1.0351826E-1,-5.3275544E-2,1.3309093E-1,1.3365886E-1,-9.4731234E-2,1.3902664E-1,-6.711748E-2,5.1191963E-2,-6.5312974E-2],"split_indices":[4508,4483,3022,4051,4669,2154,423,623,884,4583,4973,1259,4973,1267,311,1595,4094,1645,118,3429,1295,4253,3947,1547,0,1383,121,1536,2251,1085,3272,0,3112,0,0,1466,49,4428,4261,1014,2509,2777,0,3022,2518,1034,0,1391,0,1242,1466,4345,0,4068,4345,126,4398,3576,1014,79,4056,0,0,0,0,0,0,0,0,0,0,0,0,0,0,0,0,0,0,0,0,0,0,0,0,0,0,0,0,0,0,0,0,0,0,0,0,0,0,0,0,0,0,0,0,0,0],"split_type":[0,0,0,0,0,0,0,0,0,0,0,0,0,0,0,0,0,0,0,0,0,0,0,0,0,0,0,0,0,0,0,0,0,0,0,0,0,0,0,0,0,0,0,0,0,0,0,0,0,0,0,0,0,0,0,0,0,0,0,0,0,0,0,0,0,0,0,0,0,0,0,0,0,0,0,0,0,0,0,0,0,0,0,0,0,0,0,0,0,0,0,0,0,0,0,0,0,0,0,0,0,0,0,0,0,0,0],"sum_hessian":[2.0424471E3,1.1030525E3,9.3939465E2,3.2216434E2,7.808882E2,4.7657846E2,4.628162E2,5.3352093E1,2.6881226E2,4.6485547E2,3.160327E2,3.781379E1,4.3876468E2,7.669092E1,3.8612527E2,4.936669E1,3.9854007E0,2.0204142E1,2.4860811E2,2.8053912E2,1.8431636E2,2.0287227E2,1.13160446E2,3.3335453E1,4.478337E0,3.9288455E2,4.5880104E1,5.304158E1,2.3649342E1,5.0639393E1,3.3548587E2,1.2469045E0,4.8119785E1,1.4956214E0,2.4897792E0,1.771006E1,2.494082E0,2.0642264E2,4.2185482E1,4.814238E1,2.3239674E2,1.8107687E2,3.2394989E0,3.9159187E1,1.6371307E2,1.0991999E2,3.2404513E0,3.1102594E1,2.2328587E0,3.7867102E2,1.4213547E1,4.0648026E1,5.232076E0,5.005016E1,2.9914212E0,8.220763E0,1.5428577E1,4.091322E1,9.726172E0,2.0485641E1,3.1500024E2,4.6872623E1,1.247163E0,2.243832E0,1.5466228E1,1.2464015E0,1.2476805E0,1.7959784E1,1.8846284E2,1.12313175E1,3.0954166E1,2.6188866E1,2.1953514E1,2.1992902E2,1.2467729E1,1.7284636E2,8.230501E0,2.144781E1,1.7711378E1,1.0728387E1,1.529847E2,4.437938E1,6.554061E1,1.2385854E0,2.986401E1,3.6468243E2,1.3988593E1,7.488943E0,6.7246037E0,6.7312527E0,3.3916775E1,1.2449799E0,4.880518E1,1.2450008E0,1.7464204E0,6.9747944E0,1.2459685E0,3.239391E0,1.2189187E1,5.2382994E0,3.567492E1,1.7449071E0,7.981265E0,1.8485664E1,1.9999772E0,3.8415207E1,2.7658502E2],"tree_param":{"num_deleted":"0","num_feature":"5000","num_nodes":"107","size_leaf_vector":"1"}},{"base_weights":[9.592777E-5,4.212391E-1,-4.9643973E-1,-1.6444388E-1,6.6267645E-1,-9.574257E-1,-6.303581E-2,1.3209199E0,-4.603286E-1,9.156798E-1,2.9034054E-1,6.179228E-1,-1.0992606E0,8.1903535E-1,-2.3646076E-1,1.4997206E0,-7.3513323E-1,8.5464454E-1,-5.7583296E-1,6.503332E-1,1.3210881E0,9.336935E-1,6.837031E-2,-1.7194668E-2,1.5672852E0,-1.2253174E0,-7.050876E-2,9.916636E-1,-4.9107447E-1,1.3692552E0,-3.2149723E-1,1.5532491E0,-3.3064824E-2,3.376236E-2,-1.2946427E-1,2.736809E-1,1.6791674E-1,-7.590414E-1,3.0959013E-1,3.6840853E-1,1.1872483E0,1.3793572E0,-1.4518252E-1,1.0992088E0,-7.284145E-1,-9.4695896E-2,1.3594295E0,-1.1956078E0,5.118492E-1,1.6230054E-1,5.12464E-2,-1.284474E0,2.8472158E-1,-5.9227276E-1,6.175903E-1,1.1370072E0,-9.4625336E-1,-8.378788E-1,1.0650648E-1,1.6732079E-1,-5.864381E-1,1.6074906E-1,-6.4611703E-1,1.6083342E-1,-2.9810106E-2,1.0780682E-1,-4.423547E-2,5.3199798E-2,-8.985626E-2,4.5660665E-4,1.3240445E-1,1.048671E-1,7.974376E-3,1.4092022E-1,-2.355512E-3,1.4298259E-1,-5.6797396E-2,1.2154821E-1,-3.611776E-2,-1.290105E-1,8.143719E-2,-3.40952E-2,5.4766387E-2,1.6161905E-1,5.390819E-4,2.4983512E-2,-1.5131818E-1,8.526415E-2,-1.2215787E-1,-1.3422811E-1,2.4125598E-2,-1.299127E-1,8.45508E-2,9.395052E-2,-8.237428E-2,8.6901E-2,-8.508059E-2,1.26392E-1,-3.565937E-2,-1.2803565E-1,-2.42374E-2,-3.2519728E-3,-1.435866E-1,-1.1080523E-1,1.9714102E-2,2.9955471E-2,-1.3646664E-1,1.4973323E-1,-7.200212E-2],"categories":[],"categories_nodes":[],"categories_segments":[],"categories_sizes":[],"default_left":[0,1,1,0,0,0,0,1,0,1,0,1,1,1,0,1,0,1,1,1,1,1,1,0,1,1,1,1,1,1,0,1,0,0,0,0,0,0,0,0,1,1,0,1,1,1,1,0,1,0,0,1,0,0,0,1,0,1,0,0,0,1,0,0,0,0,0,0,0,0,0,0,0,0,0,0,0,0,0,0,0,0,0,0,0,0,0,0,0,0,0,0,0,0,0,0,0,0,0,0,0,0,0,0,0,0,0,0,0],"id":2,"left_children":[1,3,5,7,9,11,13,15,17,19,21,23,25,27,29,31,33,35,37,39,41,43,45,47,49,51,53,55,57,59,61,63,-1,-1,-1,65,-1,67,69,71,73,75,-1,77,79,81,83,85,87,-1,-1,89,91,93,95,97,99,101,-1,-1,103,105,107,-1,-1,-1,-1,-1,-1,-1,-1,-1,-1,-1,-1,-1,-1,-1,-1,-1,-1,-1,-1,-1,-1,-1,-1,-1,-1,-1,-1,-1,-1,-1,-1,-1,-1,-1,-1,-1,-1,-1,-1,-1,-1,-1,-1,-1,-1],"loss_changes":[4.24142E2,1.5529684E2,1.8591301E2,1.4175343E2,7.295877E1,1.0144849E2,7.374901E1,2.080909E1,4.1280453E1,4.887845E1,4.505603E1,2.2873493E1,5.3614532E1,1.8405533E1,5.5414257E1,5.3777084E0,3.414051E0,1.01202545E1,4.0377327E1,4.216134E1,3.1399109E1,2.3075478E1,4.9810276E1,1.5382308E1,6.1584473E-2,3.3313538E1,1.6975552E1,2.088697E1,6.2314367E0,1.3131187E1,6.008784E1,5.4164352E0,0E0,0E0,0E0,8.627819E0,0E0,3.7462692E1,1.33414955E1,3.6436653E1,2.5951538E1,1.8375061E1,0E0,1.3010338E1,7.92616E0,3.347783E1,9.21434E0,3.885334E0,1.1114492E1,0E0,0E0,3.1644165E1,1.4175617E1,1.0284087E1,8.285873E0,1.2939285E1,9.720311E-1,4.118989E0,0E0,0E0,1.6448333E0,3.3219097E1,3.738748E1,0E0,0E0,0E0,0E0,0E0,0E0,0E0,0E0,0E0,0E0,0E0,0E0,0E0,0E0,0E0,0E0,0E0,0E0,0E0,0E0,0E0,0E0,0E0,0E0,0E0,0E0,0E0,0E0,0E0,0E0,0E0,0E0,0E0,0E0,0E0,0E0,0E0,0E0,0E0,0E0,0E0,0E0,0E0,0E0,0E0,0E0],"parents":[2147483647,0,0,1,1,2,2,3,3,4,4,5,5,6,6,7,7,8,8,9,9,10,10,11,11,12,12,13,13,14,14,15,15,16,16,17,17,18,18,19,19,20,20,21,21,22,22,23,23,24,24,25,25,26,26,27,27,28,28,29,29,30,30,31,31,35,35,37,37,38,38,39,39,40,40,41,41,43,43,44,44,45,45,46,46,47,47,48,48,51,51,52,52,53,53,54,54,55,55,56,56,57,57,60,60,61,61,62,62],"right_children":[2,4,6,8,10,12,14,16,18,20,22,24,26,28,30,32,34,36,38,40,42,44,46,48,50,52,54,56,58,60,62,64,-1,-1,-1,66,-1,68,70,72,74,76,-1,78,80,82,84,86,88,-1,-1,90,92,94,96,98,100,102,-1,-1,104,106,108,-1,-1,-1,-1,-1,-1,-1,-1,-1,-1,-1,-1,-1,-1,-1,-1,-1,-1,-1,-1,-1,-1,-1,-1,-1,-1,-1,-1,-1,-1,-1,-1,-1,-1,-1,-1,-1,-1,-1,-1,-1,-1,-1,-1,-1,-1],"split_conditions":[4.742557E-2,7.843866E-3,2.212019E-2,6.2568806E-2,1.4369078E-2,8.8202104E-2,1.4840336E-1,2.7697174E-2,3.2341562E-2,2.7973354E-2,6.0221925E-2,3.9807934E-2,5.3385377E-2,4.7023103E-2,9.815491E-2,7.3412225E-2,9.468404E-2,1.56010445E-2,4.290955E-2,2.1377793E-2,4.1215565E-2,4.7616977E-2,4.1472953E-2,2.393368E-2,2.6686512E-2,6.149147E-2,3.674331E-2,6.780765E-2,3.084816E-2,3.968046E-2,9.421159E-2,3.3995967E-2,-3.3064824E-2,3.376236E-2,-1.2946427E-1,4.4617955E-2,1.6791674E-1,5.7832528E-2,8.2575105E-2,4.2618677E-2,2.9820884E-2,9.324889E-2,-1.4518252E-1,6.251532E-2,2.98036E-2,3.68419E-2,2.9754872E-2,2.9011745E-2,5.6838233E-2,1.6230054E-1,5.12464E-2,8.717288E-2,3.384725E-2,5.4270353E-2,3.5099763E-2,5.254428E-2,3.385703E-2,2.0744532E-2,1.0650648E-1,1.6732079E-1,1.5497356E-2,3.1573493E-2,4.089745E-2,1.6083342E-1,-2.9810106E-2,1.0780682E-1,-4.423547E-2,5.3199798E-2,-8.985626E-2,4.5660665E-4,1.3240445E-1,1.048671E-1,7.974376E-3,1.4092022E-1,-2.355512E-3,1.4298259E-1,-5.6797396E-2,1.2154821E-1,-3.611776E-2,-1.290105E-1,8.143719E-2,-3.40952E-2,5.4766387E-2,1.6161905E-1,5.390819E-4,2.4983512E-2,-1.5131818E-1,8.526415E-2,-1.2215787E-1,-1.3422811E-1,2.4125598E-2,-1.299127E-1,8.45508E-2,9.395052E-2,-8.237428E-2,8.6901E-2,-8.508059E-2,1.26392E-1,-3.565937E-2,-1.2803565E-1,-2.42374E-2,-3.2519728E-3,-1.435866E-1,-1.1080523E-1,1.9714102E-2,2.9955471E-2,-1.3646664E-1,1.4973323E-1,-7.200212E-2],"split_indices":[4508,4483,3022,4051,4669,2154,423,623,884,4583,1034,4483,4973,1070,3824,3353,4094,2743,118,793,1295,1329,2383,2125,121,1242,2531,4217,3859,1007,4065,2730,0,0,0,3022,0,4428,3576,1034,4926,409,0,4091,1349,793,4949,3656,1259,0,0,4944,4205,3272,4669,4350,1466,57,0,0,793,1408,3143,0,0,0,0,0,0,0,0,0,0,0,0,0,0,0,0,0,0,0,0,0,0,0,0,0,0,0,0,0,0,0,0,0,0,0,0,0,0,0,0,0,0,0,0,0,0],"split_type":[0,0,0,0,0,0,0,0,0,0,0,0,0,0,0,0,0,0,0,0,0,0,0,0,0,0,0,0,0,0,0,0,0,0,0,0,0,0,0,0,0,0,0,0,0,0,0,0,0,0,0,0,0,0,0,0,0,0,0,0,0,0,0,0,0,0,0,0,0,0,0,0,0,0,0,0,0,0,0,0,0,0,0,0,0,0,0,0,0,0,0,0,0,0,0,0,0,0,0,0,0,0,0,0,0,0,0,0,0],"sum_hessian":[2.0262948E3,1.0964652E3,9.298296E2,3.201525E2,7.763127E2,4.499914E2,4.798382E2,5.260535E1,2.6754715E2,4.6135876E2,3.149539E2,3.6890865E1,4.1310052E2,7.8228905E1,4.0160928E2,4.8645565E1,3.9597838E0,2.1086468E1,2.4646068E2,2.8042197E2,1.8093681E2,7.9968575E1,2.349853E2,2.2691969E1,1.4198896E1,3.6783704E2,4.52635E1,6.933585E1,8.893053E0,1.94394E1,3.821699E2,4.741046E1,1.2351032E0,1.4932747E0,2.4665089E0,1.3151659E1,7.9348097E0,2.043252E2,4.2135483E1,1.8497894E2,9.544303E1,1.7770512E2,3.231682E0,7.303437E1,6.934209E0,2.094567E2,2.552861E1,6.640568E0,1.6051401E1,1.29748535E1,1.2240428E0,3.541138E2,1.3723244E1,2.5822424E1,1.9441076E1,6.488292E1,4.452931E0,7.6497746E0,1.2432786E0,1.6949554E1,2.4898462E0,1.5395836E2,2.2821152E2,4.616804E1,1.2424208E0,5.9555955E0,7.1960635E0,1.9653278E1,1.8467192E2,3.3167305E1,8.968177E0,5.432492E1,1.3065402E2,8.051911E1,1.4923916E1,1.7347496E2,4.2301645E0,6.780366E1,5.230709E0,5.2035184E0,1.7306902E0,1.5175056E2,5.7706135E1,2.129661E1,4.232001E0,1.2345947E0,5.4059734E0,1.3838807E1,2.2125936E0,3.413027E2,1.2811075E1,3.2441268E0,1.0479116E1,2.9882822E0,2.2834143E1,1.6947504E1,2.4935715E0,5.9943256E1,4.9396644E0,2.4642506E0,1.9886804E0,3.7089732E0,3.9408014E0,1.24619E0,1.2436564E0,1.4185394E2,1.2104419E1,6.964318E0,2.2124721E2],"tree_param":{"num_deleted":"0","num_feature":"5000","num_nodes":"109","size_leaf_vector":"1"}},{"base_weights":[3.7239998E-4,3.8395673E-1,-4.5398122E-1,6.969643E-1,-3.0138665E-3,-8.651562E-1,-3.961622E-2,7.6451504E-1,-7.160488E-1,1.1025312E0,-1.7910187E-1,6.22258E-1,-9.889373E-1,7.872882E-1,-1.9854999E-1,8.1941813E-1,-5.3143555E-1,-1.0766685E0,1.282882E-1,3.450511E-1,1.4074428E0,5.7973284E-1,-4.181062E-1,3.2192983E-2,1.4641362E0,-1.1983993E0,-4.3643305E-1,1.110424E0,7.46009E-2,1.267653E0,-2.7795595E-1,8.492092E-1,-1.5125093E-1,-9.1132146E-1,7.962625E-1,-1.2351512E0,8.0586515E-2,-6.4191383E-1,8.687432E-1,-4.7295153E-2,1.478796E0,-8.070716E-1,8.437812E-1,-5.850312E-1,3.9349028E-1,-1.0903459E0,5.431161E-1,4.4246938E-2,1.5211864E-1,-1.2456739E0,6.561889E-1,4.968169E-1,-6.62968E-1,1.2480143E0,-8.3591163E-1,1.1959239E0,-5.529584E-1,1.5147234E0,-8.3607234E-2,-5.542504E-1,1.6177528E-1,9.0130046E-2,-4.5301035E-2,1.4288482E-2,-1.2909238E-1,1.3459818E-1,-6.920935E-2,-1.3751118E-1,6.633315E-2,-1.01215184E-1,7.126248E-2,1.1261042E-1,-7.564647E-2,1.5317857E-1,-2.3602521E-2,-1.20437495E-1,3.8836334E-2,1.0213015E-1,-6.1971504E-2,3.3648398E-2,-7.5625055E-2,6.131772E-2,-8.117204E-2,2.3578491E-2,-1.4007919E-1,1.2230531E-1,-3.5782434E-2,-1.306042E-1,-3.4168582E-2,1.0210412E-1,-6.314036E-2,7.859313E-2,-1.02127396E-1,-8.318058E-2,4.5263007E-2,-1.1889328E-1,1.3384615E-1,-1.0736451E-2,-1.1267053E-1,7.5358497E-3,1.3611874E-1,7.098462E-2,-9.1842316E-2,1.5613288E-1,4.6472885E-2,1.1322097E-1,-6.578485E-2,3.1482395E-2,-1.1452162E-1],"categories":[],"categories_nodes":[],"categories_segments":[],"categories_sizes":[],"default_left":[0,0,1,1,0,0,0,1,0,0,0,1,1,1,0,1,1,1,0,0,0,0,1,0,0,1,0,1,0,1,1,1,0,0,1,1,0,1,1,0,1,1,1,0,1,0,1,0,0,1,1,1,1,0,0,0,0,1,0,0,1,0,0,0,0,0,0,0,0,0,0,0,0,0,0,0,0,0,0,0,0,0,0,0,0,0,0,0,0,0,0,0,0,0,0,0,0,0,0,0,0,0,0,0,0,0,0,0,0],"id":3,"left_children":[1,3,5,7,9,11,13,15,17,19,21,23,25,27,29,31,33,35,-1,37,39,41,43,45,47,49,51,53,55,57,59,61,-1,63,65,67,-1,69,71,-1,73,75,77,79,81,83,85,-1,-1,87,89,91,93,95,97,99,101,103,-1,105,107,-1,-1,-1,-1,-1,-1,-1,-1,-1,-1,-1,-1,-1,-1,-1,-1,-1,-1,-1,-1,-1,-1,-1,-1,-1,-1,-1,-1,-1,-1,-1,-1,-1,-1,-1,-1,-1,-1,-1,-1,-1,-1,-1,-1,-1,-1,-1,-1],"loss_changes":[3.493195E2,1.3164053E2,1.5629016E2,5.7895966E1,9.4999E1,8.539725E1,6.0352913E1,4.1269012E1,2.1513895E1,1.4999901E1,7.658435E1,1.783184E1,4.8718994E1,1.6969273E1,4.517516E1,3.956015E1,1.2796078E1,8.216633E0,0E0,1.1188391E1,7.0698395E0,3.7753796E1,4.3675846E1,1.331456E1,1.9004822E-1,2.7817352E1,2.5390368E1,1.466703E1,1.7670378E1,1.1640415E1,4.4561E1,3.73544E1,0E0,7.81738E0,5.72421E0,6.9490204E0,0E0,4.5854425E0,6.6500645E0,0E0,4.540207E0,8.401439E0,2.2855396E1,4.2285072E1,1.5140504E1,3.3236446E0,1.01848545E1,0E0,0E0,1.5960571E1,4.5484824E0,1.1215801E1,1.8423668E1,1.2152702E1,7.175162E-1,1.5621891E0,8.119852E0,1.658516E-1,0E0,4.005844E1,2.8768513E1,0E0,0E0,0E0,0E0,0E0,0E0,0E0,0E0,0E0,0E0,0E0,0E0,0E0,0E0,0E0,0E0,0E0,0E0,0E0,0E0,0E0,0E0,0E0,0E0,0E0,0E0,0E0,0E0,0E0,0E0,0E0,0E0,0E0,0E0,0E0,0E0,0E0,0E0,0E0,0E0,0E0,0E0,0E0,0E0,0E0,0E0,0E0,0E0],"parents":[2147483647,0,0,1,1,2,2,3,3,4,4,5,5,6,6,7,7,8,8,9,9,10,10,11,11,12,12,13,13,14,14,15,15,16,16,17,17,19,19,20,20,21,21,22,22,23,23,24,24,25,25,26,26,27,27,28,28,29,29,30,30,31,31,33,33,34,34,35,35,37,37,38,38,40,40,41,41,42,42,43,43,44,44,45,45,46,46,49,49,50,50,51,51,52,52,53,53,54,54,55,55,56,56,57,57,59,59,60,60],"right_children":[2,4,6,8,10,12,14,16,18,20,22,24,26,28,30,32,34,36,-1,38,40,42,44,46,48,50,52,54,56,58,60,62,-1,64,66,68,-1,70,72,-1,74,76,78,80,82,84,86,-1,-1,88,90,92,94,96,98,100,102,104,-1,106,108,-1,-1,-1,-1,-1,-1,-1,-1,-1,-1,-1,-1,-1,-1,-1,-1,-1,-1,-1,-1,-1,-1,-1,-1,-1,-1,-1,-1,-1,-1,-1,-1,-1,-1,-1,-1,-1,-1,-1,-1,-1,-1,-1,-1,-1,-1,-1,-1],"split_conditions":[4.742557E-2,8.541321E-2,2.4403693E-2,4.8613336E-2,7.028684E-2,8.470522E-2,1.3886636E-1,3.047657E-2,4.412693E-2,1.93764E-2,1.16441146E-1,3.9807934E-2,2.1990892E-2,3.4285795E-2,9.815491E-2,1.3957208E-2,3.2964375E-2,6.4954974E-2,1.282882E-1,8.627269E-2,6.4874634E-2,7.817529E-2,2.3093656E-2,2.393368E-2,7.31807E-2,4.2034302E-2,6.222947E-2,4.7257494E-2,4.992527E-2,1.6193224E-1,2.0072626E-2,3.841846E-2,-1.5125093E-1,3.2955855E-2,2.4790721E-2,3.4405515E-2,8.0586515E-2,5.7932056E-2,9.03388E-2,-4.7295153E-2,6.545442E-2,6.250441E-2,3.8291335E-2,3.49656E-2,3.388916E-2,2.584054E-2,2.2160111E-2,4.4246938E-2,1.5211864E-1,6.656444E-2,2.757932E-2,5.604932E-2,4.916064E-2,4.1217405E-2,2.746256E-2,2.5401907E-2,8.430367E-2,6.8759345E-2,-8.3607234E-2,4.6569698E-2,3.1017957E-2,9.0130046E-2,-4.5301035E-2,1.4288482E-2,-1.2909238E-1,1.3459818E-1,-6.920935E-2,-1.3751118E-1,6.633315E-2,-1.01215184E-1,7.126248E-2,1.1261042E-1,-7.564647E-2,1.5317857E-1,-2.3602521E-2,-1.20437495E-1,3.8836334E-2,1.0213015E-1,-6.1971504E-2,3.3648398E-2,-7.5625055E-2,6.131772E-2,-8.117204E-2,2.3578491E-2,-1.4007919E-1,1.2230531E-1,-3.5782434E-2,-1.306042E-1,-3.4168582E-2,1.0210412E-1,-6.314036E-2,7.859313E-2,-1.02127396E-1,-8.318058E-2,4.5263007E-2,-1.1889328E-1,1.3384615E-1,-1.0736451E-2,-1.1267053E-1,7.5358497E-3,1.3611874E-1,7.098462E-2,-9.1842316E-2,1.5613288E-1,4.6472885E-2,1.1322097E-1,-6.578485E-2,3.1482395E-2,-1.1452162E-1],"split_indices":[4508,2081,3022,4174,1505,2154,423,605,4508,3429,4572,4483,870,1267,3824,1680,4096,2749,0,4761,2043,264,3656,2125,336,616,2531,1536,2251,74,4065,463,0,1349,2741,49,0,2833,1100,0,1876,705,957,2224,4469,377,659,0,0,1076,2743,4182,3131,4068,4345,4092,4398,2222,0,3143,1408,0,0,0,0,0,0,0,0,0,0,0,0,0,0,0,0,0,0,0,0,0,0,0,0,0,0,0,0,0,0,0,0,0,0,0,0,0,0,0,0,0,0,0,0,0,0,0,0],"split_type":[0,0,0,0,0,0,0,0,0,0,0,0,0,0,0,0,0,0,0,0,0,0,0,0,0,0,0,0,0,0,0,0,0,0,0,0,0,0,0,0,0,0,0,0,0,0,0,0,0,0,0,0,0,0,0,0,0,0,0,0,0,0,0,0,0,0,0,0,0,0,0,0,0,0,0,0,0,0,0,0,0,0,0,0,0,0,0,0,0,0,0,0,0,0,0,0,0,0,0,0,0,0,0,0,0,0,0,0,0],"sum_hessian":[2.002324E3,1.0858007E3,9.165233E2,5.998229E2,4.8597775E2,4.5948642E2,4.570369E2,5.72894E2,2.69289E1,6.60473E1,4.1993045E2,3.4990963E1,4.2449548E2,7.3044685E1,3.8399222E2,5.4996246E2,2.293151E1,2.320411E1,3.7247906E0,1.9567688E1,4.6479614E1,1.0024108E2,3.196894E2,2.1182543E1,1.3808419E1,3.069554E2,1.17540054E2,4.987365E1,2.3171038E1,1.8958883E1,3.6503333E2,5.4365295E2,6.3094974E0,1.8073782E1,4.857729E0,2.1719522E1,1.4845867E0,6.7051764E0,1.2862513E1,1.4934682E0,4.498615E1,1.5704288E1,8.453679E1,2.653854E2,5.430396E1,6.27087E0,1.4911673E1,1.1933544E0,1.2615065E1,2.996456E2,7.309816E0,2.2725462E1,9.48146E1,4.6915863E1,2.9577866E0,7.9895806E0,1.51814575E1,1.7216845E1,1.7420386E0,2.2401714E2,1.4101619E2,5.230383E2,2.0614647E1,4.9501486E0,1.3123633E1,3.6173368E0,1.2403923E0,2.0484999E1,1.2345233E0,5.464364E0,1.2408124E0,1.136923E1,1.4932817E0,4.3741238E1,1.2449098E0,1.1781292E1,3.9229956E0,7.5661316E1,8.875475E0,4.14317E1,2.2395372E2,4.634701E1,7.9569483E0,1.2351557E0,5.0357146E0,8.294391E0,6.617282E0,2.8047107E2,1.9174528E1,5.857149E0,1.4526666E0,1.9495005E1,3.2304564E0,8.257226E1,1.2242337E1,1.2443311E0,4.567153E1,1.2343897E0,1.7233968E0,1.214008E0,6.7755723E0,3.1959736E0,1.1985484E1,1.601884E1,1.198004E0,1.2390166E1,2.1162697E2,1.2691372E2,1.410247E1],"tree_param":{"num_deleted":"0","num_feature":"5000","num_nodes":"109","size_leaf_vector":"1"}},{"base_weights":[2.8661854E-4,3.4983426E-1,-4.1611028E-1,-1.4807041E-1,5.555436E-1,-8.169159E-1,-4.9811758E-2,1.1643721E0,-4.0223157E-1,5.7921354E-2,7.1030986E-1,5.3141147E-1,-9.389381E-1,1.1685666E0,-1.4574027E-1,1.3199512E0,-8.046469E-1,7.5987035E-1,-5.0419825E-1,6.962246E-1,-3.4310675E-1,4.0036166E-1,9.7923523E-1,-1.7997533E-2,1.3789923E0,-1.0575993E0,-7.326842E-3,1.3773472E0,-1.2835854E-1,9.1842437E-1,-2.5592336E-1,-1.4664076E-2,1.3917037E0,2.681224E-2,-1.2888902E-1,9.976692E-1,-7.7852124E-1,-6.721976E-1,2.9864705E-1,9.484369E-1,-7.821429E-1,-6.4693403E-1,5.247383E-1,1.5889996E-1,1.002502E0,1.0113146E0,-1.583225E-1,1.0486473E0,-4.7805095E-1,1.437838E-1,3.795553E-2,-1.1119771E0,2.6718333E-1,2.0307738E-1,-1.2985682E-1,-1.2058773E-1,1.5155774E0,1.1781309E0,-8.16715E-1,-1.4977781E-1,-1.207118E0,1.4608255E-1,-2.3795072E-2,-6.1791927E-2,1.1922904E-1,-1.0644771E-1,-1.4062613E-2,-1.05841555E-1,-2.9143928E-2,6.76628E-2,-4.0399376E-2,1.0726919E-1,-8.4959134E-2,-1.24079846E-1,6.80325E-2,8.443247E-3,-1.0253538E-1,-7.3007785E-2,1.140064E-1,1.0063056E-1,-8.689874E-3,1.3053037E-1,2.7431482E-2,1.0627174E-1,-6.657706E-2,1.389675E-1,-4.7022393E-3,5.273365E-2,-9.588989E-2,-2.1705538E-2,-1.19175516E-1,-1.1732966E-1,7.744025E-2,4.1045144E-2,-1.0834694E-1,1.5932171E-1,-2.138771E-2,1.3317044E-1,-8.058851E-2,6.52396E-2,-1.3427241E-1,6.629986E-2,-2.8297648E-2,-1.4352877E-1,9.848583E-3],"categories":[],"categories_nodes":[],"categories_segments":[],"categories_sizes":[],"default_left":[0,1,1,0,0,0,0,1,0,1,1,1,1,1,0,0,1,1,1,1,1,1,1,0,1,1,1,0,0,1,1,0,1,0,0,0,0,1,1,1,1,0,1,0,0,1,0,1,0,0,0,0,0,1,0,0,1,1,0,0,1,0,0,0,0,0,0,0,0,0,0,0,0,0,0,0,0,0,0,0,0,0,0,0,0,0,0,0,0,0,0,0,0,0,0,0,0,0,0,0,0,0,0,0,0],"id":4,"left_children":[1,3,5,7,9,11,13,15,17,19,21,23,25,27,29,31,33,35,37,39,41,43,45,47,49,51,53,55,-1,57,59,-1,61,-1,-1,63,65,67,69,71,73,75,77,79,81,83,-1,85,87,-1,-1,89,91,93,-1,-1,95,97,99,101,103,-1,-1,-1,-1,-1,-1,-1,-1,-1,-1,-1,-1,-1,-1,-1,-1,-1,-1,-1,-1,-1,-1,-1,-1,-1,-1,-1,-1,-1,-1,-1,-1,-1,-1,-1,-1,-1,-1,-1,-1,-1,-1,-1,-1],"loss_changes":[2.8766E2,1.1012866E2,1.3237637E2,1.0551322E2,5.853E1,7.1346405E1,5.5373547E1,1.6791557E1,3.173265E1,4.670029E1,4.79534E1,1.6963406E1,4.368463E1,1.9473839E1,5.1677868E1,5.2515564E0,2.6215658E0,8.729777E0,3.3086937E1,2.6978104E1,2.9908333E1,3.9263412E1,2.7072693E1,1.1815394E1,2.963581E-1,2.5552338E1,1.26692505E1,1.3380299E1,0E0,1.9610085E1,4.003881E1,0E0,5.5093765E0,0E0,0E0,6.7950287E0,4.8368144E-1,2.9387665E1,1.1662838E1,1.4441677E1,8.09038E0,2.3199013E1,2.3711506E1,4.0646713E1,1.6712868E1,2.7142212E1,0E0,2.7784123E0,8.625244E0,0E0,0E0,2.3797974E1,1.1597089E1,1.1150904E1,0E0,0E0,4.5238113E0,1.2165222E1,5.495635E0,3.910769E1,1.2012207E1,0E0,0E0,0E0,0E0,0E0,0E0,0E0,0E0,0E0,0E0,0E0,0E0,0E0,0E0,0E0,0E0,0E0,0E0,0E0,0E0,0E0,0E0,0E0,0E0,0E0,0E0,0E0,0E0,0E0,0E0,0E0,0E0,0E0,0E0,0E0,0E0,0E0,0E0,0E0,0E0,0E0,0E0,0E0,0E0],"parents":[2147483647,0,0,1,1,2,2,3,3,4,4,5,5,6,6,7,7,8,8,9,9,10,10,11,11,12,12,13,13,14,14,15,15,16,16,17,17,18,18,19,19,20,20,21,21,22,22,23,23,24,24,25,25,26,26,27,27,29,29,30,30,32,32,35,35,36,36,37,37,38,38,39,39,40,40,41,41,42,42,43,43,44,44,45,45,47,47,48,48,51,51,52,52,53,53,56,56,57,57,58,58,59,59,60,60],"right_children":[2,4,6,8,10,12,14,16,18,20,22,24,26,28,30,32,34,36,38,40,42,44,46,48,50,52,54,56,-1,58,60,-1,62,-1,-1,64,66,68,70,72,74,76,78,80,82,84,-1,86,88,-1,-1,90,92,94,-1,-1,96,98,100,102,104,-1,-1,-1,-1,-1,-1,-1,-1,-1,-1,-1,-1,-1,-1,-1,-1,-1,-1,-1,-1,-1,-1,-1,-1,-1,-1,-1,-1,-1,-1,-1,-1,-1,-1,-1,-1,-1,-1,-1,-1,-1,-1,-1,-1],"split_conditions":[4.742557E-2,7.843866E-3,2.212019E-2,6.2568806E-2,1.6161658E-2,8.8202104E-2,8.105997E-2,2.8007695E-2,3.2341562E-2,1.1389438E-2,8.095349E-3,3.9807934E-2,5.3385377E-2,6.7157455E-2,9.7760424E-2,6.599212E-2,1.3895588E-2,2.6673757E-2,4.290955E-2,8.2910314E-2,2.5077134E-2,1.1690757E-2,5.1656984E-2,3.7263352E-2,4.54414E-2,6.149147E-2,3.6385152E-2,5.0505783E-2,-1.2835854E-1,5.7983883E-2,3.6173806E-2,-1.4664076E-2,2.5847575E-2,2.681224E-2,-1.2888902E-1,1.2143324E-2,3.5830766E-2,3.237301E-2,3.1212874E-2,4.7846768E-2,6.8994135E-2,2.8860478E-2,2.308348E-2,5.1927455E-2,1.7252613E-2,3.1685077E-2,-1.583225E-1,5.235675E-2,1.7507559E-2,1.437838E-1,3.795553E-2,5.5818263E-2,3.384725E-2,2.9164651E-2,-1.2985682E-1,-1.2058773E-1,7.812996E-2,6.1857693E-2,1.97634E-2,7.045727E-2,3.6047984E-2,1.4608255E-1,-2.3795072E-2,-6.1791927E-2,1.1922904E-1,-1.0644771E-1,-1.4062613E-2,-1.05841555E-1,-2.9143928E-2,6.76628E-2,-4.0399376E-2,1.0726919E-1,-8.4959134E-2,-1.24079846E-1,6.80325E-2,8.443247E-3,-1.0253538E-1,-7.3007785E-2,1.140064E-1,1.0063056E-1,-8.689874E-3,1.3053037E-1,2.7431482E-2,1.0627174E-1,-6.657706E-2,1.389675E-1,-4.7022393E-3,5.273365E-2,-9.588989E-2,-2.1705538E-2,-1.19175516E-1,-1.1732966E-1,7.744025E-2,4.1045144E-2,-1.0834694E-1,1.5932171E-1,-2.138771E-2,1.3317044E-1,-8.058851E-2,6.52396E-2,-1.3427241E-1,6.629986E-2,-2.8297648E-2,-1.4352877E-1,9.848583E-3],"split_indices":[4508,4483,3022,4051,3429,2154,41,623,884,4205,4141,4483,4973,2872,1629,3596,213,1645,118,382,4719,1271,2843,4345,1088,1242,4978,4560,0,4238,1445,0,4063,0,0,3763,123,1466,3529,2495,1440,4065,659,277,1255,4403,0,4488,4973,0,0,3272,4205,2741,0,0,2154,764,4205,1485,54,0,0,0,0,0,0,0,0,0,0,0,0,0,0,0,0,0,0,0,0,0,0,0,0,0,0,0,0,0,0,0,0,0,0,0,0,0,0,0,0,0,0,0,0],"split_type":[0,0,0,0,0,0,0,0,0,0,0,0,0,0,0,0,0,0,0,0,0,0,0,0,0,0,0,0,0,0,0,0,0,0,0,0,0,0,0,0,0,0,0,0,0,0,0,0,0,0,0,0,0,0,0,0,0,0,0,0,0,0,0,0,0,0,0,0,0,0,0,0,0,0,0,0,0,0,0,0,0,0,0,0,0,0,0,0,0,0,0,0,0,0,0,0,0,0,0,0,0,0,0,0,0],"sum_hessian":[1.974358E3,1.0734238E3,9.009342E2,3.1390924E2,7.595146E2,4.2961603E2,4.713182E2,5.03467E1,2.6356253E2,1.8050583E2,5.790087E2,3.537477E1,3.9424124E2,3.3584408E1,4.377338E2,4.6965435E1,3.3812647E0,2.0739933E1,2.428226E2,6.936452E1,1.1114131E2,2.7014435E2,3.088644E2,2.2056396E1,1.3318375E1,3.4957938E2,4.466188E1,3.1353247E1,2.231161E0,4.038209E1,3.9735168E2,2.141911E0,4.4823524E1,1.1904051E0,2.1908596E0,1.826767E1,2.4722626E0,2.0093805E2,4.1884544E1,5.9561646E1,9.8028755E0,8.250971E1,2.86316E1,1.9372386E2,7.642047E1,3.056434E2,3.221015E0,6.2609143E0,1.5795483E1,1.2163553E1,1.1548218E0,3.359504E2,1.3628957E1,3.9128696E1,5.533186E0,1.2002115E0,3.0153036E1,3.540402E1,4.97807E0,3.5850314E2,3.8848557E1,4.3099075E1,1.7244489E0,1.7301738E0,1.6537497E1,1.24529E0,1.2269727E0,9.887032E1,1.0206773E2,2.72582E1,1.4626347E1,5.608895E1,3.4726927E0,7.577889E0,2.2249868E0,2.8399424E1,5.411029E1,9.359187E0,1.9272413E1,4.286167E1,1.508622E2,5.3415993E1,2.3004477E1,2.9690945E2,8.733938E0,4.570127E0,1.6907872E0,5.079099E0,1.0716384E1,2.7801733E1,3.0814868E2,3.2072668E0,1.042169E1,3.4283604E1,4.8450904E0,2.8932936E1,1.2200987E0,3.3165607E1,2.2384133E0,1.2491093E0,3.7289605E0,4.9919224E1,3.0858392E2,3.2984753E1,5.863803E0],"tree_param":{"num_deleted":"0","num_feature":"5000","num_nodes":"105","size_leaf_vector":"1"}},{"base_weights":[2.679176E-5,3.1944388E-1,-3.822063E-1,6.0886167E-2,6.8121266E-1,-7.174923E-1,-1.7423957E-3,1.1373374E0,-5.5828564E-2,7.8485745E-1,-4.9224785E-1,5.8243275E-1,-8.244412E-1,6.958722E-1,-1.4712574E-1,1.2039015E0,-5.9138756E-2,-2.7781275E-1,4.6207127E-1,8.298218E-1,-1.2709159E0,-1.1326056E0,2.4290311E-1,8.0239785E-1,-1.0600435E-1,-9.7044015E-1,-4.8854753E-2,-4.1900507E-1,9.8782694E-1,6.139346E-1,-3.0331048E-1,1.2603366E0,-3.2773465E-2,-4.014199E-1,6.068773E-1,9.573276E-1,-4.783045E-2,8.7397367E-1,-6.094778E-1,-1.743335E-1,4.6840858E-2,8.155438E-2,-1.3931632E0,-5.229235E-1,1.1232488E0,9.449796E-1,-1.0289587E-1,9.7866786E-1,-1.0171613E0,-3.3932626E-1,6.858682E-1,1.0592514E-1,-7.234878E-1,1.09738E0,-1.20715715E-1,8.701874E-1,-9.1805E-1,1.1236204E0,-3.8610077E-1,1.3068654E-1,-5.1654812E-2,3.2344144E-2,-6.1427232E-2,8.628951E-2,-1.0852587E-1,1.0517039E-1,-1.22144334E-1,-2.7541459E-2,9.960591E-2,9.163385E-2,-6.528156E-2,-1.2547456E-1,6.560399E-2,-1.5343092E-1,2.7819201E-2,-1.1092774E-1,9.6776225E-2,1.5207754E-1,-7.055228E-2,-5.087598E-2,1.0934863E-1,1.5457939E-1,3.8804286E-3,-1.0849903E-1,3.0562723E-2,-1.0392403E-1,-8.406564E-3,-1.1012746E-2,1.2229458E-1,-1.06515825E-1,8.897323E-2,1.1750831E-1,-5.3332597E-2,2.6559312E-2,1.2403575E-1,7.572106E-2,-1.2852849E-1,-6.581703E-2,1.3130854E-1,-6.3892834E-2,1.9928584E-2],"categories":[],"categories_nodes":[],"categories_segments":[],"categories_sizes":[],"default_left":[0,1,1,0,1,0,0,1,1,1,1,1,1,0,0,1,0,1,1,1,1,0,0,1,0,0,1,0,1,1,0,1,0,0,1,1,1,1,1,0,0,0,1,1,1,1,0,1,1,1,0,0,1,0,0,0,0,0,1,0,0,0,0,0,0,0,0,0,0,0,0,0,0,0,0,0,0,0,0,0,0,0,0,0,0,0,0,0,0,0,0,0,0,0,0,0,0,0,0,0,0],"id":5,"left_children":[1,3,5,7,9,11,13,15,17,19,21,23,25,27,29,31,-1,33,35,37,39,41,43,45,-1,47,49,51,53,55,57,59,-1,61,63,65,67,69,71,-1,-1,-1,73,75,77,79,-1,81,83,85,87,-1,89,91,-1,93,95,97,99,-1,-1,-1,-1,-1,-1,-1,-1,-1,-1,-1,-1,-1,-1,-1,-1,-1,-1,-1,-1,-1,-1,-1,-1,-1,-1,-1,-1,-1,-1,-1,-1,-1,-1,-1,-1,-1,-1,-1,-1,-1,-1],"loss_changes":[2.3762476E2,9.913333E1,1.13022995E2,7.788763E1,5.4122864E1,6.5956955E1,4.2298717E1,7.689804E0,6.448536E1,3.8616898E1,1.7444466E1,1.3997297E1,4.9275482E1,2.3825474E1,4.120958E1,5.4887238E0,0E0,4.3161297E1,4.2553974E1,2.58414E1,8.287989E0,1.1120329E1,1.2589669E1,9.500462E0,0E0,3.437265E1,1.5184323E1,7.8009205E0,1.5102901E1,2.3998812E1,3.4341934E1,5.374359E0,0E0,5.3421288E1,2.1952015E1,1.8852707E1,2.020432E1,2.5618622E1,1.09837885E1,0E0,0E0,0E0,4.6066055E0,9.991484E0,7.3247747E0,7.2105236E0,0E0,4.785019E0,3.2491425E1,9.002443E0,8.762223E0,0E0,8.418325E0,7.608139E0,0E0,1.1116207E1,6.482556E0,6.2641754E0,4.038831E1,0E0,0E0,0E0,0E0,0E0,0E0,0E0,0E0,0E0,0E0,0E0,0E0,0E0,0E0,0E0,0E0,0E0,0E0,0E0,0E0,0E0,0E0,0E0,0E0,0E0,0E0,0E0,0E0,0E0,0E0,0E0,0E0,0E0,0E0,0E0,0E0,0E0,0E0,0E0,0E0,0E0,0E0],"parents":[2147483647,0,0,1,1,2,2,3,3,4,4,5,5,6,6,7,7,8,8,9,9,10,10,11,11,12,12,13,13,14,14,15,15,17,17,18,18,19,19,20,20,21,21,22,22,23,23,25,25,26,26,27,27,28,28,29,29,30,30,31,31,33,33,34,34,35,35,36,36,37,37,38,38,42,42,43,43,44,44,45,45,47,47,48,48,49,49,50,50,52,52,53,53,55,55,56,56,57,57,58,58],"right_children":[2,4,6,8,10,12,14,16,18,20,22,24,26,28,30,32,-1,34,36,38,40,42,44,46,-1,48,50,52,54,56,58,60,-1,62,64,66,68,70,72,-1,-1,-1,74,76,78,80,-1,82,84,86,88,-1,90,92,-1,94,96,98,100,-1,-1,-1,-1,-1,-1,-1,-1,-1,-1,-1,-1,-1,-1,-1,-1,-1,-1,-1,-1,-1,-1,-1,-1,-1,-1,-1,-1,-1,-1,-1,-1,-1,-1,-1,-1,-1,-1,-1,-1,-1,-1],"split_conditions":[4.742557E-2,1.0318089E-2,2.9144095E-2,4.0433094E-2,4.983303E-2,8.470522E-2,1.5189832E-1,5.3963955E-2,2.7973354E-2,9.2654414E-2,1.3896137E-2,5.5421393E-2,4.297417E-2,2.8216314E-2,4.4340324E-2,3.5002872E-2,-5.9138756E-2,3.8608022E-2,1.3287188E-2,4.964978E-2,4.6514306E-2,4.0770996E-2,5.378802E-2,3.3768434E-2,-1.0600435E-1,1.1156272E-1,4.197679E-2,6.700907E-2,6.7157455E-2,3.285516E-2,8.000286E-2,4.22475E-2,-3.2773465E-2,4.2285718E-2,5.4201335E-2,1.6613292E-2,3.632102E-2,4.071666E-2,3.5086963E-2,-1.743335E-1,4.6840858E-2,8.155438E-2,4.932935E-2,1.9252071E-2,3.5249677E-2,8.808499E-3,-1.0289587E-1,2.2701686E-2,6.2357854E-2,1.6563883E-2,5.118723E-2,1.0592514E-1,4.7542594E-2,2.9962828E-2,-1.20715715E-1,2.8977996E-2,4.039461E-2,3.1990957E-2,3.234849E-2,1.3068654E-1,-5.1654812E-2,3.2344144E-2,-6.1427232E-2,8.628951E-2,-1.0852587E-1,1.0517039E-1,-1.22144334E-1,-2.7541459E-2,9.960591E-2,9.163385E-2,-6.528156E-2,-1.2547456E-1,6.560399E-2,-1.5343092E-1,2.7819201E-2,-1.1092774E-1,9.6776225E-2,1.5207754E-1,-7.055228E-2,-5.087598E-2,1.0934863E-1,1.5457939E-1,3.8804286E-3,-1.0849903E-1,3.0562723E-2,-1.0392403E-1,-8.406564E-3,-1.1012746E-2,1.2229458E-1,-1.06515825E-1,8.897323E-2,1.1750831E-1,-5.3332597E-2,2.6559312E-2,1.2403575E-1,7.572106E-2,-1.2852849E-1,-6.581703E-2,1.3130854E-1,-6.3892834E-2,1.9928584E-2],"split_indices":[4508,4668,3022,2094,3933,2154,311,388,4583,3591,2743,1259,4973,4522,4270,1629,0,793,2599,1174,1719,2935,956,1547,0,1868,1076,633,2872,2073,41,4251,0,1034,3990,4006,793,4297,4522,0,0,0,4692,1847,4834,2599,0,2599,870,4669,4597,0,3276,2599,0,4929,1206,1053,1103,0,0,0,0,0,0,0,0,0,0,0,0,0,0,0,0,0,0,0,0,0,0,0,0,0,0,0,0,0,0,0,0,0,0,0,0,0,0,0,0,0,0],"split_type":[0,0,0,0,0,0,0,0,0,0,0,0,0,0,0,0,0,0,0,0,0,0,0,0,0,0,0,0,0,0,0,0,0,0,0,0,0,0,0,0,0,0,0,0,0,0,0,0,0,0,0,0,0,0,0,0,0,0,0,0,0,0,0,0,0,0,0,0,0,0,0,0,0,0,0,0,0,0,0,0,0,0,0,0,0,0,0,0,0,0,0,0,0,0,0,0,0,0,0,0,0],"sum_hessian":[1.9442797E3,1.0592612E3,8.8501843E2,6.1843286E2,4.4082834E2,4.699694E2,4.1504907E2,5.9639313E1,5.587935E2,4.0535675E2,3.5471592E1,3.538854E1,4.3458084E2,7.0926315E1,3.4412274E2,5.7720394E1,1.9189197E0,3.9146564E2,1.6732791E2,3.9726404E2,8.092718E0,1.8669107E1,1.6802485E1,3.1660011E1,3.7285285E0,3.6552246E2,6.90584E1,1.4628773E1,5.629754E1,5.8096767E1,2.8602597E2,5.5840027E1,1.8803674E0,3.4395517E2,4.751047E1,8.443783E1,8.2890076E1,3.858214E2,1.1442636E1,6.3623343E0,1.7303839E0,1.9510932E0,1.6718016E1,9.202813E0,7.5996704E0,2.9822182E1,1.8378294E0,8.089699E0,3.5743274E2,4.987755E1,1.918085E1,2.0751436E0,1.2553629E1,5.4097546E1,2.1999943E0,5.0141636E1,7.9551315E0,1.4995711E1,2.7103027E2,5.467291E1,1.1671176E0,7.795672E1,2.6599844E2,4.1692513E1,5.81796E0,8.142796E1,3.0098667E0,6.865778E1,1.4232299E1,3.7579385E2,1.0027565E1,7.584122E0,3.858513E0,1.5491734E1,1.2262812E0,6.788465E0,2.4143484E0,6.381022E0,1.2186481E0,2.5392747E0,2.7282907E1,4.6432195E0,3.4464796E0,3.4016953E2,1.7263214E1,1.2508493E1,3.7369057E1,8.047986E0,1.1132864E1,1.06398945E1,1.9137348E0,5.1903744E1,2.193804E0,1.9693684E1,3.0447954E1,1.2393793E0,6.7157526E0,1.2035259E0,1.3792186E1,1.892165E2,8.181377E1],"tree_param":{"num_deleted":"0","num_feature":"5000","num_nodes":"101","size_leaf_vector":"1"}},{"base_weights":[-3.3976787E-5,2.9153466E-1,-3.513528E-1,3.34712E-1,-1.5797986E-1,-7.1421975E-1,-4.273906E-2,1.0912301E-1,6.461304E-1,-8.7622654E-1,2.0365493E-1,1.0242919E0,-1.217879E-1,-1.0848615E-1,5.741801E-1,7.428518E-1,-4.4306952E-1,-1.1081971E0,-4.6719748E-1,1.1422118E0,-9.482135E-2,1.1990023E0,-7.788534E-1,9.974888E-1,-2.0828651E-1,8.546038E-1,-2.4158897E-1,7.290234E-1,-8.362157E-1,7.8660583E-1,-9.889533E-1,-7.865719E-1,7.541464E-1,-1.1593153E0,3.5538E-2,5.840675E-1,-6.1854607E-1,-2.4035867E-2,1.2774981E0,-4.485727E-1,8.6132395E-1,1.371685E0,-6.750725E-2,-1.2839171E-2,-1.0785496E-1,1.1923375E0,-1.1409153E-1,6.834407E-1,-3.2231617E-1,1.0648445E-1,-7.647042E-2,-4.3734163E-2,3.32644E-2,1.1362498E-1,4.489919E-2,1.201203E-1,-1.12782255E-1,8.180866E-2,-1.0548824E-1,4.6296284E-2,-1.3819174E-1,-1.02089845E-1,6.434863E-2,-3.0481404E-2,1.2768348E-1,5.06106E-2,-1.18463874E-1,-4.5208525E-2,1.4871289E-1,-8.742507E-2,1.2340976E-1,-7.370042E-2,5.0356854E-2,1.3628916E-1,1.3502029E-2,-7.082314E-2,4.3666095E-2,1.0883873E-1,-5.073285E-2,1.4619076E-1,-3.296397E-3,-1.12400234E-1,1.3303642E-1,9.632113E-2,-9.235361E-2,-4.500131E-2,3.8951553E-2],"categories":[],"categories_nodes":[],"categories_segments":[],"categories_sizes":[],"default_left":[0,1,1,1,0,1,0,1,1,1,0,1,0,0,1,1,1,1,0,0,1,1,1,1,0,1,1,0,0,1,0,0,0,0,1,0,1,0,1,1,1,1,0,0,0,0,0,1,1,0,0,0,0,0,0,0,0,0,0,0,0,0,0,0,0,0,0,0,0,0,0,0,0,0,0,0,0,0,0,0,0,0,0,0,0,0,0],"id":6,"left_children":[1,3,5,7,-1,9,11,13,15,17,19,21,23,25,27,29,31,33,35,37,39,41,43,45,47,49,51,53,55,57,59,61,63,65,67,69,71,-1,73,75,77,79,-1,-1,-1,81,-1,83,85,-1,-1,-1,-1,-1,-1,-1,-1,-1,-1,-1,-1,-1,-1,-1,-1,-1,-1,-1,-1,-1,-1,-1,-1,-1,-1,-1,-1,-1,-1,-1,-1,-1,-1,-1,-1,-1,-1],"loss_changes":[1.9621771E2,8.510917E1,9.725865E1,7.186912E1,0E0,5.9543488E1,3.9813828E1,6.028114E1,4.5626038E1,3.1696655E1,1.7113678E1,1.1191509E1,4.2708096E1,5.2278084E1,4.206825E1,3.072937E1,1.5272192E1,1.2665192E1,2.0185532E1,3.0609837E0,1.6276867E1,1.0660049E1,5.403931E-1,1.4553598E1,4.1739346E1,1.7680973E1,4.034959E1,1.9057487E1,1.2789072E1,2.32453E1,6.4500217E0,1.0115301E1,5.076545E0,9.317505E0,7.8977E0,1.643077E1,1.4913219E1,0E0,1.1398277E0,8.342887E0,4.6015024E0,3.580284E0,0E0,0E0,0E0,1.0929733E1,0E0,2.1846615E1,3.314451E1,0E0,0E0,0E0,0E0,0E0,0E0,0E0,0E0,0E0,0E0,0E0,0E0,0E0,0E0,0E0,0E0,0E0,0E0,0E0,0E0,0E0,0E0,0E0,0E0,0E0,0E0,0E0,0E0,0E0,0E0,0E0,0E0,0E0,0E0,0E0,0E0,0E0,0E0],"parents":[2147483647,0,0,1,1,2,2,3,3,5,5,6,6,7,7,8,8,9,9,10,10,11,11,12,12,13,13,14,14,15,15,16,16,17,17,18,18,19,19,20,20,21,21,22,22,23,23,24,24,25,25,26,26,27,27,28,28,29,29,30,30,31,31,32,32,33,33,34,34,35,35,36,36,38,38,39,39,40,40,41,41,45,45,47,47,48,48],"right_children":[2,4,6,8,-1,10,12,14,16,18,20,22,24,26,28,30,32,34,36,38,40,42,44,46,48,50,52,54,56,58,60,62,64,66,68,70,72,-1,74,76,78,80,-1,-1,-1,82,-1,84,86,-1,-1,-1,-1,-1,-1,-1,-1,-1,-1,-1,-1,-1,-1,-1,-1,-1,-1,-1,-1,-1,-1,-1,-1,-1,-1,-1,-1,-1,-1,-1,-1,-1,-1,-1,-1,-1,-1],"split_conditions":[4.742557E-2,1.3957208E-2,2.1416778E-2,1.0318089E-2,-1.5797986E-1,1.8977249E-2,1.0118995E-1,2.7973354E-2,4.983303E-2,1.9667124E-2,5.5757243E-2,5.249545E-2,8.105997E-2,5.004098E-2,4.9368918E-2,3.606564E-2,4.578782E-2,3.402549E-2,6.668498E-2,2.0315265E-2,3.2197557E-2,7.2361134E-2,4.3608878E-2,6.7157455E-2,9.6505076E-2,4.8940543E-2,3.6599055E-2,1.9552325E-1,9.863507E-2,6.338928E-2,2.3700312E-2,7.342085E-2,1.1320384E-1,4.5634296E-2,3.5915133E-2,3.577087E-2,5.6126505E-2,-2.4035867E-2,4.1466307E-2,4.0896673E-2,4.0482614E-2,5.7623718E-2,-6.750725E-2,-1.2839171E-2,-1.0785496E-1,5.0505783E-2,-1.1409153E-1,6.1657444E-2,8.170623E-2,1.0648445E-1,-7.647042E-2,-4.3734163E-2,3.32644E-2,1.1362498E-1,4.489919E-2,1.201203E-1,-1.12782255E-1,8.180866E-2,-1.0548824E-1,4.6296284E-2,-1.3819174E-1,-1.02089845E-1,6.434863E-2,-3.0481404E-2,1.2768348E-1,5.06106E-2,-1.18463874E-1,-4.5208525E-2,1.4871289E-1,-8.742507E-2,1.2340976E-1,-7.370042E-2,5.0356854E-2,1.3628916E-1,1.3502029E-2,-7.082314E-2,4.3666095E-2,1.0883873E-1,-5.073285E-2,1.4619076E-1,-3.296397E-3,-1.12400234E-1,1.3303642E-1,9.632113E-2,-9.235361E-2,-4.500131E-2,3.8951553E-2],"split_indices":[4508,1680,3022,4668,0,49,1102,4583,3933,870,575,4860,41,2094,4595,684,1014,2314,1342,2833,1050,4594,57,2872,4916,3718,377,2749,498,4309,3107,4068,54,671,2424,4205,3131,0,1472,4483,1442,2869,0,0,0,4560,0,1017,652,0,0,0,0,0,0,0,0,0,0,0,0,0,0,0,0,0,0,0,0,0,0,0,0,0,0,0,0,0,0,0,0,0,0,0,0,0,0],"split_type":[0,0,0,0,0,0,0,0,0,0,0,0,0,0,0,0,0,0,0,0,0,0,0,0,0,0,0,0,0,0,0,0,0,0,0,0,0,0,0,0,0,0,0,0,0,0,0,0,0,0,0,0,0,0,0,0,0,0,0,0,0,0,0,0,0,0,0,0,0,0,0,0,0,0,0,0,0,0,0,0,0,0,0,0,0,0,0],"sum_hessian":[1.913561E3,1.0457971E3,8.6776404E2,1.02301416E3,2.2782907E1,3.9822186E2,4.6954214E2,5.940439E2,4.2897025E2,3.385181E2,5.970378E1,3.1561085E1,4.3798108E2,4.0520663E2,1.8883725E2,3.9427634E2,3.4693924E1,2.1492143E2,1.2359665E2,1.3723502E1,4.5980278E1,2.9078646E1,2.4824395E0,3.0663889E1,4.0731717E2,4.854314E1,3.566635E2,1.705916E2,1.8245657E1,3.8509274E2,9.183574E0,2.7225458E1,7.4684653E0,2.0571362E2,9.207814E0,1.519479E1,1.0840186E2,1.1539489E0,1.2569553E1,3.3950314E1,1.2029966E1,2.6870768E1,2.2078784E0,1.2335484E0,1.2488912E0,2.8508635E1,2.1552546E0,4.561424E1,3.6170294E2,4.3267918E1,5.2752233E0,2.6616708E2,9.049642E1,6.826376E1,1.02327835E2,1.8939089E0,1.6351748E1,3.7916653E2,5.9262047E0,1.9181818E0,7.2653923E0,2.3638254E1,3.5872042E0,2.6058593E0,4.862606E0,2.7967374E0,2.0291689E2,7.40789E0,1.7999243E0,4.578394E0,1.0616396E1,9.836137E1,1.0040499E1,1.1515883E1,1.0536696E0,2.640507E1,7.5452437E0,1.0493792E1,1.5361748E0,2.5210686E1,1.6600821E0,1.2015212E0,2.7307114E1,3.9191673E1,6.422565E0,3.069978E2,5.470513E1],"tree_param":{"num_deleted":"0","num_feature":"5000","num_nodes":"87","size_leaf_vector":"1"}},{"base_weights":[-6.28127E-5,2.662118E-1,-3.230195E-1,3.05637E-1,-1.4882949E-1,-6.7398334E-1,-4.543077E-2,8.335543E-1,1.8743415E-1,-8.362695E-1,2.1758594E-1,4.343485E-2,-9.6283925E-1,9.578204E-1,-6.1664355E-1,5.47102E-1,-3.543438E-2,-1.0710901E0,-4.1378176E-1,-5.338211E-1,5.2867556E-1,1.3883157E-1,-7.7874166E-1,-1.1596574E0,5.491595E-1,1.018983E0,-3.715449E-1,5.7055515E-1,-1.0687612E0,3.4854704E-1,1.0325097E0,6.6647416E-1,-1.6679777E-1,-1.1213471E0,1.1543447E-1,-8.390172E-1,2.085604E-2,1.1175587E-1,-7.878184E-1,6.648028E-1,-1.0917806E-1,2.0075947E-1,-1.4288776E0,8.113103E-1,-9.3917036E-1,9.403509E-2,-1.2662915E0,-8.971599E-2,1.2319143E0,1.0865855E-1,-1.2920014E-2,-1.3628192E-1,4.4234753E-2,-3.4135707E-2,1.1599945E-1,6.0347404E-2,-1.3318299E-1,8.236895E-2,7.1493806E-3,1.08516514E-1,-8.014255E-2,-8.7348096E-2,7.916983E-2,-2.715129E-2,8.124306E-2,-1.1452305E-1,7.391712E-2,-5.308186E-2,1.4735994E-1,1.7178303E-2,-1.0802382E-1,-6.250148E-2,3.8684875E-2,-1.10313095E-1,1.428819E-2,-5.984166E-2,7.934454E-2,-3.105621E-2,3.300169E-2,-2.6610816E-2,-1.530754E-1,1.3914743E-1,-4.7724303E-2,-1.0711052E-1,7.6231435E-2,-1.3381498E-1,4.5545515E-2,3.2557674E-2,1.4968133E-1],"categories":[],"categories_nodes":[],"categories_segments":[],"categories_sizes":[],"default_left":[0,1,1,0,0,1,1,1,0,1,0,1,1,1,0,1,0,1,1,0,1,1,0,0,1,1,0,0,0,0,1,0,1,1,1,0,0,0,0,0,0,0,0,1,1,0,1,0,0,0,0,0,0,0,0,0,0,0,0,0,0,0,0,0,0,0,0,0,0,0,0,0,0,0,0,0,0,0,0,0,0,0,0,0,0,0,0,0,0],"id":7,"left_children":[1,3,5,7,-1,9,11,13,15,17,19,21,23,25,27,29,31,33,35,37,39,41,43,45,47,49,51,53,55,57,59,61,63,65,67,69,71,-1,73,75,-1,77,79,81,83,-1,85,-1,87,-1,-1,-1,-1,-1,-1,-1,-1,-1,-1,-1,-1,-1,-1,-1,-1,-1,-1,-1,-1,-1,-1,-1,-1,-1,-1,-1,-1,-1,-1,-1,-1,-1,-1,-1,-1,-1,-1,-1,-1],"loss_changes":[1.6207895E2,7.1911095E1,8.294696E1,6.2941032E1,0E0,5.459584E1,3.890084E1,3.387419E1,6.634744E1,3.1141708E1,1.4005083E1,3.4266357E1,1.3176178E1,1.4242096E1,8.760606E0,3.0157234E1,4.730422E1,1.2294327E1,2.1339663E1,8.298853E0,9.994931E0,3.8254776E1,1.2350584E1,9.61166E0,6.5678E0,1.2813782E1,7.244814E0,2.9975736E0,5.794695E0,2.9721144E1,9.696777E0,1.629004E1,4.4511555E1,9.547348E0,8.854025E0,1.4409779E1,1.395857E1,0E0,4.828084E0,6.8750477E0,0E0,2.502548E1,1.367712E0,4.1777115E0,1.0184174E1,0E0,5.0898666E0,0E0,5.1606035E-1,0E0,0E0,0E0,0E0,0E0,0E0,0E0,0E0,0E0,0E0,0E0,0E0,0E0,0E0,0E0,0E0,0E0,0E0,0E0,0E0,0E0,0E0,0E0,0E0,0E0,0E0,0E0,0E0,0E0,0E0,0E0,0E0,0E0,0E0,0E0,0E0,0E0,0E0,0E0,0E0],"parents":[2147483647,0,0,1,1,2,2,3,3,5,5,6,6,7,7,8,8,9,9,10,10,11,11,12,12,13,13,14,14,15,15,16,16,17,17,18,18,19,19,20,20,21,21,22,22,23,23,24,24,25,25,26,26,27,27,28,28,29,29,30,30,31,31,32,32,33,33,34,34,35,35,36,36,38,38,39,39,41,41,42,42,43,43,44,44,46,46,48,48],"right_children":[2,4,6,8,-1,10,12,14,16,18,20,22,24,26,28,30,32,34,36,38,40,42,44,46,48,50,52,54,56,58,60,62,64,66,68,70,72,-1,74,76,-1,78,80,82,84,-1,86,-1,88,-1,-1,-1,-1,-1,-1,-1,-1,-1,-1,-1,-1,-1,-1,-1,-1,-1,-1,-1,-1,-1,-1,-1,-1,-1,-1,-1,-1,-1,-1,-1,-1,-1,-1,-1,-1,-1,-1,-1,-1],"split_conditions":[4.742557E-2,1.3957208E-2,2.028064E-2,7.028684E-2,-1.4882949E-1,1.8977249E-2,3.5865314E-2,4.6668045E-2,3.417269E-1,1.822329E-2,1.6260445E-2,2.8484903E-2,4.9670827E-2,3.6865376E-2,4.4305928E-2,1.846268E-2,3.660461E-2,7.48708E-2,4.8469547E-2,3.3724356E-2,4.9899273E-2,3.5638984E-2,5.0295837E-2,4.0322285E-2,4.238704E-2,3.470679E-2,2.024859E-2,1.8156806E-2,2.6865875E-2,4.8002083E-2,3.691201E-2,9.268043E-2,2.719044E-2,1.5499552E-1,3.696243E-2,7.280297E-2,6.1826266E-2,1.1175587E-1,5.291604E-2,1.0893438E-1,-1.0917806E-1,2.5727406E-2,4.4716623E-2,4.7521476E-2,4.4139944E-2,9.403509E-2,8.8621765E-2,-8.971599E-2,4.192639E-2,1.0865855E-1,-1.2920014E-2,-1.3628192E-1,4.4234753E-2,-3.4135707E-2,1.1599945E-1,6.0347404E-2,-1.3318299E-1,8.236895E-2,7.1493806E-3,1.08516514E-1,-8.014255E-2,-8.7348096E-2,7.916983E-2,-2.715129E-2,8.124306E-2,-1.1452305E-1,7.391712E-2,-5.308186E-2,1.4735994E-1,1.7178303E-2,-1.0802382E-1,-6.250148E-2,3.8684875E-2,-1.10313095E-1,1.428819E-2,-5.984166E-2,7.934454E-2,-3.105621E-2,3.300169E-2,-2.6610816E-2,-1.530754E-1,1.3914743E-1,-4.7724303E-2,-1.0711052E-1,7.6231435E-2,-1.3381498E-1,4.5545515E-2,3.2557674E-2,1.4968133E-1],"split_indices":[4508,1680,3022,1505,0,49,121,4731,2292,4669,1255,1445,4882,2878,3784,4094,122,2314,1466,2109,1532,393,917,3332,58,3656,92,793,1050,3222,3769,605,1383,118,4483,2792,823,0,4345,941,0,2743,0,51,559,0,1103,0,3276,0,0,0,0,0,0,0,0,0,0,0,0,0,0,0,0,0,0,0,0,0,0,0,0,0,0,0,0,0,0,0,0,0,0,0,0,0,0,0,0],"split_type":[0,0,0,0,0,0,0,0,0,0,0,0,0,0,0,0,0,0,0,0,0,0,0,0,0,0,0,0,0,0,0,0,0,0,0,0,0,0,0,0,0,0,0,0,0,0,0,0,0,0,0,0,0,0,0,0,0,0,0,0,0,0,0,0,0,0,0,0,0,0,0,0,0,0,0,0,0,0,0,0,0,0,0,0,0,0,0,0,0],"sum_hessian":[1.882745E3,1.0320258E3,8.5071936E2,1.0101525E3,2.1873154E1,3.7507394E2,4.756454E2,1.836927E2,8.2645984E2,3.1736774E2,5.770621E1,4.3450894E2,4.1136456E1,1.695073E2,1.4185401E1,3.1563293E2,5.1082693E2,2.0300269E2,1.1436505E2,1.6686235E1,4.1019974E1,3.9007938E2,4.4429565E1,3.660463E1,4.531826E0,1.622747E2,7.2325873E0,3.840036E0,1.0345365E1,2.2522371E2,9.040922E1,7.9888504E1,4.3093842E2,1.9480634E2,8.196359E0,5.7337513E1,5.7027534E1,1.7711437E0,1.4915092E1,3.838515E1,2.634821E0,3.7609476E2,1.3984616E1,3.7000675E0,4.07295E1,1.3910662E0,3.5213562E1,1.3525693E0,3.1792567E0,1.5330226E2,8.972452E0,2.956858E0,4.275729E0,1.6728599E0,2.167176E0,1.2303679E0,9.114997E0,8.2229034E1,1.4299467E2,8.8282745E1,2.1264675E0,5.5583906E0,7.433012E1,3.8996024E2,4.0978195E1,1.9271687E2,2.089456E0,5.9664965E0,2.2298622E0,1.1102407E1,4.6235107E1,2.0370968E1,3.6656567E1,1.1002335E1,3.912758E0,3.210227E0,3.5174927E1,7.5606186E1,3.0048856E2,1.4175403E0,1.2567076E1,2.4962647E0,1.2038027E0,3.8142387E1,2.5871122E0,3.401665E1,1.196913E0,1.2232012E0,1.9560555E0],"tree_param":{"num_deleted":"0","num_feature":"5000","num_nodes":"89","size_leaf_vector":"1"}},{"base_weights":[-3.0380063E-4,2.4316989E-1,-2.9697153E-1,-1.459381E-1,4.053935E-1,-5.793927E-1,4.3092407E-3,-3.204489E-1,1.0743874E0,4.6379253E-1,-7.030365E-1,5.768968E-1,-6.770985E-1,6.0928226E-1,-1.1890289E-1,7.5572324E-1,-4.1325855E-1,-4.3519545E-2,1.1528523E0,4.910047E-1,-1.5925421E-1,-8.8233685E-1,8.1681067E-1,-1.9426987E-1,9.690368E-1,-8.3140105E-1,9.799261E-3,-3.9708647E-1,8.799032E-1,8.2098204E-1,-2.1517657E-1,9.7044754E-1,-6.655925E-1,-5.756637E-1,3.0071583E-1,1.2262946E0,-3.395461E-2,1.2241596E0,4.1406748E-1,8.383369E-2,-1.039111E0,1.1096551E-1,-2.2838085E-3,-9.825421E-1,4.1969728E-1,1.1489273E0,-8.868847E-2,-8.962592E-1,3.781017E-1,-6.5100783E-1,3.618661E-1,-1.0802593E0,2.5082862E-1,9.7969353E-1,-1.0901779E-1,9.500278E-1,-1.3430083E-1,8.709317E-1,-3.0705354E-1,-3.455137E-2,1.2021514E-1,-6.924603E-3,-9.511618E-2,-7.339563E-2,1.5004982E-2,5.206887E-4,1.0791256E-1,5.0181895E-3,1.2965308E-1,1.2957917E-1,-8.548967E-2,4.4466592E-2,-1.3111775E-1,5.4320145E-2,-1.1863102E-1,-5.1171868E-5,-1.2193189E-1,-8.111808E-2,7.5363934E-2,-4.4592258E-2,1.3128556E-1,-9.416412E-2,3.7648667E-2,8.812102E-2,-5.065616E-2,8.392203E-2,-9.300513E-2,6.1651595E-2,-6.214043E-2,-2.0441273E-3,-1.42277E-1,-5.7635553E-2,1.15723625E-1,3.7738483E-2,1.2111192E-1,1.1484019E-1,-7.119795E-2,1.089524E-1,-7.488809E-2,-3.937256E-2,1.0539677E-1],"categories":[],"categories_nodes":[],"categories_segments":[],"categories_sizes":[],"default_left":[0,1,1,1,1,0,0,0,0,1,1,1,1,0,0,1,1,0,1,0,0,0,1,0,1,1,1,0,1,1,0,0,1,1,1,0,0,1,1,0,0,0,0,0,0,0,0,1,1,0,0,0,1,0,0,1,0,1,1,0,0,0,0,0,0,0,0,0,0,0,0,0,0,0,0,0,0,0,0,0,0,0,0,0,0,0,0,0,0,0,0,0,0,0,0,0,0,0,0,0,0],"id":8,"left_children":[1,3,5,7,9,11,13,15,17,19,21,23,25,27,29,31,33,-1,35,37,-1,39,41,43,45,47,49,51,53,55,57,59,61,63,65,67,-1,69,71,-1,73,-1,-1,75,77,79,-1,81,83,85,87,89,91,93,-1,95,-1,97,99,-1,-1,-1,-1,-1,-1,-1,-1,-1,-1,-1,-1,-1,-1,-1,-1,-1,-1,-1,-1,-1,-1,-1,-1,-1,-1,-1,-1,-1,-1,-1,-1,-1,-1,-1,-1,-1,-1,-1,-1,-1,-1],"loss_changes":[1.3412984E2,6.443909E1,7.1224785E1,6.441037E1,4.6937965E1,4.9202118E1,3.0335028E1,2.667724E1,4.9871445E0,3.909291E1,1.0650173E1,1.053157E1,4.228203E1,1.91027E1,3.077296E1,7.1498194E0,2.8425945E1,0E0,4.391876E0,3.765065E1,0E0,9.792778E0,1.0984576E0,6.3955784E0,8.644659E0,2.5888596E1,1.748633E1,7.0352044E0,1.1797623E1,1.0107271E1,3.0953072E1,6.1845512E0,5.114721E-1,2.2952751E1,1.0531904E1,2.808506E0,0E0,1.0599724E1,3.2981903E1,0E0,7.8083534E0,0E0,0E0,1.3276057E0,3.7559762E0,6.1431885E0,0E0,1.822644E1,8.137209E0,1.1646808E1,1.2656822E1,2.7394686E0,7.156042E0,6.8570824E0,0E0,1.0850658E1,0E0,9.400454E0,3.394732E1,0E0,0E0,0E0,0E0,0E0,0E0,0E0,0E0,0E0,0E0,0E0,0E0,0E0,0E0,0E0,0E0,0E0,0E0,0E0,0E0,0E0,0E0,0E0,0E0,0E0,0E0,0E0,0E0,0E0,0E0,0E0,0E0,0E0,0E0,0E0,0E0,0E0,0E0,0E0,0E0,0E0,0E0],"parents":[2147483647,0,0,1,1,2,2,3,3,4,4,5,5,6,6,7,7,8,8,9,9,10,10,11,11,12,12,13,13,14,14,15,15,16,16,18,18,19,19,21,21,22,22,23,23,24,24,25,25,26,26,27,27,28,28,29,29,30,30,31,31,32,32,33,33,34,34,35,35,37,37,38,38,40,40,43,43,44,44,45,45,47,47,48,48,49,49,50,50,51,51,52,52,53,53,55,55,57,57,58,58],"right_children":[2,4,6,8,10,12,14,16,18,20,22,24,26,28,30,32,34,-1,36,38,-1,40,42,44,46,48,50,52,54,56,58,60,62,64,66,68,-1,70,72,-1,74,-1,-1,76,78,80,-1,82,84,86,88,90,92,94,-1,96,-1,98,100,-1,-1,-1,-1,-1,-1,-1,-1,-1,-1,-1,-1,-1,-1,-1,-1,-1,-1,-1,-1,-1,-1,-1,-1,-1,-1,-1,-1,-1,-1,-1,-1,-1,-1,-1,-1,-1,-1,-1,-1,-1,-1],"split_conditions":[4.742557E-2,7.843866E-3,2.9144095E-2,5.297437E-2,3.0395392E-2,8.776812E-2,1.5189832E-1,3.1944443E-2,6.139832E-2,3.9876096E-2,4.314109E-2,3.6475457E-2,3.4459524E-2,2.8216314E-2,4.5395814E-2,2.6673757E-2,4.290955E-2,-4.3519545E-2,6.0969103E-2,4.5318842E-2,-1.5925421E-1,9.4313614E-2,2.8502768E-2,7.592865E-2,5.0390817E-2,6.76333E-2,5.225758E-2,2.5039839E-2,6.7157455E-2,2.9234117E-2,1.0118995E-1,2.1936493E-2,2.2930102E-2,3.7009038E-2,4.13353E-2,3.3599198E-2,-3.395461E-2,1.526163E-1,3.6994707E-2,8.383369E-2,2.1992275E-2,1.1096551E-1,-2.2838085E-3,5.951206E-2,1.8551372E-2,1.1367413E-1,-8.868847E-2,5.186806E-2,3.6369096E-2,4.5986485E-2,3.0247992E-2,1.32812E-1,2.955456E-2,3.9006446E-2,-1.0901779E-1,4.7257494E-2,-1.3430083E-1,5.249545E-2,9.8259315E-2,-3.455137E-2,1.2021514E-1,-6.924603E-3,-9.511618E-2,-7.339563E-2,1.5004982E-2,5.206887E-4,1.0791256E-1,5.0181895E-3,1.2965308E-1,1.2957917E-1,-8.548967E-2,4.4466592E-2,-1.3111775E-1,5.4320145E-2,-1.1863102E-1,-5.1171868E-5,-1.2193189E-1,-8.111808E-2,7.5363934E-2,-4.4592258E-2,1.3128556E-1,-9.416412E-2,3.7648667E-2,8.812102E-2,-5.065616E-2,8.392203E-2,-9.300513E-2,6.1651595E-2,-6.214043E-2,-2.0441273E-3,-1.42277E-1,-5.7635553E-2,1.15723625E-1,3.7738483E-2,1.2111192E-1,1.1484019E-1,-7.119795E-2,1.089524E-1,-7.488809E-2,-3.937256E-2,1.0539677E-1],"split_indices":[4508,4483,3022,423,605,1383,311,884,4951,4514,311,4483,1050,4522,1681,1645,118,0,45,4467,0,1863,92,4652,4253,3193,1466,2125,2872,4875,1102,3276,4816,377,769,4173,0,2194,3294,0,4935,0,0,1385,4345,59,0,401,1876,2792,870,652,4543,3576,0,1536,0,4860,577,0,0,0,0,0,0,0,0,0,0,0,0,0,0,0,0,0,0,0,0,0,0,0,0,0,0,0,0,0,0,0,0,0,0,0,0,0,0,0,0,0,0],"split_type":[0,0,0,0,0,0,0,0,0,0,0,0,0,0,0,0,0,0,0,0,0,0,0,0,0,0,0,0,0,0,0,0,0,0,0,0,0,0,0,0,0,0,0,0,0,0,0,0,0,0,0,0,0,0,0,0,0,0,0,0,0,0,0,0,0,0,0,0,0,0,0,0,0,0,0,0,0,0,0,0,0,0,0,0,0,0,0,0,0,0,0,0,0,0,0,0,0,0,0,0,0],"sum_hessian":[1.8549622E3,1.01892004E3,8.360421E2,2.9983624E2,7.190838E2,4.3105103E2,4.0499112E2,2.6296826E2,3.686797E1,6.836466E2,3.54372E1,3.3203484E1,3.9784753E2,6.7858765E1,3.3713235E2,2.0310905E1,2.4265736E2,1.5969985E0,3.5270973E1,6.754692E2,8.177485E0,3.2072926E1,3.3642702E0,1.1362684E1,2.1840801E1,3.2469803E2,7.3149506E1,1.4281664E1,5.3577103E1,3.0624908E1,3.0650745E2,1.792076E1,2.3901474E0,1.9784744E2,4.480992E1,3.3786606E1,1.484364E0,6.2735443E1,6.127337E2,2.3151867E0,2.975774E1,2.2559066E0,1.1083637E0,4.7122765E0,6.6504073E0,2.025816E1,1.5826404E0,3.0841846E2,1.627958E1,2.5131039E1,4.8018463E1,6.626881E0,7.6547823E0,5.1472584E1,2.1045215E0,2.9430836E1,1.1940733E0,2.3244701E1,2.8326273E2,2.609414E0,1.5311344E1,1.1762667E0,1.2138808E0,1.62411E2,3.5436443E1,3.320931E1,1.1600613E1,2.0006135E0,3.1785994E1,6.101013E1,1.7253146E0,6.0278516E2,9.94856E0,2.303722E0,2.7454018E1,1.1101394E0,3.602137E0,1.1142572E0,5.5361505E0,1.7278423E0,1.8530317E1,2.980511E2,1.0367378E1,1.0380237E1,5.8993425E0,3.6469672E0,2.1484072E1,3.843696E1,9.581506E0,1.8773984E0,4.7494826E0,4.1926856E0,3.462097E0,1.5017839E1,3.6454742E1,2.6568676E1,2.8621595E0,2.0769281E1,2.47542E0,2.6697223E2,1.6290514E1],"tree_param":{"num_deleted":"0","num_feature":"5000","num_nodes":"101","size_leaf_vector":"1"}},{"base_weights":[-4.194369E-4,5.545828E-1,-1.1360728E-1,6.4538115E-1,-5.5006045E-1,-3.447879E-1,2.0456533E-1,6.997072E-1,-1.0029418E0,-1.2441308E0,5.974924E-1,-4.4172695E-1,4.9504846E-1,-9.339554E-4,6.20693E-1,7.989447E-1,-2.061508E-1,-1.3142885E0,2.6373466E-2,-1.5324736E0,6.6851765E-2,-3.6120426E-2,1.3437752E-1,1.1061071E0,-5.0417906E-1,5.613699E-1,-1.5195413E-1,7.2181463E-1,-1.6738476E-1,7.0782286E-1,-6.99092E-1,8.508572E-1,-8.9356357E-1,1.1464248E0,-9.052168E-1,-1.4120686E-1,-4.0549673E-2,2.1384759E-2,-1.7023913E0,6.060089E-1,-7.7484167E-1,-8.142069E-2,1.2188146E0,5.2246386E-1,-5.982913E-1,6.8647194E-1,-5.334861E-1,8.844994E-1,-7.482718E-1,9.8711765E-1,-2.4548818E-1,7.953411E-1,-4.8997527E-1,8.1419194E-1,-1.0620266E0,9.3583025E-2,-1.9275593E-2,-1.397882E-1,1.0612013E-1,-8.962288E-3,1.3075311E-1,-1.15511194E-1,7.964352E-2,-4.1121755E-2,-1.7978856E-1,9.176742E-2,-1.1882998E-2,1.4207768E-2,-1.2725501E-1,1.3169803E-1,-3.9812427E-2,-6.0359318E-2,7.520927E-2,5.4295518E-2,-6.7052074E-2,-8.655046E-3,9.023764E-2,1.5042898E-2,-1.314429E-1,9.568736E-2,-1.0013791E-1,5.693375E-2,-1.16159335E-1,-7.104214E-2,1.1275979E-1,-3.852476E-2,2.5777964E-2,8.8875465E-2,-7.5435326E-3,-9.2040606E-2,1.0557427E-1,1.07939675E-1,1.466763E-2,5.3932667E-2,-1.393193E-1],"categories":[],"categories_nodes":[],"categories_segments":[],"categories_sizes":[],"default_left":[0,1,1,1,1,1,1,1,1,1,0,0,1,0,1,1,0,1,0,0,0,0,0,0,0,1,0,1,0,1,0,1,0,0,1,0,0,0,0,1,0,0,1,0,0,0,1,1,0,0,1,1,1,0,0,0,0,0,0,0,0,0,0,0,0,0,0,0,0,0,0,0,0,0,0,0,0,0,0,0,0,0,0,0,0,0,0,0,0,0,0,0,0,0,0],"id":9,"left_children":[1,3,5,7,9,11,13,15,17,19,21,23,25,27,29,31,33,35,-1,37,-1,39,-1,41,43,45,-1,47,49,51,53,55,57,59,61,-1,-1,-1,63,65,67,-1,69,71,73,75,77,79,81,83,85,87,89,91,93,-1,-1,-1,-1,-1,-1,-1,-1,-1,-1,-1,-1,-1,-1,-1,-1,-1,-1,-1,-1,-1,-1,-1,-1,-1,-1,-1,-1,-1,-1,-1,-1,-1,-1,-1,-1,-1,-1,-1,-1],"loss_changes":[1.1468918E2,3.1374008E1,1.1161189E2,2.6333069E1,1.98825E1,7.175233E1,5.4624817E1,2.512764E1,4.1104403E0,9.46117E0,4.6502743E0,7.675482E1,1.3064474E1,5.1683E1,2.4777802E1,2.2767822E1,2.7713718E1,1.2300873E-1,0E0,4.398819E0,0E0,3.4281304E0,0E0,7.676758E0,7.358629E1,1.2585646E1,0E0,1.989508E1,3.1728647E1,2.1207634E1,8.323574E0,2.177684E1,9.312599E0,2.1193247E0,9.066715E0,0E0,0E0,0E0,8.023224E-1,9.8958766E-1,1.7046926E0,0E0,5.2183075E0,1.7058613E1,5.7666855E1,1.3513813E1,5.384454E0,1.0903496E1,5.320093E0,6.1249695E0,2.315988E1,1.515181E1,1.037999E1,4.069481E-1,6.7904367E0,0E0,0E0,0E0,0E0,0E0,0E0,0E0,0E0,0E0,0E0,0E0,0E0,0E0,0E0,0E0,0E0,0E0,0E0,0E0,0E0,0E0,0E0,0E0,0E0,0E0,0E0,0E0,0E0,0E0,0E0,0E0,0E0,0E0,0E0,0E0,0E0,0E0,0E0,0E0,0E0],"parents":[2147483647,0,0,1,1,2,2,3,3,4,4,5,5,6,6,7,7,8,8,9,9,10,10,11,11,12,12,13,13,14,14,15,15,16,16,17,17,19,19,21,21,23,23,24,24,25,25,27,27,28,28,29,29,30,30,31,31,32,32,33,33,34,34,38,38,39,39,40,40,42,42,43,43,44,44,45,45,46,46,47,47,48,48,49,49,50,50,51,51,52,52,53,53,54,54],"right_children":[2,4,6,8,10,12,14,16,18,20,22,24,26,28,30,32,34,36,-1,38,-1,40,-1,42,44,46,-1,48,50,52,54,56,58,60,62,-1,-1,-1,64,66,68,-1,70,72,74,76,78,80,82,84,86,88,90,92,94,-1,-1,-1,-1,-1,-1,-1,-1,-1,-1,-1,-1,-1,-1,-1,-1,-1,-1,-1,-1,-1,-1,-1,-1,-1,-1,-1,-1,-1,-1,-1,-1,-1,-1,-1,-1,-1,-1,-1,-1],"split_conditions":[2.0431237E-2,3.8282186E-2,4.6897143E-2,3.6220577E-2,1.7065339E-2,1.6064137E-2,4.654262E-2,3.9877456E-2,2.5719674E-2,1.6484087E-2,2.529789E-2,5.0697457E-2,5.3278606E-2,1.3935332E-2,3.612375E-2,3.4551088E-2,5.9148263E-2,3.6052592E-2,2.6373466E-2,3.8168192E-2,6.6851765E-2,4.8922244E-2,1.3437752E-1,3.850935E-2,5.387671E-2,3.529814E-2,-1.5195413E-1,3.9372828E-2,9.5807336E-2,4.532934E-2,6.699811E-2,5.463492E-2,3.0149387E-2,6.880144E-2,2.5996707E-2,-1.4120686E-1,-4.0549673E-2,2.1384759E-2,2.888104E-2,3.964828E-2,5.3125266E-2,-8.142069E-2,3.734893E-2,1.8224886E-2,3.2892548E-2,7.5488925E-2,2.502838E-2,3.1459227E-2,4.8698705E-2,1.2935781E-1,3.0236091E-2,5.1921435E-2,2.5504505E-2,5.5151455E-2,9.9857345E-2,9.3583025E-2,-1.9275593E-2,-1.397882E-1,1.0612013E-1,-8.962288E-3,1.3075311E-1,-1.15511194E-1,7.964352E-2,-4.1121755E-2,-1.7978856E-1,9.176742E-2,-1.1882998E-2,1.4207768E-2,-1.2725501E-1,1.3169803E-1,-3.9812427E-2,-6.0359318E-2,7.520927E-2,5.4295518E-2,-6.7052074E-2,-8.655046E-3,9.023764E-2,1.5042898E-2,-1.314429E-1,9.568736E-2,-1.0013791E-1,5.693375E-2,-1.16159335E-1,-7.104214E-2,1.1275979E-1,-3.852476E-2,2.5777964E-2,8.8875465E-2,-7.5435326E-3,-9.2040606E-2,1.0557427E-1,1.07939675E-1,1.466763E-2,5.3932667E-2,-1.393193E-1],"split_indices":[132,2347,1466,2965,793,2078,4973,51,2424,4597,4543,4467,552,870,624,362,3921,161,0,1630,0,4742,0,657,2094,3926,0,4297,3636,336,49,45,3020,4504,3156,0,0,0,4021,54,4592,0,4343,1466,4028,3862,769,2231,995,794,3222,4680,659,4592,958,0,0,0,0,0,0,0,0,0,0,0,0,0,0,0,0,0,0,0,0,0,0,0,0,0,0,0,0,0,0,0,0,0,0,0,0,0,0,0,0],"split_type":[0,0,0,0,0,0,0,0,0,0,0,0,0,0,0,0,0,0,0,0,0,0,0,0,0,0,0,0,0,0,0,0,0,0,0,0,0,0,0,0,0,0,0,0,0,0,0,0,0,0,0,0,0,0,0,0,0,0,0,0,0,0,0,0,0,0,0,0,0,0,0,0,0,0,0,0,0,0,0,0,0,0,0,0,0,0,0,0,0,0,0,0,0,0,0],"sum_hessian":[1.8236908E3,3.0826294E2,1.5154279E3,2.8523337E2,2.302958E1,8.776521E2,6.3777576E2,2.7668964E2,8.543736E0,1.4297755E1,8.731823E0,7.872562E2,9.03959E1,4.2760587E2,2.1016988E2,2.4947722E2,2.7212414E1,6.8278704E0,1.7158657E0,1.2597395E1,1.7003603E0,5.2370424E0,3.49478E0,2.9884218E1,7.57372E2,8.821322E1,2.1826806E0,7.941973E1,3.4818613E2,1.9758908E2,1.2580787E1,2.4253546E2,6.941749E0,9.054172E0,1.8158241E1,5.6646085E0,1.1632618E0,1.0941179E0,1.1503278E1,2.8977985E0,2.339244E0,1.3116817E0,2.8572536E1,6.321599E1,6.94156E2,7.950204E1,8.711176E0,7.186521E1,7.554513E0,2.1325161E1,3.2686096E2,1.844482E2,1.3140883E1,2.1931057E0,1.0387681E1,2.2437009E2,1.8165379E1,5.744568E0,1.197181E0,1.095204E0,7.958967E0,1.6113138E1,2.0451028E0,1.1576012E0,1.0345676E1,1.8404188E0,1.0573797E0,1.0744112E0,1.2648327E0,2.7112053E1,1.4604827E0,1.0431801E1,5.2784187E1,4.0930164E1,6.532258E2,1.7487848E1,6.201419E1,5.0745153E0,3.6366603E0,6.9683586E1,2.181631E0,1.7137754E0,5.840738E0,1.3198035E0,2.0005358E1,2.5600256E2,7.0858406E1,1.6655968E2,1.7888527E1,1.0595058E1,2.5458248E0,1.1279385E0,1.0651671E0,1.6723716E0,8.71531E0],"tree_param":{"num_deleted":"0","num_feature":"5000","num_nodes":"95","size_leaf_vector":"1"}},{"base_weights":[-2.84716E-4,2.1417354E-1,-2.6650518E-1,2.4827185E-1,-1.371545E-1,-1.0229998E0,-1.6801889E-1,-1.6148427E-1,3.719672E-1,-1.1240529E0,7.9793614E-1,-8.4320396E-2,-9.2821044E-1,-1.5227497E-4,-1.0644091E0,-1.4180727E0,4.0889186E-1,-2.927535E-1,-1.2319845E0,6.523443E-2,1.425701E-1,-7.2242734E-3,-8.608474E-1,9.490637E-1,-1.0167491E0,-3.5741237E-1,3.364369E-1,4.9128672E-1,-1.2065537E0,-1.5479707E0,1.2346379E-2,1.8156107E-1,6.6303813E-1,1.3117145E-1,-6.124425E-1,-1.2565027E0,-1.33446185E-2,5.849863E-2,-5.2198E-2,4.314661E-2,-1.2679856E0,-9.793932E-1,6.257215E-1,1.910143E-2,1.2380977E-1,-1.069164E0,1.1669914E-1,6.1479576E-2,-5.6682486E-2,7.609323E-2,-1.0772097E-2,-4.5274746E-2,1.1195663E-1,4.7902197E-2,-1.315397E-1,-1.6119191E-1,-4.2963292E-2,-3.359652E-3,8.135039E-2,-7.18648E-2,7.116095E-2,-8.535229E-2,7.111281E-2,-1.5812844E-2,-1.2852444E-1,-8.842942E-3,4.5919653E-2,4.0900167E-3,-1.3487406E-1,2.6545543E-2,-1.1077142E-1,1.5241395E-1,-4.3993622E-2,4.0536504E-2,-1.15176015E-1],"categories":[],"categories_nodes":[],"categories_segments":[],"categories_sizes":[],"default_left":[0,1,0,0,0,1,1,1,0,0,0,1,0,1,0,1,1,0,1,1,0,1,1,0,1,0,1,1,0,1,0,1,0,0,1,0,0,0,0,1,0,0,0,0,0,0,0,0,0,0,0,0,0,0,0,0,0,0,0,0,0,0,0,0,0,0,0,0,0,0,0,0,0,0,0],"id":10,"left_children":[1,3,5,7,-1,9,11,13,15,17,19,21,23,25,27,29,31,33,35,37,-1,39,41,43,45,47,49,51,53,55,-1,57,59,-1,61,63,-1,-1,-1,65,67,69,71,-1,-1,73,-1,-1,-1,-1,-1,-1,-1,-1,-1,-1,-1,-1,-1,-1,-1,-1,-1,-1,-1,-1,-1,-1,-1,-1,-1,-1,-1,-1,-1],"loss_changes":[1.0271102E2,5.4214455E1,5.9628235E1,4.9540733E1,0E0,1.7873909E1,4.5184547E1,3.30766E1,5.016385E1,7.519272E0,2.4072032E0,3.8423927E1,1.26755295E1,2.3405964E1,8.204399E0,3.2719574E0,4.2390038E1,6.652848E0,1.9176025E0,1.3907068E0,0E0,3.720268E1,1.08282585E1,5.721004E-1,9.004166E0,1.9572208E1,1.8978085E1,2.6375897E0,6.46949E0,3.2754517E-1,0E0,5.302214E1,2.3800568E1,0E0,3.858795E0,2.1837463E0,0E0,0E0,0E0,3.0885073E1,2.4339905E0,8.932209E0,5.353553E0,0E0,0E0,8.590157E0,0E0,0E0,0E0,0E0,0E0,0E0,0E0,0E0,0E0,0E0,0E0,0E0,0E0,0E0,0E0,0E0,0E0,0E0,0E0,0E0,0E0,0E0,0E0,0E0,0E0,0E0,0E0,0E0,0E0],"parents":[2147483647,0,0,1,1,2,2,3,3,5,5,6,6,7,7,8,8,9,9,10,10,11,11,12,12,13,13,14,14,15,15,16,16,17,17,18,18,19,19,21,21,22,22,23,23,24,24,25,25,26,26,27,27,28,28,29,29,31,31,32,32,34,34,35,35,39,39,40,40,41,41,42,42,45,45],"right_children":[2,4,6,8,-1,10,12,14,16,18,20,22,24,26,28,30,32,34,36,38,-1,40,42,44,46,48,50,52,54,56,-1,58,60,-1,62,64,-1,-1,-1,66,68,70,72,-1,-1,74,-1,-1,-1,-1,-1,-1,-1,-1,-1,-1,-1,-1,-1,-1,-1,-1,-1,-1,-1,-1,-1,-1,-1,-1,-1,-1,-1,-1,-1],"split_conditions":[5.0076593E-2,1.3957208E-2,1.8251209E-2,1.6161658E-2,-1.371545E-1,9.843589E-2,3.536253E-2,3.4925148E-2,1.1612212E-1,3.2085333E-2,6.3993566E-2,3.4354944E-2,6.051824E-2,2.063663E-2,3.8508378E-2,2.5526471E-2,8.095349E-3,1.0717008E-1,3.750341E-2,1.8896814E-2,1.425701E-1,3.5638984E-2,3.698758E-2,7.341605E-2,1.14362046E-1,4.4946387E-2,1.8552076E-2,3.3533E-2,1.1441963E-1,9.4936594E-2,1.2346379E-2,1.1690757E-2,9.0894975E-2,1.3117145E-1,5.167188E-2,1.2096386E-1,-1.33446185E-2,5.849863E-2,-5.2198E-2,3.188488E-2,3.8678564E-2,3.0114383E-2,6.2893085E-2,1.910143E-2,1.2380977E-1,4.3782152E-2,1.1669914E-1,6.1479576E-2,-5.6682486E-2,7.609323E-2,-1.0772097E-2,-4.5274746E-2,1.1195663E-1,4.7902197E-2,-1.315397E-1,-1.6119191E-1,-4.2963292E-2,-3.359652E-3,8.135039E-2,-7.18648E-2,7.116095E-2,-8.535229E-2,7.111281E-2,-1.5812844E-2,-1.2852444E-1,-8.842942E-3,4.5919653E-2,4.0900167E-3,-1.3487406E-1,2.6545543E-2,-1.1077142E-1,1.5241395E-1,-4.3993622E-2,4.0536504E-2,-1.15176015E-1],"split_indices":[4508,1680,3576,3429,0,1342,121,4488,3924,1349,1876,1445,1017,2743,2470,2304,4141,2659,1100,793,0,393,2792,3855,1643,3366,4205,57,3287,4597,0,1271,444,0,1103,4823,0,0,0,2378,4398,3156,4761,0,0,3876,0,0,0,0,0,0,0,0,0,0,0,0,0,0,0,0,0,0,0,0,0,0,0,0,0,0,0,0,0],"split_type":[0,0,0,0,0,0,0,0,0,0,0,0,0,0,0,0,0,0,0,0,0,0,0,0,0,0,0,0,0,0,0,0,0,0,0,0,0,0,0,0,0,0,0,0,0,0,0,0,0,0,0,0,0,0,0,0,0,0,0,0,0,0,0,0,0,0,0,0,0,0,0,0,0,0,0],"sum_hessian":[1.7970071E3,9.953678E2,8.016393E2,9.752403E2,2.0127533E1,9.12605E1,7.103788E2,2.2606537E2,7.491749E2,8.682484E1,4.435657E0,6.409229E2,6.945588E1,1.926444E2,3.342097E1,1.4385541E1,7.3478937E2,1.0404071E1,7.642077E1,2.556144E0,1.8795128E0,5.8395526E2,5.696767E1,2.690494E0,6.676539E1,9.3422585E1,9.922181E1,2.5923898E0,3.082858E1,1.3263699E1,1.121843E0,3.8876138E2,3.4602798E2,1.2130204E0,9.191051E0,7.461171E1,1.8090569E0,1.3579752E0,1.1981689E0,5.624496E2,2.1505632E1,5.3076298E1,3.8913722E0,1.2011387E0,1.4893553E0,6.569886E1,1.0665288E0,1.6213724E1,7.720886E1,5.03692E1,4.8852608E1,1.1475303E0,1.4448595E0,1.663662E0,2.9164919E1,1.2128801E1,1.1348971E0,2.9072507E2,9.803632E1,1.1282564E1,3.3474542E2,8.075316E0,1.1157337E0,2.0683978E0,7.254331E1,4.2791022E2,1.3453941E2,1.2784169E0,2.0227215E1,4.8600464E0,4.821625E1,1.8779262E0,2.0134459E0,3.277642E0,6.2421215E1],"tree_param":{"num_deleted":"0","num_feature":"5000","num_nodes":"75","size_leaf_vector":"1"}},{"base_weights":[-5.0093693E-4,4.952088E-1,-1.0036317E-1,5.5800503E-1,-9.203868E-1,-3.0625936E-1,1.819424E-1,6.241113E-1,-8.5579056E-1,-1.3613579E0,4.9837774E-1,3.189276E-1,-4.146223E-1,2.7657136E-1,-5.6767577E-1,7.103855E-1,-5.215622E-1,7.5884384E-1,-1.3258965E0,-1.5884956E0,2.9085169E-2,9.7959705E-2,-3.3016674E-2,4.9525762E-1,-8.4229916E-1,9.693712E-1,-4.6870634E-1,3.5873532E-1,-7.273694E-1,-6.7487985E-1,1.3693887E-1,9.1303957E-1,2.0248327E-1,5.4096806E-1,-1.0701517E0,9.1161296E-2,2.1546328E-2,-1.5760908E0,3.245671E-2,-1.7436096E-1,-2.3652071E-2,6.3438755E-1,-7.9288995E-1,-1.1361555E0,8.197454E-2,-9.6593365E-2,1.1586719E0,-5.668707E-1,3.816513E-1,9.6840876E-1,2.6157483E-1,3.924999E-1,-9.191061E-1,6.185237E-1,-8.355258E-1,9.618791E-2,-1.2111745E-1,-1.6916381E-2,1.1582152E-1,1.0393617E-1,-5.0435342E-2,-1.3769762E-1,1.9915445E-2,-4.544263E-2,-1.6692677E-1,7.334708E-2,-1.0603714E-1,-1.3000162E-1,7.752658E-2,-1.3058582E-1,3.1744353E-2,-8.262064E-2,1.3124703E-1,2.4991268E-2,-6.459257E-2,5.6729402E-2,-5.819046E-2,1.0338306E-1,-1.2552279E-1,8.400972E-2,1.7276896E-2,1.06213786E-1,-7.0125334E-2,1.8762447E-2,-1.06298484E-1,1.1350005E-1,-9.470409E-2,1.1497702E-1,-9.3316644E-2],"categories":[],"categories_nodes":[],"categories_segments":[],"categories_sizes":[],"default_left":[0,1,1,1,1,0,1,1,0,1,0,1,0,1,1,0,0,1,1,1,0,0,0,1,1,0,1,0,0,0,0,1,1,1,1,0,0,0,0,0,0,1,1,1,0,0,0,0,0,1,0,0,0,1,0,0,0,0,0,0,0,0,0,0,0,0,0,0,0,0,0,0,0,0,0,0,0,0,0,0,0,0,0,0,0,0,0,0,0],"id":11,"left_children":[1,3,5,7,9,11,13,15,17,19,21,23,25,27,29,31,33,35,37,39,-1,-1,-1,41,43,45,47,49,51,53,-1,55,57,59,61,-1,-1,63,-1,-1,-1,65,67,69,-1,-1,71,73,75,77,79,81,83,85,87,-1,-1,-1,-1,-1,-1,-1,-1,-1,-1,-1,-1,-1,-1,-1,-1,-1,-1,-1,-1,-1,-1,-1,-1,-1,-1,-1,-1,-1,-1,-1,-1,-1,-1],"loss_changes":[8.781447E1,2.6954536E1,8.587741E1,2.72108E1,8.819015E0,5.7999054E1,4.4373016E1,2.7380089E1,1.100418E1,4.287754E0,1.845423E0,2.6369373E1,5.4977592E1,4.5970055E1,1.5500803E1,2.6015244E1,1.2069626E1,1.02939606E-1,4.8744583E0,1.4995403E0,0E0,0E0,0E0,2.0336554E1,9.272816E0,1.1274748E1,5.87901E1,3.012783E1,9.432768E0,1.4476086E1,0E0,2.0011856E1,2.6438784E1,4.3672915E0,5.468232E0,0E0,0E0,2.1817398E-1,0E0,0E0,0E0,1.7642822E1,9.940231E0,4.098009E0,0E0,0E0,8.9314575E0,4.080725E1,1.3427002E1,1.1499786E1,2.2653122E1,5.781757E0,5.99135E0,7.5411873E0,1.27397E1,0E0,0E0,0E0,0E0,0E0,0E0,0E0,0E0,0E0,0E0,0E0,0E0,0E0,0E0,0E0,0E0,0E0,0E0,0E0,0E0,0E0,0E0,0E0,0E0,0E0,0E0,0E0,0E0,0E0,0E0,0E0,0E0,0E0,0E0],"parents":[2147483647,0,0,1,1,2,2,3,3,4,4,5,5,6,6,7,7,8,8,9,9,10,10,11,11,12,12,13,13,14,14,15,15,16,16,17,17,18,18,19,19,23,23,24,24,25,25,26,26,27,27,28,28,29,29,31,31,32,32,33,33,34,34,37,37,41,41,42,42,43,43,46,46,47,47,48,48,49,49,50,50,51,51,52,52,53,53,54,54],"right_children":[2,4,6,8,10,12,14,16,18,20,22,24,26,28,30,32,34,36,38,40,-1,-1,-1,42,44,46,48,50,52,54,-1,56,58,60,62,-1,-1,64,-1,-1,-1,66,68,70,-1,-1,72,74,76,78,80,82,84,86,88,-1,-1,-1,-1,-1,-1,-1,-1,-1,-1,-1,-1,-1,-1,-1,-1,-1,-1,-1,-1,-1,-1,-1,-1,-1,-1,-1,-1,-1,-1,-1,-1,-1,-1],"split_conditions":[2.0431237E-2,3.1188281E-2,4.6897143E-2,3.9546184E-2,2.1263458E-2,5.538046E-2,6.6968635E-2,2.3276722E-2,4.2316966E-2,7.390955E-2,6.070787E-2,2.214664E-2,5.0697457E-2,4.0952653E-2,4.412693E-2,4.6874292E-2,8.9976676E-2,4.5138765E-2,4.9303137E-2,3.0195627E-2,2.9085169E-2,9.7959705E-2,-3.3016674E-2,2.0156778E-2,2.9097952E-2,1.9494593E-2,1.3901138E-2,6.7000344E-2,3.3213004E-2,3.2576162E-2,1.3693887E-1,4.1797187E-2,2.7172117E-2,2.1511756E-2,2.9363107E-2,9.1161296E-2,2.1546328E-2,3.586463E-2,3.245671E-2,-1.7436096E-1,-2.3652071E-2,3.5789132E-2,2.0072626E-2,4.1082263E-2,8.197454E-2,-9.6593365E-2,4.331947E-2,5.168114E-2,5.6631412E-2,6.44526E-2,4.1601844E-2,4.570481E-2,3.309642E-2,4.092442E-2,1.5607291E-1,9.618791E-2,-1.2111745E-1,-1.6916381E-2,1.1582152E-1,1.0393617E-1,-5.0435342E-2,-1.3769762E-1,1.9915445E-2,-4.544263E-2,-1.6692677E-1,7.334708E-2,-1.0603714E-1,-1.3000162E-1,7.752658E-2,-1.3058582E-1,3.1744353E-2,-8.262064E-2,1.3124703E-1,2.4991268E-2,-6.459257E-2,5.6729402E-2,-5.819046E-2,1.0338306E-1,-1.2552279E-1,8.400972E-2,1.7276896E-2,1.06213786E-1,-7.0125334E-2,1.8762447E-2,-1.06298484E-1,1.1350005E-1,-9.470409E-2,1.1497702E-1,-9.3316644E-2],"split_indices":[132,3854,1466,4831,4545,4253,92,17,4588,1629,1271,2225,4467,4297,4508,57,694,2754,793,4896,0,0,0,3906,4880,2125,2078,2961,4092,3222,0,1041,251,3156,1529,0,0,3740,0,0,0,1536,4065,4668,0,0,1022,790,92,1061,1271,2125,1050,220,498,0,0,0,0,0,0,0,0,0,0,0,0,0,0,0,0,0,0,0,0,0,0,0,0,0,0,0,0,0,0,0,0,0,0],"split_type":[0,0,0,0,0,0,0,0,0,0,0,0,0,0,0,0,0,0,0,0,0,0,0,0,0,0,0,0,0,0,0,0,0,0,0,0,0,0,0,0,0,0,0,0,0,0,0,0,0,0,0,0,0,0,0,0,0,0,0,0,0,0,0,0,0,0,0,0,0,0,0,0,0,0,0,0,0,0,0,0,0,0,0,0,0,0,0,0,0],"sum_hessian":[1.7719294E3,2.9644357E2,1.4754858E3,2.8443192E2,1.2011663E1,8.531594E2,6.223265E2,2.722601E2,1.2171785E1,9.1943865E0,2.8172767E0,1.2574508E2,7.274143E2,5.531322E2,6.919426E1,2.5354688E2,1.871324E1,2.606219E0,9.565567E0,8.117057E0,1.0773304E0,1.6668552E0,1.1504216E0,1.09666016E2,1.607907E1,2.6720552E1,7.006938E2,5.1188174E2,4.125046E1,6.6183044E1,3.0112107E0,1.8066393E2,7.288296E1,6.376625E0,1.2336615E1,1.5053321E0,1.100887E0,8.345527E0,1.2200396E0,7.021764E0,1.0952927E0,9.94339E1,1.0232113E1,1.3932208E1,2.1468613E0,2.0152378E0,2.4705315E1,6.284765E2,7.221726E1,6.912999E1,4.4275174E2,5.8771176E0,3.5373344E1,6.997122E0,5.9185925E1,1.7713837E2,3.5255494E0,5.3069347E1,1.981361E1,4.3217707E0,2.0548542E0,9.866739E0,2.4698746E0,1.0908532E0,7.254674E0,9.447753E1,4.9563665E0,7.860949E0,2.3711638E0,1.2566724E1,1.3654835E0,1.4622257E0,2.324309E1,5.5270428E1,5.732061E2,6.0896027E1,1.1321233E1,6.767402E1,1.4559684E0,5.7794144E1,3.849576E2,3.6632438E0,2.213874E0,4.034614E0,3.133873E1,5.468196E0,1.5289259E0,2.2693064E0,5.691662E1],"tree_param":{"num_deleted":"0","num_feature":"5000","num_nodes":"89","size_leaf_vector":"1"}},{"base_weights":[-4.4232357E-4,3.6422926E-1,-1.2968923E-1,4.769815E-1,-3.9715445E-1,-4.8196766E-1,1.7859068E-2,-6.8747956E-1,5.6553394E-1,1.23228386E-1,-5.5695343E-1,9.7138226E-1,-5.6284595E-1,6.2639093E-1,-9.4213516E-2,-1.0946714E0,1.1175699E0,3.1807625E-1,9.64354E-1,-7.66631E-1,3.8929594E-1,-7.738814E-2,1.1451893E0,-8.4975255E-1,-3.149303E-1,6.855939E-1,-1.3661622E-1,6.547704E-1,-1.6471864E-1,1.22022115E-1,-1.2632831E0,2.4939716E-2,2.0268117E-1,4.1506037E-1,-9.174063E-1,1.0241016E0,-3.9871508E-1,5.215501E-1,-9.037416E-1,1.0684037E0,-6.1638343E-1,1.2526699E0,1.1587593E-3,-8.9893615E-1,9.352636E-1,-5.025726E-1,1.6744669E-1,8.54954E-1,-3.9051045E-2,7.897084E-1,-1.0832822E0,-1.2778795E0,-1.238611E-1,-1.3845633E-1,3.0670429E-2,-7.572463E-2,7.850345E-2,7.421134E-2,5.0187884E-3,9.722031E-2,-1.2620856E-1,1.0786772E-1,-4.9705908E-2,3.331088E-2,-1.3980629E-1,1.0226488E-1,-4.7031064E-2,7.875251E-2,-1.0198935E-1,1.19333975E-1,1.8400555E-2,-9.069494E-2,2.5236145E-2,-9.193735E-3,1.3517843E-1,6.1704274E-2,-9.58999E-2,1.1851686E-3,1.3656455E-1,7.969836E-2,-5.739972E-2,3.708538E-2,-8.5287444E-2,9.25482E-2,-7.058384E-2,7.958043E-2,-5.4371297E-2,1.0248297E-1,-1.9227644E-2,3.367384E-2,-1.5860415E-1,-2.1308718E-2,-1.3141732E-1,-1.624246E-2,9.346699E-2],"categories":[],"categories_nodes":[],"categories_segments":[],"categories_sizes":[],"default_left":[0,1,0,0,0,0,0,1,1,0,1,0,0,1,0,0,0,1,1,0,1,0,1,1,0,1,0,1,0,0,1,1,0,0,0,1,1,0,0,0,0,0,0,0,0,0,1,1,0,1,1,0,1,0,0,0,0,0,0,0,0,0,0,0,0,0,0,0,0,0,0,0,0,0,0,0,0,0,0,0,0,0,0,0,0,0,0,0,0,0,0,0,0,0,0],"id":12,"left_children":[1,3,5,7,9,11,13,15,17,-1,19,21,23,25,27,29,31,33,35,37,39,-1,41,43,45,47,-1,49,51,-1,53,55,-1,57,59,61,63,65,67,69,71,73,-1,75,77,79,81,83,85,87,89,91,93,-1,-1,-1,-1,-1,-1,-1,-1,-1,-1,-1,-1,-1,-1,-1,-1,-1,-1,-1,-1,-1,-1,-1,-1,-1,-1,-1,-1,-1,-1,-1,-1,-1,-1,-1,-1,-1,-1,-1,-1,-1,-1],"loss_changes":[8.231712E1,3.9423378E1,6.7033195E1,4.1482826E1,1.6177803E1,4.5294533E1,6.2106438E1,2.2255865E1,3.62985E1,0E0,1.1185095E1,7.0850315E0,2.542781E1,1.76436E1,4.072521E1,1.0852005E1,5.6736913E0,2.7985441E1,1.1934311E1,8.464235E0,7.909114E0,0E0,2.2989483E0,1.5490761E1,1.7769194E1,1.6994827E1,0E0,1.6422674E1,3.1850666E1,0E0,4.7517853E0,2.7523232E0,0E0,2.553579E1,1.2351242E1,1.1815384E1,5.3385563E0,2.9598095E0,8.909744E0,5.2104425E-1,1.4691564E0,2.4343758E0,0E0,1.542485E1,1.9568653E0,1.3537285E1,1.18282175E1,1.29895935E1,1.1866459E1,1.4551819E1,4.249118E0,6.787491E-1,2.7908924E1,0E0,0E0,0E0,0E0,0E0,0E0,0E0,0E0,0E0,0E0,0E0,0E0,0E0,0E0,0E0,0E0,0E0,0E0,0E0,0E0,0E0,0E0,0E0,0E0,0E0,0E0,0E0,0E0,0E0,0E0,0E0,0E0,0E0,0E0,0E0,0E0,0E0,0E0,0E0,0E0,0E0,0E0],"parents":[2147483647,0,0,1,1,2,2,3,3,4,4,5,5,6,6,7,7,8,8,10,10,11,11,12,12,13,13,14,14,15,15,16,16,17,17,18,18,19,19,20,20,22,22,23,23,24,24,25,25,27,27,28,28,30,30,31,31,33,33,34,34,35,35,36,36,37,37,38,38,39,39,40,40,41,41,43,43,44,44,45,45,46,46,47,47,48,48,49,49,50,50,51,51,52,52],"right_children":[2,4,6,8,10,12,14,16,18,-1,20,22,24,26,28,30,32,34,36,38,40,-1,42,44,46,48,-1,50,52,-1,54,56,-1,58,60,62,64,66,68,70,72,74,-1,76,78,80,82,84,86,88,90,92,94,-1,-1,-1,-1,-1,-1,-1,-1,-1,-1,-1,-1,-1,-1,-1,-1,-1,-1,-1,-1,-1,-1,-1,-1,-1,-1,-1,-1,-1,-1,-1,-1,-1,-1,-1,-1,-1,-1,-1,-1,-1,-1],"split_conditions":[5.482325E-2,6.338387E-2,1.6161658E-2,2.3454149E-1,8.2261786E-2,6.259109E-2,5.2312583E-2,3.287625E-2,2.2817537E-2,1.23228386E-1,3.9233427E-2,3.8435344E-2,2.7973354E-2,3.5011582E-2,2.2751769E-2,2.4135622E-1,4.683542E-2,2.6587686E-2,4.3007504E-2,7.177989E-2,2.9771112E-2,-7.738814E-2,7.400817E-2,4.48408E-2,5.225758E-2,2.6489621E-2,-1.3661622E-1,4.7951646E-2,4.0788776E-1,1.22022115E-1,4.6004325E-2,3.9546244E-2,2.0268117E-1,1.0572343E-1,3.0484004E-2,3.458517E-2,2.1121966E-2,2.660051E-2,5.2464705E-2,8.137763E-2,3.6920805E-2,1.4025168E-1,1.1587593E-3,6.575656E-2,3.9351385E-2,3.9872177E-2,5.1475864E-2,1.6610852E-2,2.5183497E-2,3.5106465E-2,1.841194E-2,9.486402E-2,3.9630473E-2,-1.3845633E-1,3.0670429E-2,-7.572463E-2,7.850345E-2,7.421134E-2,5.0187884E-3,9.722031E-2,-1.2620856E-1,1.0786772E-1,-4.9705908E-2,3.331088E-2,-1.3980629E-1,1.0226488E-1,-4.7031064E-2,7.875251E-2,-1.0198935E-1,1.19333975E-1,1.8400555E-2,-9.069494E-2,2.5236145E-2,-9.193735E-3,1.3517843E-1,6.1704274E-2,-9.58999E-2,1.1851686E-3,1.3656455E-1,7.969836E-2,-5.739972E-2,3.708538E-2,-8.5287444E-2,9.25482E-2,-7.058384E-2,7.958043E-2,-5.4371297E-2,1.0248297E-1,-1.9227644E-2,3.367384E-2,-1.5860415E-1,-2.1308718E-2,-1.3141732E-1,-1.624246E-2,9.346699E-2],"split_indices":[3222,1100,3429,3205,888,2518,3828,4488,4483,0,423,1053,4583,477,2379,4049,4345,4663,3763,4389,52,0,4504,4422,1466,1311,0,353,1680,0,559,1349,0,4141,4431,63,4543,4345,1220,4205,1876,1816,0,1826,4522,3993,673,3014,442,1824,4583,1643,3373,0,0,0,0,0,0,0,0,0,0,0,0,0,0,0,0,0,0,0,0,0,0,0,0,0,0,0,0,0,0,0,0,0,0,0,0,0,0,0,0,0,0],"split_type":[0,0,0,0,0,0,0,0,0,0,0,0,0,0,0,0,0,0,0,0,0,0,0,0,0,0,0,0,0,0,0,0,0,0,0,0,0,0,0,0,0,0,0,0,0,0,0,0,0,0,0,0,0,0,0,0,0,0,0,0,0,0,0,0,0,0,0,0,0,0,0,0,0,0,0,0,0,0,0,0,0,0,0,0,0,0,0,0,0,0,0,0,0,0,0],"sum_hessian":[1.7444958E3,4.5601794E2,1.2884779E3,3.975229E2,5.849506E1,3.7968817E2,9.0878973E2,2.761558E1,3.6990732E2,4.624857E0,5.3870205E1,1.9435192E1,3.6025296E2,1.4062651E2,7.681632E2,2.2853683E1,4.7618947E0,2.2938025E2,1.4052705E2,4.425389E1,9.616315E0,1.4475226E0,1.798767E1,1.6586916E2,1.9438382E2,1.3720576E2,3.4207516E0,6.537632E1,7.0278687E2,1.1281596E0,2.1725525E1,2.6294863E0,2.1324086E0,2.1330043E2,1.6079815E1,1.3486421E2,5.6628466E0,3.987419E0,4.026647E1,5.702919E0,3.9133956E0,1.6333956E1,1.6537136E0,1.6190451E2,3.9646506E0,1.399155E2,5.4468323E1,1.1106777E2,2.6137993E1,6.117267E1,4.2036552E0,2.3809954E1,6.789769E2,2.027723E1,1.4482945E0,1.297758E0,1.3317283E0,1.1193434E2,1.013661E2,2.19974E0,1.38800745E1,1.30474E2,4.3902073E0,3.6538212E0,2.009025E0,2.6284547E0,1.358964E0,2.2162316E0,3.805024E1,4.690924E0,1.0119948E0,2.8996E0,1.0137956E0,1.1263303E0,1.5207626E1,5.8167634E0,1.5608774E2,1.5870569E0,2.3775938E0,6.7600145E0,1.3315547E2,4.594537E1,8.522952E0,1.0665536E2,4.412419E0,9.630116E0,1.6507877E1,4.932009E1,1.1852575E1,1.1854957E0,3.0181594E0,1.011304E0,2.2798649E1,6.559273E2,2.3049631E1],"tree_param":{"num_deleted":"0","num_feature":"5000","num_nodes":"95","size_leaf_vector":"1"}},{"base_weights":[-8.535583E-5,3.357714E-1,-1.1841279E-1,4.848108E-1,-1.7052358E-1,-4.4387498E-1,1.6219942E-2,5.5507576E-1,-8.3377886E-1,1.2150543E-1,-3.0563268E-1,9.08738E-1,-5.182229E-1,5.8096963E-1,-8.54472E-2,-7.7949005E-1,6.312715E-1,-1.0321803E0,9.357792E-2,6.0386467E-1,-5.163482E-1,-7.298269E-2,1.0775448E0,-5.580488E-1,1.093516E0,6.372727E-1,-1.2633461E-1,6.1631835E-1,-1.5480639E-1,-1.0434101E0,7.925015E-1,7.1918195E-1,-2.9160243E-1,-1.2599661E0,3.2416677E-1,9.2448115E-1,-9.835668E-1,6.404279E-1,-6.931369E-1,1.1827111E0,1.0866564E-3,-6.131096E-1,7.153034E-1,-4.1558944E-2,1.4855903E0,7.9838556E-1,-3.4284573E-2,2.6658534E-3,1.0819811E0,6.3664067E-1,-2.0843376E-1,1.0115325E-1,-1.2705408E-1,9.5974945E-2,2.3241669E-2,7.5513475E-2,-1.2209082E-1,-7.340769E-2,3.708686E-2,-6.21652E-3,-1.3689364E-1,-3.8946867E-2,8.6107105E-2,-1.0678553E-1,1.1653364E-1,-1.4734788E-1,2.7383429E-3,1.03454165E-1,-4.012687E-2,-8.710746E-2,5.5919874E-2,-8.694944E-3,1.280565E-1,-6.745808E-2,4.2525023E-2,9.219926E-2,-9.007527E-2,5.233039E-3,1.7271005E-1,8.6568035E-2,-6.55043E-2,9.392881E-2,-4.4591673E-2,-9.2356525E-2,3.11897E-2,1.1919888E-1,-1.09826826E-1,-6.5395094E-2,8.03706E-2,-1.2360728E-1,-1.6894514E-2],"categories":[],"categories_nodes":[],"categories_segments":[],"categories_sizes":[],"default_left":[0,1,0,1,0,0,0,0,1,0,0,0,1,1,0,1,1,1,0,1,0,0,1,1,0,1,0,1,0,0,0,1,0,0,0,0,1,1,1,0,0,1,1,0,0,1,0,0,1,0,0,0,0,0,0,0,0,0,0,0,0,0,0,0,0,0,0,0,0,0,0,0,0,0,0,0,0,0,0,0,0,0,0,0,0,0,0,0,0,0,0],"id":13,"left_children":[1,3,5,7,9,11,13,15,17,-1,19,21,23,25,27,29,31,33,-1,35,37,-1,39,41,43,45,-1,47,49,51,53,55,57,59,61,63,65,67,69,71,-1,73,75,-1,77,79,81,83,85,87,89,-1,-1,-1,-1,-1,-1,-1,-1,-1,-1,-1,-1,-1,-1,-1,-1,-1,-1,-1,-1,-1,-1,-1,-1,-1,-1,-1,-1,-1,-1,-1,-1,-1,-1,-1,-1,-1,-1,-1,-1],"loss_changes":[6.8377304E1,3.3907116E1,5.5757294E1,3.2572884E1,1.9594303E1,3.791484E1,5.1780453E1,3.4012375E1,7.2620087E0,0E0,1.8395468E1,6.2528515E0,2.3305885E1,1.5091408E1,3.7301533E1,8.399018E0,2.5553734E1,5.5374165E0,0E0,1.017758E1,1.6221413E1,0E0,2.0423584E0,2.467707E1,5.8620777E0,1.4543892E1,0E0,1.970127E1,2.9691908E1,8.780718E0,7.594657E-2,2.0836456E1,8.444779E0,1.7968693E0,1.5547297E0,8.761921E0,1.7958438E0,4.827437E0,1.5506889E1,2.1821175E0,0E0,2.1473137E1,5.770934E0,0E0,2.4207878E0,1.1154709E1,1.1206716E1,9.096168E0,1.0711567E1,1.0107851E1,2.628992E1,0E0,0E0,0E0,0E0,0E0,0E0,0E0,0E0,0E0,0E0,0E0,0E0,0E0,0E0,0E0,0E0,0E0,0E0,0E0,0E0,0E0,0E0,0E0,0E0,0E0,0E0,0E0,0E0,0E0,0E0,0E0,0E0,0E0,0E0,0E0,0E0,0E0,0E0,0E0,0E0],"parents":[2147483647,0,0,1,1,2,2,3,3,4,4,5,5,6,6,7,7,8,8,10,10,11,11,12,12,13,13,14,14,15,15,16,16,17,17,19,19,20,20,22,22,23,23,24,24,25,25,27,27,28,28,29,29,30,30,31,31,32,32,33,33,34,34,35,35,36,36,37,37,38,38,39,39,41,41,42,42,44,44,45,45,46,46,47,47,48,48,49,49,50,50],"right_children":[2,4,6,8,10,12,14,16,18,-1,20,22,24,26,28,30,32,34,-1,36,38,-1,40,42,44,46,-1,48,50,52,54,56,58,60,62,64,66,68,70,72,-1,74,76,-1,78,80,82,84,86,88,90,-1,-1,-1,-1,-1,-1,-1,-1,-1,-1,-1,-1,-1,-1,-1,-1,-1,-1,-1,-1,-1,-1,-1,-1,-1,-1,-1,-1,-1,-1,-1,-1,-1,-1,-1,-1,-1,-1,-1,-1],"split_conditions":[5.482325E-2,2.8855136E-2,1.6161658E-2,2.990105E-2,3.3218563E-2,6.259109E-2,5.2312583E-2,9.817609E-2,6.3072085E-2,1.2150543E-1,4.9772598E-2,3.8435344E-2,8.621184E-2,3.5011582E-2,3.686781E-2,2.3871979E-2,6.728952E-2,4.9480665E-2,9.357792E-2,2.54281E-2,6.313644E-2,-7.298269E-2,7.400817E-2,4.7731478E-2,1.2606528E-1,2.6489621E-2,-1.2633461E-1,1.5238194E-2,1.5592167E-1,3.168211E-2,2.3068877E-2,3.845194E-2,4.1716594E-2,3.928838E-2,1.3431115E-1,2.6895178E-2,3.021967E-2,3.3721235E-2,5.473698E-2,1.4025168E-1,1.0866564E-3,2.4422718E-2,4.164332E-2,-4.1558944E-2,4.016727E-2,1.6610852E-2,1.16460696E-1,3.7173253E-2,5.9726674E-2,1.7946636E-2,4.0788776E-1,1.0115325E-1,-1.2705408E-1,9.5974945E-2,2.3241669E-2,7.5513475E-2,-1.2209082E-1,-7.340769E-2,3.708686E-2,-6.21652E-3,-1.3689364E-1,-3.8946867E-2,8.6107105E-2,-1.0678553E-1,1.1653364E-1,-1.4734788E-1,2.7383429E-3,1.03454165E-1,-4.012687E-2,-8.710746E-2,5.5919874E-2,-8.694944E-3,1.280565E-1,-6.745808E-2,4.2525023E-2,9.219926E-2,-9.007527E-2,5.233039E-3,1.7271005E-1,8.6568035E-2,-6.55043E-2,9.392881E-2,-4.4591673E-2,-9.2356525E-2,3.11897E-2,1.1919888E-1,-1.09826826E-1,-6.5395094E-2,8.03706E-2,-1.2360728E-1,-1.6894514E-2],"split_indices":[3222,50,3429,865,1629,2518,3828,353,4021,0,2523,1053,2019,477,1529,2531,1100,1736,0,2053,2094,0,4504,3596,3825,1311,0,4929,3824,47,4545,4194,1050,4504,2961,4233,56,3887,1050,1816,0,870,3131,0,884,3014,4369,1053,363,1466,1680,0,0,0,0,0,0,0,0,0,0,0,0,0,0,0,0,0,0,0,0,0,0,0,0,0,0,0,0,0,0,0,0,0,0,0,0,0,0,0,0],"split_type":[0,0,0,0,0,0,0,0,0,0,0,0,0,0,0,0,0,0,0,0,0,0,0,0,0,0,0,0,0,0,0,0,0,0,0,0,0,0,0,0,0,0,0,0,0,0,0,0,0,0,0,0,0,0,0,0,0,0,0,0,0,0,0,0,0,0,0,0,0,0,0,0,0,0,0,0,0,0,0,0,0,0,0,0,0,0,0,0,0,0,0],"sum_hessian":[1.71857E3,4.4725583E2,1.2713141E3,3.4557147E2,1.0168435E2,3.7133914E2,8.99975E2,3.2863806E2,1.6933418E1,8.324223E0,9.336012E1,1.8762888E1,3.5257623E2,1.3657906E2,7.633959E2,1.7251335E1,3.1138672E2,1.5600953E1,1.3324647E0,1.721037E1,7.614976E1,1.4420291E0,1.732086E1,3.4471222E2,7.864032E0,1.3316817E2,3.4108794E0,6.795471E1,6.9544116E2,1.5059296E1,2.19204E0,2.8450616E2,2.688057E1,1.34185E1,2.1824532E0,1.4665895E1,2.5444736E0,9.74739E0,6.640237E1,1.5667395E1,1.6534648E0,3.309214E2,1.37908125E1,1.6094061E0,6.254626E0,1.0724922E2,2.591895E1,2.975248E1,3.8202236E1,4.3441944E1,6.5199927E2,1.1551015E0,1.3904194E1,1.1384934E0,1.0535464E0,2.799294E2,4.5767365E0,1.6051464E1,1.0829105E1,1.2499144E0,1.2168586E1,1.0549077E0,1.1275454E0,1.2114311E0,1.3454464E1,1.4057305E0,1.1387433E0,7.076824E0,2.6705651E0,5.8407932E1,7.994432E0,1.1290684E0,1.4538326E1,3.1275647E2,1.8164913E1,1.2607791E1,1.1830223E0,1.0773994E0,5.177226E0,1.0288975E2,4.35948E0,7.32124E0,1.859771E1,6.9496737E0,2.2802805E1,3.6798775E1,1.4034603E0,4.6449604E0,3.8796986E1,2.300566E1,6.289936E2],"tree_param":{"num_deleted":"0","num_feature":"5000","num_nodes":"91","size_leaf_vector":"1"}},{"base_weights":[2.6358504E-5,1.6983129E-1,-2.110323E-1,8.1469476E-1,1.0259328E-1,-6.980108E-1,-8.569571E-2,-7.4359924E-1,8.6358845E-1,8.5955936E-1,4.189188E-2,-7.775934E-1,1.012725E0,-1.8877208E-2,-8.169907E-1,3.8888145E-2,-1.5012024E-1,9.205305E-1,-3.6666587E-1,9.785814E-1,-9.48417E-1,-8.561082E-2,4.1314518E-1,4.022473E-1,-8.836049E-1,2.1910816E-1,1.774009E-1,-1.151267E-1,5.0818306E-1,8.304506E-2,-9.003865E-1,9.627087E-1,-4.8010524E-2,-9.426022E-1,7.431068E-2,1.0447199E0,-5.106791E-1,-1.4085341E-3,-1.2542681E-1,4.5357597E-1,-2.1646346E-1,1.235895E-1,7.263796E-1,-9.779015E-2,6.408288E-1,-9.219652E-1,1.664863E-1,6.554184E-1,-5.8915835E-2,-2.5950128E-1,3.0664024E-1,2.98139E-1,1.3380165E0,-9.8205584E-1,8.0317E-2,-6.318487E-2,9.925494E-2,-1.13994144E-1,-2.4080353E-2,1.2204678E-1,3.145295E-2,-1.16098E-1,4.3957513E-2,9.73582E-3,8.313625E-2,5.535509E-3,-4.4774514E-2,6.8488725E-2,-1.4091223E-2,-1.8378611E-3,9.763089E-2,-3.2052886E-2,1.1851485E-1,5.1762283E-2,-9.8637946E-2,9.883278E-2,-2.3561267E-3,4.7604363E-2,-3.4679666E-2,3.8638096E-2,-1.0592492E-1,4.626254E-2,-1.2941866E-1,4.849402E-3,1.5507136E-1,1.7134223E-2,-1.10583924E-1],"categories":[],"categories_nodes":[],"categories_segments":[],"categories_sizes":[],"default_left":[0,0,0,0,0,1,1,1,1,1,1,0,0,1,0,0,0,1,1,1,1,0,0,0,1,1,0,1,1,0,1,0,0,0,0,1,0,0,0,0,0,0,0,0,1,0,0,0,0,0,1,1,0,0,0,0,0,0,0,0,0,0,0,0,0,0,0,0,0,0,0,0,0,0,0,0,0,0,0,0,0,0,0,0,0,0,0],"id":14,"left_children":[1,3,5,7,9,11,13,15,17,19,21,23,25,27,29,-1,-1,31,33,35,37,39,41,43,45,47,-1,49,51,-1,53,55,-1,57,-1,59,61,-1,-1,63,65,67,69,-1,71,73,-1,75,-1,77,79,81,83,85,-1,-1,-1,-1,-1,-1,-1,-1,-1,-1,-1,-1,-1,-1,-1,-1,-1,-1,-1,-1,-1,-1,-1,-1,-1,-1,-1,-1,-1,-1,-1,-1,-1],"loss_changes":[6.074164E1,4.0640305E1,4.6061485E1,7.3879967E0,3.909774E1,2.182647E1,2.9405819E1,3.3557615E0,6.3836823E0,1.4522713E1,3.7407204E1,1.8895569E1,4.0239105E0,2.8097565E1,7.6700897E0,0E0,0E0,5.3522263E0,3.5978684E0,6.420246E0,1.2425268E0,4.161943E1,1.8231548E1,4.8769693E0,1.4861824E1,2.0495436E0,0E0,2.8588526E1,1.4509771E1,0E0,7.527714E0,4.466484E0,0E0,1.9986248E-1,0E0,7.00177E0,2.495819E0,0E0,0E0,1.5429062E1,2.983933E1,1.5859462E1,1.8041264E1,0E0,6.4550076E0,1.3023956E1,0E0,8.226963E-1,0E0,2.2595638E1,1.3463274E1,1.8813305E1,4.584835E0,6.852768E0,0E0,0E0,0E0,0E0,0E0,0E0,0E0,0E0,0E0,0E0,0E0,0E0,0E0,0E0,0E0,0E0,0E0,0E0,0E0,0E0,0E0,0E0,0E0,0E0,0E0,0E0,0E0,0E0,0E0,0E0,0E0,0E0,0E0],"parents":[2147483647,0,0,1,1,2,2,3,3,4,4,5,5,6,6,7,7,8,8,9,9,10,10,11,11,12,12,13,13,14,14,17,17,18,18,19,19,20,20,21,21,22,22,23,23,24,24,25,25,27,27,28,28,30,30,31,31,33,33,35,35,36,36,39,39,40,40,41,41,42,42,44,44,45,45,47,47,49,49,50,50,51,51,52,52,53,53],"right_children":[2,4,6,8,10,12,14,16,18,20,22,24,26,28,30,-1,-1,32,34,36,38,40,42,44,46,48,-1,50,52,-1,54,56,-1,58,-1,60,62,-1,-1,64,66,68,70,-1,72,74,-1,76,-1,78,80,82,84,86,-1,-1,-1,-1,-1,-1,-1,-1,-1,-1,-1,-1,-1,-1,-1,-1,-1,-1,-1,-1,-1,-1,-1,-1,-1,-1,-1,-1,-1,-1,-1,-1,-1],"split_conditions":[5.0076593E-2,3.9228518E-2,2.4954092E-2,3.3826888E-2,5.194651E-2,7.70916E-2,3.6173806E-2,1.4098036E-2,5.5498537E-2,5.6225523E-2,6.166689E-2,7.862143E-2,7.4276336E-2,5.246528E-2,9.0180196E-2,3.8888145E-2,-1.5012024E-1,2.2498323E-2,1.8627338E-2,1.4169703E-2,3.509116E-2,3.5155736E-2,4.0765386E-2,7.794846E-2,6.015909E-2,2.5401907E-2,1.774009E-1,4.507564E-2,2.8820584E-2,8.304506E-2,7.129665E-2,4.29857E-2,-4.8010524E-2,2.4673214E-2,7.431068E-2,4.0241677E-2,4.295436E-2,-1.4085341E-3,-1.2542681E-1,2.2393033E-2,5.9589937E-2,8.508836E-2,2.1495715E-2,-9.779015E-2,2.0527378E-2,7.2489366E-2,1.664863E-1,4.766353E-2,-5.8915835E-2,1.571856E-1,3.3682596E-2,4.497609E-2,3.3517614E-2,4.0415086E-2,8.0317E-2,-6.318487E-2,9.925494E-2,-1.13994144E-1,-2.4080353E-2,1.2204678E-1,3.145295E-2,-1.16098E-1,4.3957513E-2,9.73582E-3,8.313625E-2,5.535509E-3,-4.4774514E-2,6.8488725E-2,-1.4091223E-2,-1.8378611E-3,9.763089E-2,-3.2052886E-2,1.1851485E-1,5.1762283E-2,-9.8637946E-2,9.883278E-2,-2.3561267E-3,4.7604363E-2,-3.4679666E-2,3.8638096E-2,-1.0592492E-1,4.626254E-2,-1.2941866E-1,4.849402E-3,1.5507136E-1,1.7134223E-2,-1.10583924E-1],"split_indices":[4508,277,3576,2769,970,2383,1445,1471,416,43,1466,1242,1876,1014,2154,0,0,3032,3763,3981,328,2224,793,1232,401,4092,0,4973,4322,0,49,4251,0,377,0,1751,1876,0,0,3429,92,3222,2743,0,1255,3535,0,173,0,3278,624,3596,2470,2527,0,0,0,0,0,0,0,0,0,0,0,0,0,0,0,0,0,0,0,0,0,0,0,0,0,0,0,0,0,0,0,0,0],"split_type":[0,0,0,0,0,0,0,0,0,0,0,0,0,0,0,0,0,0,0,0,0,0,0,0,0,0,0,0,0,0,0,0,0,0,0,0,0,0,0,0,0,0,0,0,0,0,0,0,0,0,0,0,0,0,0,0,0,0,0,0,0,0,0,0,0,0,0,0,0,0,0,0,0,0,0,0,0,0,0,0,0,0,0,0,0,0,0],"sum_hessian":[1.6928567E3,9.3821857E2,7.546381E2,8.753877E1,8.506798E2,1.5353386E2,6.0110425E2,2.2308462E0,8.530793E1,6.217515E1,7.8850464E2,1.4723024E2,6.3036165E0,5.517194E2,4.938485E1,1.0892735E0,1.1415728E0,8.177476E1,3.5331705E0,5.8765278E1,3.409875E0,5.875029E2,2.0100175E2,1.19079485E1,1.353223E2,3.7167869E0,2.5868297E0,4.6718555E2,8.453386E1,1.9478644E0,4.7436985E1,7.968774E1,2.087024E0,2.4252028E0,1.1079676E0,5.6552273E1,2.2130063E0,1.0989108E0,2.310964E0,1.14252365E2,4.7325055E2,1.0517341E2,9.582835E1,1.2983606E0,1.0609588E1,1.3394435E2,1.3779439E0,2.5366073E0,1.1801795E0,3.4833286E2,1.1885271E2,6.8543655E1,1.5990211E1,4.567102E1,1.765965E0,1.0932833E0,7.859445E1,1.405637E0,1.0195659E0,4.504021E1,1.1512061E1,1.1822103E0,1.0307958E0,5.9452168E1,5.4800194E1,2.1790909E2,2.5534146E2,3.3177742E1,7.199567E1,2.4311014E1,7.1517334E1,3.9841194E0,6.6254683E0,5.435308E0,1.2850905E2,1.3963553E0,1.1402521E0,3.6482292E1,3.1185056E2,1.1297437E2,5.8783326E0,6.2769104E1,5.7745495E0,2.4379013E0,1.3552309E1,4.38916E0,4.128186E1],"tree_param":{"num_deleted":"0","num_feature":"5000","num_nodes":"87","size_leaf_vector":"1"}},{"base_weights":[2.8150177E-4,5.4917127E-1,-5.8353044E-2,3.6761352E-1,1.1035515E0,7.933498E-1,-9.981825E-2,7.496653E-1,4.6562728E-2,1.19563E0,-4.939587E-2,9.3920946E-1,-5.9586847E-1,-2.6053375E-1,1.20621435E-1,9.059724E-1,-9.303428E-1,1.6025801E-1,-1.5853189E-1,1.2688138E0,-5.9731137E-2,1.0208825E0,-1.2515546E-1,-1.261138E0,7.245474E-2,-3.4526885E-1,3.8807207E-1,2.1009392E-1,-4.927318E-1,1.041909E0,-3.0761483E-1,1.5525547E-2,-1.2595434E-1,1.1854314E0,1.33387605E-2,1.3674955E0,2.0197742E-1,1.0789586E0,-8.090899E-2,-1.505482E-1,-1.7478172E-2,2.2552496E-1,-4.5290264E-1,4.6394926E-1,-1.2079309E0,2.8224066E-1,-6.3949984E-1,6.591759E-1,-6.957381E-1,-3.806523E-2,1.1118864E-1,8.8033155E-2,-9.700065E-2,1.3102363E-2,1.3186412E-1,-1.220215E-2,1.15920976E-1,-1.59717E-2,1.4232576E-1,1.0833365E-1,-9.689418E-2,-5.265106E-2,1.13368414E-1,-1.0625141E-1,3.5057683E-2,3.706585E-2,-5.241966E-2,5.249518E-2,-9.532311E-2,-1.563146E-1,-1.8150881E-3,7.221781E-2,1.8019117E-2,-7.4419305E-2,1.265288E-1,1.241385E-1,-9.169714E-2,-7.603829E-2,1.1182492E-1],"categories":[],"categories_nodes":[],"categories_segments":[],"categories_sizes":[],"default_left":[0,1,0,0,1,1,1,1,1,1,0,1,1,1,1,1,0,0,0,1,0,1,0,0,0,0,1,1,0,0,0,0,0,0,1,0,0,0,0,0,0,0,0,1,1,0,1,1,1,0,0,0,0,0,0,0,0,0,0,0,0,0,0,0,0,0,0,0,0,0,0,0,0,0,0,0,0,0,0],"id":15,"left_children":[1,3,5,7,9,11,13,15,17,19,-1,21,23,25,27,29,31,33,-1,35,-1,37,-1,39,-1,41,43,45,47,49,51,-1,-1,53,55,57,59,61,-1,-1,-1,63,65,67,69,71,73,75,77,-1,-1,-1,-1,-1,-1,-1,-1,-1,-1,-1,-1,-1,-1,-1,-1,-1,-1,-1,-1,-1,-1,-1,-1,-1,-1,-1,-1,-1,-1],"loss_changes":[5.373912E1,1.5814812E1,5.335702E1,1.5039343E1,6.365238E0,1.4773876E1,5.102848E1,1.5561655E1,1.2841971E1,5.666683E0,0E0,1.2705925E1,7.306259E0,4.5905437E1,3.344942E1,8.863762E0,2.0769439E0,9.674165E0,0E0,3.5415154E0,0E0,7.4756393E0,0E0,1.1182356E0,0E0,4.5388306E1,1.22708435E1,3.2727203E1,1.8617374E1,5.0818405E0,5.566165E0,0E0,0E0,9.583101E-1,9.026204E0,3.039299E0,5.4291263E0,5.9250717E0,0E0,0E0,0E0,1.9316591E1,3.6627235E1,8.5433445E0,1.943685E0,2.1873718E1,9.290726E0,1.2286114E1,8.648998E0,0E0,0E0,0E0,0E0,0E0,0E0,0E0,0E0,0E0,0E0,0E0,0E0,0E0,0E0,0E0,0E0,0E0,0E0,0E0,0E0,0E0,0E0,0E0,0E0,0E0,0E0,0E0,0E0,0E0,0E0],"parents":[2147483647,0,0,1,1,2,2,3,3,4,4,5,5,6,6,7,7,8,8,9,9,11,11,12,12,13,13,14,14,15,15,16,16,17,17,19,19,21,21,23,23,25,25,26,26,27,27,28,28,29,29,30,30,33,33,34,34,35,35,36,36,37,37,41,41,42,42,43,43,44,44,45,45,46,46,47,47,48,48],"right_children":[2,4,6,8,10,12,14,16,18,20,-1,22,24,26,28,30,32,34,-1,36,-1,38,-1,40,-1,42,44,46,48,50,52,-1,-1,54,56,58,60,62,-1,-1,-1,64,66,68,70,72,74,76,78,-1,-1,-1,-1,-1,-1,-1,-1,-1,-1,-1,-1,-1,-1,-1,-1,-1,-1,-1,-1,-1,-1,-1,-1,-1,-1,-1,-1,-1,-1],"split_conditions":[1.6190515E-1,5.2852735E-2,3.7633758E-2,6.95471E-2,6.49154E-2,3.35099E-2,4.6897143E-2,5.383458E-2,3.8793862E-2,6.1432227E-2,-4.939587E-2,3.7100486E-2,3.3944868E-2,1.6064137E-2,6.449238E-2,3.892773E-2,8.994084E-2,8.691884E-2,-1.5853189E-1,6.0513664E-2,-5.9731137E-2,1.6193224E-1,-1.2515546E-1,3.689656E-2,7.245474E-2,3.026151E-2,3.440008E-2,3.7610427E-2,2.8669324E-2,3.4316786E-2,2.8563805E-2,1.5525547E-2,-1.2595434E-1,2.5535667E-2,3.1785365E-2,7.6882206E-2,1.3119352E-1,6.8478584E-2,-8.090899E-2,-1.505482E-1,-1.7478172E-2,8.7172806E-2,3.3712044E-2,4.9664196E-2,1.7315695E-2,2.9122176E-2,3.7588865E-2,2.8289294E-2,1.012043E-1,-3.806523E-2,1.1118864E-1,8.8033155E-2,-9.700065E-2,1.3102363E-2,1.3186412E-1,-1.220215E-2,1.15920976E-1,-1.59717E-2,1.4232576E-1,1.0833365E-1,-9.689418E-2,-5.265106E-2,1.13368414E-1,-1.0625141E-1,3.5057683E-2,3.706585E-2,-5.241966E-2,5.249518E-2,-9.532311E-2,-1.563146E-1,-1.8150881E-3,7.221781E-2,1.8019117E-2,-7.4419305E-2,1.265288E-1,1.241385E-1,-9.169714E-2,-7.603829E-2,1.1182492E-1],"split_indices":[1383,2125,4056,2081,691,1389,1466,1319,1630,382,0,425,4270,2078,92,3398,3828,593,0,220,0,74,0,152,0,4063,4045,4297,3533,1755,4825,0,0,3080,4583,1534,4944,3671,0,0,0,2229,4016,1092,4973,659,1468,328,2857,0,0,0,0,0,0,0,0,0,0,0,0,0,0,0,0,0,0,0,0,0,0,0,0,0,0,0,0,0,0],"split_type":[0,0,0,0,0,0,0,0,0,0,0,0,0,0,0,0,0,0,0,0,0,0,0,0,0,0,0,0,0,0,0,0,0,0,0,0,0,0,0,0,0,0,0,0,0,0,0,0,0,0,0,0,0,0,0,0,0,0,0,0,0,0,0,0,0,0,0,0,0,0,0,0,0,0,0,0,0,0,0],"sum_hessian":[1.6677559E3,1.6015419E2,1.5076016E3,1.2189657E2,3.8257626E1,6.9148384E1,1.4384532E3,5.5050827E1,6.684574E1,3.6410538E1,1.84709E0,6.2871212E1,6.277174E0,8.318189E2,6.066343E2,5.0786415E1,4.2644105E0,6.333491E1,3.5108292E0,3.5263485E1,1.1470505E0,6.112639E1,1.7448218E0,4.2039685E0,2.073206E0,7.3611865E2,9.570027E1,5.2998114E2,7.6653175E1,4.579795E1,4.988466E0,1.1152058E0,3.1492045E0,7.0528607E0,5.628205E1,3.2019848E1,3.2436385E0,5.964392E1,1.4824688E0,3.1170669E0,1.0869015E0,1.1661283E2,6.195058E2,9.203409E1,3.6661801E0,4.8911383E2,4.086731E1,1.1148238E1,6.550494E1,1.9390744E0,4.3858875E1,1.6680079E0,3.3204582E0,1.0135785E0,6.0392823E0,5.1135048E1,5.1470046E0,1.0622644E0,3.0957582E1,1.8933208E0,1.3503176E0,1.6818852E0,5.7962036E1,9.656273E0,