{"learner":{"attributes":{},"feature_names":[],"feature_types":[],"gradient_booster":{"model":{"gbtree_model_param":{"num_parallel_tree":"1","num_trees":"400"},"iteration_indptr":[0,4,8,12,16,20,24,28,32,36,40,44,48,52,56,60,64,68,72,76,80,84,88,92,96,100,104,108,112,116,120,124,128,132,136,140,144,148,152,156,160,164,168,172,176,180,184,188,192,196,200,204,208,212,216,220,224,228,232,236,240,244,248,252,256,260,264,268,272,276,280,284,288,292,296,300,304,308,312,316,320,324,328,332,336,340,344,348,352,356,360,364,368,372,376,380,384,388,392,396,400],"tree_info":[0,1,2,3,0,1,2,3,0,1,2,3,0,1,2,3,0,1,2,3,0,1,2,3,0,1,2,3,0,1,2,3,0,1,2,3,0,1,2,3,0,1,2,3,0,1,2,3,0,1,2,3,0,1,2,3,0,1,2,3,0,1,2,3,0,1,2,3,0,1,2,3,0,1,2,3,0,1,2,3,0,1,2,3,0,1,2,3,0,1,2,3,0,1,2,3,0,1,2,3,0,1,2,3,0,1,2,3,0,1,2,3,0,1,2,3,0,1,2,3,0,1,2,3,0,1,2,3,0,1,2,3,0,1,2,3,0,1,2,3,0,1,2,3,0,1,2,3,0,1,2,3,0,1,2,3,0,1,2,3,0,1,2,3,0,1,2,3,0,1,2,3,0,1,2,3,0,1,2,3,0,1,2,3,0,1,2,3,0,1,2,3,0,1,2,3,0,1,2,3,0,1,2,3,0,1,2,3,0,1,2,3,0,1,2,3,0,1,2,3,0,1,2,3,0,1,2,3,0,1,2,3,0,1,2,3,0,1,2,3,0,1,2,3,0,1,2,3,0,1,2,3,0,1,2,3,0,1,2,3,0,1,2,3,0,1,2,3,0,1,2,3,0,1,2,3,0,1,2,3,0,1,2,3,0,1,2,3,0,1,2,3,0,1,2,3,0,1,2,3,0,1,2,3,0,1,2,3,0,1,2,3,0,1,2,3,0,1,2,3,0,1,2,3,0,1,2,3,0,1,2,3,0,1,2,3,0,1,2,3,0,1,2,3,0,1,2,3,0,1,2,3,0,1,2,3,0,1,2,3,0,1,2,3,0,1,2,3,0,1,2,3,0,1,2,3,0,1,2,3,0,1,2,3,0,1,2,3,0,1,2,3,0,1,2,3,0,1,2,3],"trees":[{"base_weights":[2.6422372E-1,1.313083E0,1.2308187E-1,-3.140496E-1,1.410185E0,-2.2325312E-1,3.9925998E-1,-5E-1,1.3846155E-1,-4.1379312E-1,1.46236E0,1.9411765E-1,-2.6662725E-1,7.800439E-1,1.76928E-1,-6.407767E-2,7.692308E-1,4.6153846E-1,-6.122449E-2,2.2608696E-1,1.5377384E0,1.1113905E-1,-4.2350727E-1,9.772086E-1,2.6478875E-1,4.8338643E-1,-2.9029794E-2,1.1764706E-2,1.0588236E-1,-3.529412E-2,1.0588236E-1,-3.04E-1,7.9646015E-1,1.6355907E0,5.301205E-1,2.605459E-1,-5.2299607E-1,-4.4019037E-1,9.655172E-1,4.827586E-1,1.2146765E0,9.247028E-2,1.2267658E0,1.2879708E-1,6.937591E-1,1.3300493E0,-7.2440945E-2,4.6153847E-2,-4.6728972E-2,1.2727273E-1,-1.818182E-2,1.6762862E-1,3.716814E-2,1.6267942E-2,1.0839695E-1,4.730965E-2,-7.2900164E-3,-5.630027E-2,9.565218E-2,8.695652E-2,-4.5267314E-2,-4.6153847E-2,1.2653062E-1,7.8899086E-2,6.2111802E-3,3.6734696E-2,1.3330886E-1,-6.5318816E-3,9.4915256E-2,4.8275862E-2,1.7018634E-1,3.7593987E-2,-3.186441E-2,-1.818182E-2,8.0130294E-2,-1.4634146E-2,1.6235295E-1,-1.0730446E-2,1.20000005E-1],"categories":[],"categories_nodes":[],"categories_segments":[],"categories_sizes":[],"default_left":[1,0,0,1,0,0,1,1,0,0,0,0,1,1,1,0,0,0,0,1,1,1,1,0,1,0,0,0,0,0,0,0,1,1,0,1,1,0,0,1,0,1,0,1,0,0,1,0,0,0,0,0,0,0,0,0,0,0,0,0,0,0,0,0,0,0,0,0,0,0,0,0,0,0,0,0,0,0,0],"id":0,"left_children":[1,3,5,7,9,11,13,15,-1,17,19,-1,21,23,25,-1,27,29,-1,31,33,35,37,39,41,43,45,-1,-1,-1,-1,47,49,51,53,55,57,59,61,63,65,67,69,71,73,75,77,-1,-1,-1,-1,-1,-1,-1,-1,-1,-1,-1,-1,-1,-1,-1,-1,-1,-1,-1,-1,-1,-1,-1,-1,-1,-1,-1,-1,-1,-1,-1,-1],"loss_changes":[6.5227856E2,8.301642E1,3.7174976E2,1.0247298E1,4.75578E1,1.624141E2,1.8290845E2,5.4958925E0,0E0,2.8013859E0,4.4371094E1,0E0,1.0029209E2,8.068317E1,8.62562E1,0E0,4.8868775E-1,1.954751E0,0E0,8.934612E0,4.3711304E1,4.723594E1,2.8125732E1,6.703058E1,3.6665977E1,4.088243E1,4.8365063E1,0E0,0E0,0E0,0E0,2.1688685E0,6.8125496E0,2.0549072E1,8.269194E0,2.859677E1,6.1690216E0,1.9716537E1,6.7873125E0,2.4232738E1,3.8477478E1,2.564389E1,1.1064041E1,2.2872007E1,3.2584824E1,1.1232357E1,3.5340916E1,0E0,0E0,0E0,0E0,0E0,0E0,0E0,0E0,0E0,0E0,0E0,0E0,0E0,0E0,0E0,0E0,0E0,0E0,0E0,0E0,0E0,0E0,0E0,0E0,0E0,0E0,0E0,0E0,0E0,0E0,0E0,0E0],"parents":[2147483647,0,0,1,1,2,2,3,3,4,4,5,5,6,6,7,7,9,9,10,10,12,12,13,13,14,14,16,16,17,17,19,19,20,20,21,21,22,22,23,23,24,24,25,25,26,26,31,31,32,32,33,33,34,34,35,35,36,36,37,37,38,38,39,39,40,40,41,41,42,42,43,43,44,44,45,45,46,46],"right_children":[2,4,6,8,10,12,14,16,-1,18,20,-1,22,24,26,-1,28,30,-1,32,34,36,38,40,42,44,46,-1,-1,-1,-1,48,50,52,54,56,58,60,62,64,66,68,70,72,74,76,78,-1,-1,-1,-1,-1,-1,-1,-1,-1,-1,-1,-1,-1,-1,-1,-1,-1,-1,-1,-1,-1,-1,-1,-1,-1,-1,-1,-1,-1,-1,-1,-1],"split_conditions":[1.2974509E-2,9.932114E-2,1.2092689E-1,8.340015E-2,9.034938E-2,1.4260587E-1,2.9611666E-2,5.003074E-2,1.3846155E-1,1.8917557E-2,6.609859E-2,1.9411765E-1,6.75216E-3,3.7938822E-2,5.54244E-2,-6.407767E-2,9.5588624E-2,8.863044E-2,-6.122449E-2,3.1113464E-2,2.945809E-2,7.4911214E-2,5.7787165E-2,7.605256E-2,3.025136E-2,1.1076447E-1,2.3230885E-1,1.1764706E-2,1.0588236E-1,-3.529412E-2,1.0588236E-1,3.326889E-2,3.8517434E-2,6.688082E-2,1.321671E-1,2.1236958E-2,9.524432E-2,6.0219552E-2,3.569765E-2,3.6150713E-2,7.3998354E-2,2.972421E-2,1.7446877E-1,2.132758E-2,1.0460616E-1,3.7460838E-2,5.329677E-2,4.6153847E-2,-4.6728972E-2,1.2727273E-1,-1.818182E-2,1.6762862E-1,3.716814E-2,1.6267942E-2,1.0839695E-1,4.730965E-2,-7.2900164E-3,-5.630027E-2,9.565218E-2,8.695652E-2,-4.5267314E-2,-4.6153847E-2,1.2653062E-1,7.8899086E-2,6.2111802E-3,3.6734696E-2,1.3330886E-1,-6.5318816E-3,9.4915256E-2,4.8275862E-2,1.7018634E-1,3.7593987E-2,-3.186441E-2,-1.818182E-2,8.0130294E-2,-1.4634146E-2,1.6235295E-1,-1.0730446E-2,1.20000005E-1],"split_indices":[8321,4155,8031,6807,7107,5381,7693,3336,0,1926,8197,0,7974,5520,8523,0,347,495,0,5336,2861,8262,3293,1772,3559,5726,5874,0,0,0,0,741,2510,2492,1891,959,1280,1202,2428,3297,4373,8167,5250,5840,5881,3619,4516,0,0,0,0,0,0,0,0,0,0,0,0,0,0,0,0,0,0,0,0,0,0,0,0,0,0,0,0,0,0,0,0],"split_type":[0,0,0,0,0,0,0,0,0,0,0,0,0,0,0,0,0,0,0,0,0,0,0,0,0,0,0,0,0,0,0,0,0,0,0,0,0,0,0,0,0,0,0,0,0,0,0,0,0,0,0,0,0,0,0,0,0,0,0,0,0,0,0,0,0,0,0,0,0,0,0,0,0,0,0,0,0,0,0],"sum_hessian":[4.40625E3,5.21625E2,3.884625E3,2.925E1,4.92375E2,1.7235E3,2.161125E3,2.7E1,2.25E0,1.35E1,4.78875E2,3.3E1,1.6905E3,7.9575E2,1.365375E3,2.475E1,2.25E0,2.25E0,1.125E1,2.775E1,4.51125E2,4.96125E2,1.194375E3,5.74875E2,2.20875E2,5.4825E2,8.17125E2,1.125E0,1.125E0,1.125E0,1.125E0,1.4625E1,1.3125E1,4.10625E2,4.05E1,4.02E2,9.4125E1,1.180875E3,1.35E1,1.875E2,3.87375E2,1.8825E2,3.2625E1,2.0475E2,3.435E2,2.4375E1,7.9275E2,2.25E0,1.2375E1,8.625E0,4.5E0,3.975E2,1.3125E1,2.5125E1,1.5375E1,2.4525E2,1.5675E2,9.225E1,1.875E0,1.05E1,1.170375E3,2.25E0,1.125E1,1.08E2,7.95E1,4.8E1,3.39375E2,1.5975E2,2.85E1,1.35E1,1.9125E1,1.32E2,7.275E1,3.75E1,3.06E2,4.125E0,2.025E1,7.725E2,2.025E1],"tree_param":{"num_deleted":"0","num_feature":"9286","num_nodes":"79","size_leaf_vector":"1"}},{"base_weights":[5.340065E-1,-1.2438302E-1,6.193375E-1,1.16E0,-1.9067357E-1,-5.939005E-1,6.4387727E-1,-8E-2,1.493671E0,-4.425532E-1,4.828974E-2,-6.188925E-1,5.8823533E-2,-2.6349893E-1,6.720124E-1,-5.1428575E-2,6.0869563E-2,1.6241611E0,-3.529412E-2,2.2818792E-1,-4.9798736E-1,9.2E-1,-4.899777E-2,-6.442953E-1,1.5384616E-1,-5.498489E-1,4.4117647E-1,-1.9512194E-1,6.9142014E-1,-0E0,1.7664233E0,-9.836066E-2,1.3142858E-1,4.7058824E-1,-5.348422E-1,-5E-2,1.1363636E0,-1.8443803E-1,4.0384614E-1,-6.5758094E-2,1.1764706E-2,-3.529412E-2,5.8823533E-2,-5.838509E-1,4.6153846E-1,1.1836735E0,2.1978023E-2,-3.3739132E-1,7.4157304E-1,7.1421957E-1,2.8747434E-2,1.875E-1,1.1764706E-2,-5.8823533E-2,4.516129E-2,-3.1578947E-2,1.1578947E-1,6.382979E-2,-5.6585368E-2,1.304348E-1,-4.347826E-2,9.39759E-2,-2.5437927E-2,1E-1,2.0000001E-2,-6.1912477E-2,1.7142858E-2,1.0588236E-1,-3.529412E-2,1.4418605E-1,-4.0000003E-2,-2.857143E-2,8.8E-2,-4.4776123E-2,9.787234E-2,1.027027E-1,-4.347826E-2,7.318497E-2,-2.1052633E-3,-1.6275862E-2,5.6809336E-2],"categories":[],"categories_nodes":[],"categories_segments":[],"categories_sizes":[],"default_left":[1,0,0,0,1,1,0,0,1,0,0,1,0,1,0,0,0,0,0,1,0,0,1,1,0,1,0,1,1,0,1,0,0,1,0,0,1,0,0,0,0,0,0,1,1,1,1,1,1,1,1,0,0,0,0,0,0,0,0,0,0,0,0,0,0,0,0,0,0,0,0,0,0,0,0,0,0,0,0,0,0],"id":1,"left_children":[1,3,5,7,9,11,13,15,17,19,21,23,-1,25,27,-1,-1,29,-1,31,33,35,37,39,41,43,45,47,49,-1,51,53,-1,55,57,-1,59,61,63,-1,-1,-1,-1,65,67,69,71,73,75,77,79,-1,-1,-1,-1,-1,-1,-1,-1,-1,-1,-1,-1,-1,-1,-1,-1,-1,-1,-1,-1,-1,-1,-1,-1,-1,-1,-1,-1,-1,-1],"loss_changes":[2.4768091E2,4.334584E1,1.1654773E2,1.0463291E1,2.9063038E1,2.664791E0,9.7822876E1,2.1823602E0,5.332287E0,8.851398E0,2.1119497E1,1.6057034E0,0E0,2.3599056E1,6.2572998E1,0E0,0E0,4.3034363E0,0E0,6.734885E0,8.011257E0,8.24909E0,1.384381E1,8.3151627E-1,9.230769E-1,3.1151752E0,1.0556606E1,1.1177766E1,5.4810303E1,0E0,2.8451042E0,4.3742805E0,0E0,4.9597526E0,7.996605E0,0E0,6.373522E0,1.3880968E1,6.119231E0,0E0,0E0,0E0,0E0,2.2507858E0,1.954751E0,5.5855713E0,6.2575827E0,1.08787565E1,4.182257E0,4.5494263E1,1.2667778E1,0E0,0E0,0E0,0E0,0E0,0E0,0E0,0E0,0E0,0E0,0E0,0E0,0E0,0E0,0E0,0E0,0E0,0E0,0E0,0E0,0E0,0E0,0E0,0E0,0E0,0E0,0E0,0E0,0E0,0E0],"parents":[2147483647,0,0,1,1,2,2,3,3,4,4,5,5,6,6,7,7,8,8,9,9,10,10,11,11,13,13,14,14,17,17,19,19,20,20,21,21,22,22,23,23,24,24,25,25,26,26,27,27,28,28,30,30,31,31,33,33,34,34,36,36,37,37,38,38,43,43,44,44,45,45,46,46,47,47,48,48,49,49,50,50],"right_children":[2,4,6,8,10,12,14,16,18,20,22,24,-1,26,28,-1,-1,30,-1,32,34,36,38,40,42,44,46,48,50,-1,52,54,-1,56,58,-1,60,62,64,-1,-1,-1,-1,66,68,70,72,74,76,78,80,-1,-1,-1,-1,-1,-1,-1,-1,-1,-1,-1,-1,-1,-1,-1,-1,-1,-1,-1,-1,-1,-1,-1,-1,-1,-1,-1,-1,-1,-1],"split_conditions":[1.2539085E-2,4.568883E-2,1.7357108E-1,6.632053E-2,8.373686E-3,2.0641504E-1,3.2412016E-1,2.5634225E-2,6.8277895E-2,6.7158915E-2,5.6920886E-2,5.5875268E-2,5.8823533E-2,2.4623416E-2,4.1761674E-2,-5.1428575E-2,6.0869563E-2,4.1074432E-2,-3.529412E-2,2.6996102E-2,4.090706E-2,3.1038154E-2,2.9177364E-2,1.03686824E-1,7.010889E-2,4.427809E-2,5.531039E-2,1.4327602E-1,4.412246E-2,-0E0,3.8162783E-2,3.165662E-2,1.3142858E-1,1.9956052E-2,3.247958E-2,-5E-2,3.602403E-2,6.68702E-2,6.861506E-2,-6.5758094E-2,1.1764706E-2,-3.529412E-2,5.8823533E-2,4.832904E-2,4.5526154E-2,4.2874616E-2,4.752931E-2,3.228229E-2,1.6089905E-2,4.3621246E-2,3.472646E-2,1.875E-1,1.1764706E-2,-5.8823533E-2,4.516129E-2,-3.1578947E-2,1.1578947E-1,6.382979E-2,-5.6585368E-2,1.304348E-1,-4.347826E-2,9.39759E-2,-2.5437927E-2,1E-1,2.0000001E-2,-6.1912477E-2,1.7142858E-2,1.0588236E-1,-3.529412E-2,1.4418605E-1,-4.0000003E-2,-2.857143E-2,8.8E-2,-4.4776123E-2,9.787234E-2,1.027027E-1,-4.347826E-2,7.318497E-2,-2.1052633E-3,-1.6275862E-2,5.6809336E-2],"split_indices":[8321,6967,5381,8610,2066,1991,6438,4084,5174,3392,2862,2862,0,5937,6859,0,0,4344,0,5582,7675,8382,2861,407,1458,407,7310,4476,240,0,4098,6651,0,8972,2138,0,836,6385,836,0,0,0,0,8856,60,2988,6273,7988,2532,6625,8193,0,0,0,0,0,0,0,0,0,0,0,0,0,0,0,0,0,0,0,0,0,0,0,0,0,0,0,0,0,0],"split_type":[0,0,0,0,0,0,0,0,0,0,0,0,0,0,0,0,0,0,0,0,0,0,0,0,0,0,0,0,0,0,0,0,0,0,0,0,0,0,0,0,0,0,0,0,0,0,0,0,0,0,0,0,0,0,0,0,0,0,0,0,0,0,0,0,0,0,0,0,0,0,0,0,0,0,0,0,0,0,0,0,0],"sum_hessian":[4.40625E3,5.055E2,3.90075E3,2.4E1,4.815E2,7.6875E1,3.823875E3,5.25E0,1.875E1,2.34E2,2.475E2,7.575E1,1.125E0,1.1475E2,3.709125E3,3.375E0,1.875E0,1.7625E1,1.125E0,1.7625E1,2.16375E2,2.4E1,2.235E2,7.35E1,2.25E0,8.175E1,3.3E1,8.1E1,3.628125E3,1.5E0,1.6125E1,1.425E1,3.375E0,7.5E0,2.08875E2,3E0,2.1E1,1.725E2,5.1E1,7.2375E1,1.125E0,1.125E0,1.125E0,7.95E1,2.25E0,1.125E1,2.175E1,7.0875E1,1.0125E1,3.507375E3,1.2075E2,1.5E1,1.125E0,7.5E0,6.75E0,3.75E0,3.75E0,4.875E0,2.04E2,1.9125E1,1.875E0,9.375E0,1.63125E2,1.2E1,3.9E1,7.6125E1,3.375E0,1.125E0,1.125E0,9.75E0,1.5E0,1.65E1,5.25E0,6.6E1,4.875E0,8.25E0,1.875E0,3.42525E3,8.2125E1,8.9625E1,3.1125E1],"tree_param":{"num_deleted":"0","num_feature":"9286","num_nodes":"81","size_leaf_vector":"1"}},{"base_weights":[-2.3313858E-1,1.2832399E-1,-3.425447E-1,4.335058E-2,7.033175E-1,-3.6662337E-1,3.5920176E-1,-1.8788628E-1,2.3400459E-1,1.3786408E0,5.344224E-1,-4.6343148E-1,-2.159368E-1,5.0316054E-1,-6.2184878E-2,1.3663366E0,-2.3735285E-1,1.0171429E0,1.569394E-1,-4.0000003E-2,1.5051546E0,3.978638E-1,1.3793104E0,4.0816328E-1,-4.851721E-1,1.8988903E-1,-2.9193193E-1,7.030498E-1,-2.2727273E-1,-2.0689656E-1,1.7999999E-1,2.7552673E-1,-3.614838E-1,1.2551724E0,-1.1764706E-1,-1.4497817E-1,2.9787233E-1,1.6424581E0,-8.695653E-3,1.3740458E-1,9.6995705E-1,1.6153846E0,-4.0000003E-2,2.0118344E-1,1.483871E0,-5.010232E-1,1.1881188E-1,1.3271028E0,1.089954E-1,9.261745E-1,-3.1301484E-1,4.489796E-1,1.0962343E0,-3.4146342E-1,8.0000006E-2,1.1764706E-2,-4.0000003E-2,1E-1,8.450705E-3,1.20000005E-1,-3.916533E-2,5.5172414E-2,1.6483517E-1,1.0588236E-1,-4.4067796E-2,-1.8505339E-2,1.4482759E-1,1.3793103E-1,2.4315068E-2,3.448276E-2,1.7974684E-1,4.480652E-3,1.2195122E-1,-3.636364E-2,1.2284263E-1,1.7473684E-1,1.1764706E-2,-1.2875536E-2,8.672567E-2,1.6981132E-1,1.1764706E-2,-5.0853312E-2,6.938776E-2,-1.8404908E-2,1.255814E-1,-0E0,1.4947368E-1,-3.9252337E-2,3.0281052E-2,1.4805196E-1,3.0000001E-2,-3.8770333E-2,-3.4349032E-3,6.257669E-2,-3.783784E-2,1.7108433E-1,7.317074E-2,-4.6979867E-2,6.0869563E-2],"categories":[],"categories_nodes":[],"categories_segments":[],"categories_sizes":[],"default_left":[0,1,1,1,0,1,0,0,0,0,1,0,0,1,0,0,0,1,1,0,1,1,1,0,1,0,0,0,1,0,0,0,0,0,0,1,0,0,0,1,0,1,0,1,1,1,1,0,0,0,1,1,0,1,0,0,0,0,0,0,0,0,0,0,0,0,0,0,0,0,0,0,0,0,0,0,0,0,0,0,0,0,0,0,0,0,0,0,0,0,0,0,0,0,0,0,0,0,0],"id":2,"left_children":[1,3,5,7,9,11,13,15,17,19,21,23,25,27,-1,29,31,33,35,-1,37,39,41,43,45,47,49,51,53,55,-1,57,59,61,63,65,67,69,-1,71,73,75,-1,77,79,81,83,85,87,89,91,93,95,97,-1,-1,-1,-1,-1,-1,-1,-1,-1,-1,-1,-1,-1,-1,-1,-1,-1,-1,-1,-1,-1,-1,-1,-1,-1,-1,-1,-1,-1,-1,-1,-1,-1,-1,-1,-1,-1,-1,-1,-1,-1,-1,-1,-1,-1],"loss_changes":[1.7433401E2,5.0037933E1,5.73031E1,3.9451546E1,1.4304726E1,4.7627167E1,1.6236668E1,3.1423103E1,2.9435823E1,6.3964005E0,1.1810949E1,3.7927826E1,3.958176E1,1.45961E1,0E0,8.985868E0,2.5111685E1,1.1965134E1,1.9089687E1,0E0,5.4439316E0,1.3817501E1,6.7368717E0,1.0611309E1,1.8662628E1,1.8507E1,2.80224E1,7.2872505E0,2.8538804E0,2.7423936E-1,0E0,1.0588719E1,1.5391804E1,9.116638E0,3.696909E0,9.40654E0,1.7743525E1,3.8808289E0,0E0,6.5085278E0,1.0485882E1,2.364231E0,0E0,9.3966675E0,2.0686684E0,1.734552E1,1.7620985E1,2.975504E0,1.8623676E1,6.020892E0,2.2095428E1,7.4038286E0,5.4414062E0,2.7857118E0,0E0,0E0,0E0,0E0,0E0,0E0,0E0,0E0,0E0,0E0,0E0,0E0,0E0,0E0,0E0,0E0,0E0,0E0,0E0,0E0,0E0,0E0,0E0,0E0,0E0,0E0,0E0,0E0,0E0,0E0,0E0,0E0,0E0,0E0,0E0,0E0,0E0,0E0,0E0,0E0,0E0,0E0,0E0,0E0,0E0],"parents":[2147483647,0,0,1,1,2,2,3,3,4,4,5,5,6,6,7,7,8,8,9,9,10,10,11,11,12,12,13,13,15,15,16,16,17,17,18,18,20,20,21,21,22,22,23,23,24,24,25,25,26,26,27,27,28,28,29,29,31,31,32,32,33,33,34,34,35,35,36,36,37,37,39,39,40,40,41,41,43,43,44,44,45,45,46,46,47,47,48,48,49,49,50,50,51,51,52,52,53,53],"right_children":[2,4,6,8,10,12,14,16,18,20,22,24,26,28,-1,30,32,34,36,-1,38,40,42,44,46,48,50,52,54,56,-1,58,60,62,64,66,68,70,-1,72,74,76,-1,78,80,82,84,86,88,90,92,94,96,98,-1,-1,-1,-1,-1,-1,-1,-1,-1,-1,-1,-1,-1,-1,-1,-1,-1,-1,-1,-1,-1,-1,-1,-1,-1,-1,-1,-1,-1,-1,-1,-1,-1,-1,-1,-1,-1,-1,-1,-1,-1,-1,-1,-1,-1],"split_conditions":[1.7300362E-2,1.9649282E-2,6.1555814E-2,1.5222498E-2,2.551479E-2,7.6079324E-2,9.7506106E-2,3.3471826E-2,3.181449E-2,5.4453265E-2,2.190034E-2,7.749363E-2,1.0384903E-1,9.7293E-2,-6.2184878E-2,1.0888302E-2,6.1071727E-2,2.3463521E-2,1.6516585E-2,-4.0000003E-2,4.2360667E-2,1.8993624E-2,3.6736663E-2,5.35087E-2,4.755859E-2,1.9136377E-2,6.294039E-2,6.1335973E-2,4.612444E-2,3.2483567E-2,1.7999999E-1,2.6400296E-2,5.9514526E-2,1.2255222E-2,3.6136154E-2,4.2958736E-2,5.1770907E-2,3.097711E-2,-8.695653E-3,3.5710525E-2,4.5658812E-2,4.9339775E-2,-4.0000003E-2,1.5681058E-2,1.2202115E-1,5.6933988E-2,1.799881E-2,2.3824265E-2,9.848842E-2,9.7037986E-2,3.0831892E-2,3.0982543E-2,5.3211395E-2,3.9263885E-2,8.0000006E-2,1.1764706E-2,-4.0000003E-2,1E-1,8.450705E-3,1.20000005E-1,-3.916533E-2,5.5172414E-2,1.6483517E-1,1.0588236E-1,-4.4067796E-2,-1.8505339E-2,1.4482759E-1,1.3793103E-1,2.4315068E-2,3.448276E-2,1.7974684E-1,4.480652E-3,1.2195122E-1,-3.636364E-2,1.2284263E-1,1.7473684E-1,1.1764706E-2,-1.2875536E-2,8.672567E-2,1.6981132E-1,1.1764706E-2,-5.0853312E-2,6.938776E-2,-1.8404908E-2,1.255814E-1,-0E0,1.4947368E-1,-3.9252337E-2,3.0281052E-2,1.4805196E-1,3.0000001E-2,-3.8770333E-2,-3.4349032E-3,6.257669E-2,-3.783784E-2,1.7108433E-1,7.317074E-2,-4.6979867E-2,6.0869563E-2],"split_indices":[8388,7756,4328,5188,8706,8523,7693,1368,7058,6255,8778,4707,2092,4205,0,8199,5248,6622,8199,0,8764,7760,4179,4084,3031,8514,131,7750,1094,131,0,7350,8142,2066,159,7118,1110,7949,0,6775,3074,3257,0,8199,551,6625,2072,3436,1458,7740,4919,3043,7126,5599,0,0,0,0,0,0,0,0,0,0,0,0,0,0,0,0,0,0,0,0,0,0,0,0,0,0,0,0,0,0,0,0,0,0,0,0,0,0,0,0,0,0,0,0,0],"split_type":[0,0,0,0,0,0,0,0,0,0,0,0,0,0,0,0,0,0,0,0,0,0,0,0,0,0,0,0,0,0,0,0,0,0,0,0,0,0,0,0,0,0,0,0,0,0,0,0,0,0,0,0,0,0,0,0,0,0,0,0,0,0,0,0,0,0,0,0,0,0,0,0,0,0,0,0,0,0,0,0,0,0,0,0,0,0,0,0,0,0,0,0,0,0,0,0,0,0,0],"sum_hessian":[4.40625E3,1.02375E3,3.3825E3,8.92875E2,1.30875E2,3.27075E3,1.1175E2,4.035E2,4.89375E2,2.475E1,1.06125E2,1.990125E3,1.280625E3,9.7875E1,1.3875E1,1.1625E1,3.91875E2,4.275E1,4.46625E2,1.5E0,2.325E1,9.2625E1,1.35E1,4.8E1,1.942125E3,2.0175E2,1.078875E3,7.6875E1,2.1E1,2.625E0,9E0,7.6125E1,3.1575E2,3.525E1,7.5E0,1.42125E2,3.045E2,2.1375E1,1.875E0,6.45E1,2.8125E1,1.2E1,1.5E0,4.125E1,6.75E0,1.892625E3,4.95E1,1.2375E1,1.89375E2,1.7625E1,1.06125E3,4.8E1,2.8875E1,1.95E1,1.5E0,1.125E0,1.5E0,1.5E1,6.1125E1,5.25E0,3.105E2,1.35E1,2.175E1,1.125E0,6.375E0,1.395E2,2.625E0,1.35E1,2.91E2,2.625E0,1.875E1,6.0375E1,4.125E0,4.5E0,2.3625E1,1.0875E1,1.125E0,2.8125E1,1.3125E1,5.625E0,1.125E0,1.881375E3,1.125E1,3.975E1,9.75E0,1.5E0,1.0875E1,5.25E1,1.36875E2,8.625E0,9E0,8.36625E2,2.24625E2,3.975E1,8.25E0,9.375E0,1.95E1,1.7625E1,1.875E0],"tree_param":{"num_deleted":"0","num_feature":"9286","num_nodes":"99","size_leaf_vector":"1"}},{"base_weights":[-5.650916E-1,3.8709676E-1,-5.820008E-1,6.593407E-2,1.2138728E0,-5.937124E-1,1.0562181E-1,-8.1145585E-2,1.4545456E-1,1.616E0,1.4285715E-1,-6.000237E-1,2.3574145E-1,-2.183406E-1,1.1824818E0,-2.2107969E-1,1.3684212E-1,1.7876107E-1,-0E0,-3.6363637E-1,1.20000005E-1,6.976744E-1,-6.0318965E-1,-2.9508197E-1,6.577181E-1,-3.846154E-1,1.2E0,1.36E0,-4.0000003E-2,8.8E-1,-3.7463978E-1,1.1764706E-2,-5.1428575E-2,-1.8181819E-1,1.36E0,4.827586E-1,-6.067924E-1,-4.778761E-1,1.0588236E-1,-6.451613E-2,1.0736842E0,9.565218E-2,-4.5386535E-1,2.6086956E-2,1.5428571E-1,-3.529412E-2,1.5172414E0,-4.0000003E-2,1.3684212E-1,1.07692316E-1,-4.8024315E-2,5.8823533E-2,-5.1428575E-2,1.6097562E-1,1.1764706E-2,-2.5352111E-2,1.3962264E-1,2.4390245E-2,-6.1081566E-2,2.6086956E-2,-6.122449E-2,-4.0000003E-2,8.0000006E-2,-4.0000003E-2,1.3253012E-1,5E-2,-5.2519895E-2,1.6923077E-1,-0E0],"categories":[],"categories_nodes":[],"categories_segments":[],"categories_sizes":[],"default_left":[0,1,1,1,1,1,1,1,0,0,1,0,0,1,1,0,0,0,0,0,0,0,0,0,0,0,0,0,0,0,0,0,0,0,1,0,0,0,0,0,0,0,0,0,0,0,1,0,0,0,0,0,0,0,0,0,0,0,0,0,0,0,0,0,0,0,0,0,0],"id":3,"left_children":[1,3,5,7,9,11,13,15,-1,17,19,21,23,25,27,29,-1,-1,-1,31,-1,33,35,37,39,41,43,45,-1,47,49,-1,-1,51,53,55,57,59,-1,61,63,-1,65,-1,-1,-1,67,-1,-1,-1,-1,-1,-1,-1,-1,-1,-1,-1,-1,-1,-1,-1,-1,-1,-1,-1,-1,-1,-1],"loss_changes":[7.11853E1,2.0498512E1,3.4938965E1,1.173398E1,9.082695E0,2.2433716E1,2.5855944E1,1.0926476E1,0E0,4.333168E0,4.1844153E0,1.77854E1,7.557919E0,1.3963049E1,5.354744E0,8.55129E0,0E0,0E0,0E0,4.5928192E-1,0E0,6.50926E0,1.6790283E1,4.2801476E0,5.6646852E0,5.263564E0,1.6099377E0,4.7440166E0,0E0,4.4547367E0,7.1661367E0,0E0,0E0,1.7106187E0,1.7498989E0,1.0106206E1,1.4534912E1,1.5618253E0,0E0,2.5677419E0,4.9334164E0,0E0,3.6732368E0,0E0,0E0,0E0,3.8514595E0,0E0,0E0,0E0,0E0,0E0,0E0,0E0,0E0,0E0,0E0,0E0,0E0,0E0,0E0,0E0,0E0,0E0,0E0,0E0,0E0,0E0,0E0],"parents":[2147483647,0,0,1,1,2,2,3,3,4,4,5,5,6,6,7,7,9,9,10,10,11,11,12,12,13,13,14,14,15,15,19,19,21,21,22,22,23,23,24,24,25,25,26,26,27,27,29,29,30,30,33,33,34,34,35,35,36,36,37,37,39,39,40,40,42,42,46,46],"right_children":[2,4,6,8,10,12,14,16,-1,18,20,22,24,26,28,30,-1,-1,-1,32,-1,34,36,38,40,42,44,46,-1,48,50,-1,-1,52,54,56,58,60,-1,62,64,-1,66,-1,-1,-1,68,-1,-1,-1,-1,-1,-1,-1,-1,-1,-1,-1,-1,-1,-1,-1,-1,-1,-1,-1,-1,-1,-1],"split_conditions":[4.084684E-2,1.8302305E-2,3.4751758E-2,2.8034804E-2,1.701543E-2,8.7570764E-2,1.6205382E-2,6.917457E-2,1.4545456E-1,1.2488591E-1,5.1833697E-2,9.6460044E-2,4.358113E-2,3.8711E-2,3.267596E-2,1.8332956E-2,1.3684212E-1,1.7876107E-1,-0E0,3.783564E-2,1.20000005E-1,3.07946E-2,3.345456E-2,9.910024E-2,7.880324E-2,1.915936E-1,3.331143E-2,2.6900364E-2,-4.0000003E-2,2.1553459E-2,2.3803223E-2,1.1764706E-2,-5.1428575E-2,3.3602882E-2,3.6972918E-2,2.2119502E-2,5.311024E-2,6.6369355E-2,1.0588236E-1,5.4829188E-2,1.11654215E-1,9.565218E-2,1.8758649E-2,2.6086956E-2,1.5428571E-1,-3.529412E-2,4.1415818E-2,-4.0000003E-2,1.3684212E-1,1.07692316E-1,-4.8024315E-2,5.8823533E-2,-5.1428575E-2,1.6097562E-1,1.1764706E-2,-2.5352111E-2,1.3962264E-1,2.4390245E-2,-6.1081566E-2,2.6086956E-2,-6.122449E-2,-4.0000003E-2,8.0000006E-2,-4.0000003E-2,1.3253012E-1,5E-2,-5.2519895E-2,1.6923077E-1,-0E0],"split_indices":[6859,7213,2008,4328,455,3079,4424,3065,0,2362,4443,1259,4401,7740,494,7069,0,0,0,152,0,957,4398,2528,2492,7187,5336,2895,0,385,3327,0,0,848,5676,7213,5392,194,0,2528,180,0,6520,0,0,0,7070,0,0,0,0,0,0,0,0,0,0,0,0,0,0,0,0,0,0,0,0,0,0],"split_type":[0,0,0,0,0,0,0,0,0,0,0,0,0,0,0,0,0,0,0,0,0,0,0,0,0,0,0,0,0,0,0,0,0,0,0,0,0,0,0,0,0,0,0,0,0,0,0,0,0,0,0,0,0,0,0,0,0,0,0,0,0,0,0,0,0,0,0,0,0],"sum_hessian":[4.40625E3,7.65E1,4.32975E3,5.5875E1,2.0625E1,4.257375E3,7.2375E1,5.1375E1,4.5E0,1.4625E1,6E0,4.2255E3,3.1875E1,5.625E1,1.6125E1,4.7625E1,3.75E0,1.3125E1,1.5E0,4.5E0,1.5E0,9.75E0,4.21575E3,1.425E1,1.7625E1,5.1E1,5.25E0,1.4625E1,1.5E0,5.25E0,4.2375E1,1.125E0,3.375E0,4.5E0,5.25E0,1.35E1,4.20225E3,1.3125E1,1.125E0,6.75E0,1.0875E1,1.875E0,4.9125E1,1.875E0,3.375E0,1.125E0,1.35E1,1.5E0,3.75E0,2.25E0,4.0125E1,1.125E0,3.375E0,4.125E0,1.125E0,7.875E0,5.625E0,1.95E1,4.18275E3,1.875E0,1.125E1,5.25E0,1.5E0,1.5E0,9.375E0,3E0,4.6125E1,1.2E1,1.5E0],"tree_param":{"num_deleted":"0","num_feature":"9286","num_nodes":"69","size_leaf_vector":"1"}},{"base_weights":[2.4239677E-1,1.005877E0,9.108899E-2,1.1117189E0,-1.1905625E-1,-2.2184767E-1,3.3909664E-1,1.2119242E0,2.0772217E-1,-4.6492776E-1,2.4195513E-1,1.6282162E-1,-2.645727E-1,6.754358E-1,1.4015818E-1,-2.6418492E-1,1.263434E0,-1.3185541E-1,7.187017E-1,-5.478469E-1,7.199221E-2,4.2282295E-1,-5.6614246E-2,8.7880656E-2,-4.1486925E-1,5.868692E-1,1.6676264E0,4.164139E-1,-2.6948169E-2,-4.7272834E-1,8.6502045E-1,1.3156631E0,1.2167478E-1,7.972391E-1,-2.3702991E-1,-4.9483772E-2,8.704618E-1,-6.0879356E-1,5.8639985E-2,-5.3824484E-2,6.068501E-1,2.2787623E-1,-5.09164E-1,-4.393203E-1,4.2978853E-1,4.237558E-3,7.293676E-1,1.7122324E0,-3.5299894E-3,5.3918815E-1,-1.5880857E-1,1.2187263E0,-6.8494596E-2,5.774082E-2,-5.738191E-2,9.741309E-3,1.1799295E-1,1.4184593E-1,8.0502E-2,-2.1002827E-2,1.0539597E-1,1.20843425E-1,-8.4108766E-4,-3.5555616E-2,5.37395E-2,-2.5882823E-2,1.0397374E-1,1.3420519E-2,-6.408524E-2,9.033092E-2,-2.6487568E-2,4.2966735E-2,-1.1154948E-2,-5.496056E-2,8.904811E-2,-4.4837415E-2,1.3532E-1,-9.788747E-3,9.618986E-2,-1.7160455E-2,6.418919E-2,8.159343E-2,-1.3556636E-2,1.7429845E-1,8.38424E-3,-4.0204477E-2,6.092109E-2,-4.2706948E-2,6.187875E-2,1.4520063E-1,-1.2352404E-2,-9.372803E-3,1.4379708E-1],"categories":[],"categories_nodes":[],"categories_segments":[],"categories_sizes":[],"default_left":[1,1,0,1,0,0,1,0,1,1,1,0,1,1,1,1,1,0,0,1,0,0,0,1,1,0,1,1,0,0,0,1,0,0,1,0,0,0,0,0,1,1,1,1,0,1,1,1,0,0,0,1,1,0,0,0,0,0,0,0,0,0,0,0,0,0,0,0,0,0,0,0,0,0,0,0,0,0,0,0,0,0,0,0,0,0,0,0,0,0,0,0,0],"id":4,"left_children":[1,3,5,7,9,11,13,15,17,19,21,-1,23,25,27,29,31,33,35,37,-1,39,-1,41,43,45,47,49,51,53,55,57,59,61,63,-1,65,67,-1,-1,69,71,73,75,77,79,81,83,-1,85,87,89,91,-1,-1,-1,-1,-1,-1,-1,-1,-1,-1,-1,-1,-1,-1,-1,-1,-1,-1,-1,-1,-1,-1,-1,-1,-1,-1,-1,-1,-1,-1,-1,-1,-1,-1,-1,-1,-1,-1,-1,-1],"loss_changes":[5.172031E2,8.830737E1,2.9021387E2,6.1072144E1,8.177265E0,1.3112526E2,1.3947762E2,4.6654907E1,1.2025692E1,3.6688066E0,4.9545197E0,0E0,8.56918E1,6.7123505E1,6.0576477E1,5.4411125E0,3.4954346E1,4.308012E0,5.5149555E0,2.5494976E0,0E0,5.0900526E0,0E0,4.0588776E1,2.3604065E1,5.9195038E1,4.843399E0,3.5011734E1,4.243889E1,2.3148613E0,7.757356E-1,2.8410461E1,8.527571E0,1.506114E0,3.7375574E0,0E0,5.029106E0,8.1464005E-1,0E0,0E0,6.20245E0,2.6961306E1,5.7130013E0,1.8497086E1,9.192057E0,1.5934014E1,4.3006073E1,2.9275208E0,0E0,2.7121155E1,1.857105E1,8.467102E0,3.0277092E1,0E0,0E0,0E0,0E0,0E0,0E0,0E0,0E0,0E0,0E0,0E0,0E0,0E0,0E0,0E0,0E0,0E0,0E0,0E0,0E0,0E0,0E0,0E0,0E0,0E0,0E0,0E0,0E0,0E0,0E0,0E0,0E0,0E0,0E0,0E0,0E0,0E0,0E0,0E0,0E0],"parents":[2147483647,0,0,1,1,2,2,3,3,4,4,5,5,6,6,7,7,8,8,9,9,10,10,12,12,13,13,14,14,15,15,16,16,17,17,18,18,19,19,21,21,23,23,24,24,25,25,26,26,27,27,28,28,29,29,30,30,31,31,32,32,33,33,34,34,36,36,37,37,40,40,41,41,42,42,43,43,44,44,45,45,46,46,47,47,49,49,50,50,51,51,52,52],"right_children":[2,4,6,8,10,12,14,16,18,20,22,-1,24,26,28,30,32,34,36,38,-1,40,-1,42,44,46,48,50,52,54,56,58,60,62,64,-1,66,68,-1,-1,70,72,74,76,78,80,82,84,-1,86,88,90,92,-1,-1,-1,-1,-1,-1,-1,-1,-1,-1,-1,-1,-1,-1,-1,-1,-1,-1,-1,-1,-1,-1,-1,-1,-1,-1,-1,-1,-1,-1,-1,-1,-1,-1,-1,-1,-1,-1,-1,-1],"split_conditions":[1.7445689E-2,2.4543578E-2,5.3454317E-2,2.9177364E-2,8.138227E-2,1.4135672E-1,2.9611666E-2,6.2269203E-2,3.4557495E-2,8.340015E-2,3.6122907E-2,1.6282162E-1,6.75216E-3,3.888921E-2,5.54244E-2,6.0193084E-2,6.066846E-2,1.6555767E-1,1.2803943E-1,5.7822008E-2,7.199221E-2,2.1429308E-2,-5.6614246E-2,7.4911214E-2,3.2280885E-2,1.3187729E-1,4.724199E-2,2.5369542E-2,2.3230885E-1,4.9085807E-2,2.3797164E-2,1.4046346E-2,8.256296E-2,5.2558556E-2,3.5680957E-2,-4.9483772E-2,8.695883E-2,3.6458105E-2,5.8639985E-2,-5.3824484E-2,3.5387322E-2,2.1236958E-2,9.524432E-2,3.363854E-2,6.324498E-2,3.2176018E-2,2.1102963E-2,9.5127515E-2,-3.5299894E-3,7.400436E-2,1.5699714E-1,3.0764664E-2,5.4314528E-2,5.774082E-2,-5.738191E-2,9.741309E-3,1.1799295E-1,1.4184593E-1,8.0502E-2,-2.1002827E-2,1.0539597E-1,1.20843425E-1,-8.4108766E-4,-3.5555616E-2,5.37395E-2,-2.5882823E-2,1.0397374E-1,1.3420519E-2,-6.408524E-2,9.033092E-2,-2.6487568E-2,4.2966735E-2,-1.1154948E-2,-5.496056E-2,8.904811E-2,-4.4837415E-2,1.3532E-1,-9.788747E-3,9.618986E-2,-1.7160455E-2,6.418919E-2,8.159343E-2,-1.3556636E-2,1.7429845E-1,8.38424E-3,-4.0204477E-2,6.092109E-2,-4.2706948E-2,6.187875E-2,1.4520063E-1,-1.2352404E-2,-9.372803E-3,1.4379708E-1],"split_indices":[8321,6967,8031,2861,2096,5381,7693,3290,8388,6807,8199,0,7974,362,8523,8305,1575,6807,7792,5336,0,8217,0,8262,7492,4328,6185,5840,5874,3035,3297,8031,2066,6269,2072,0,2528,2203,0,0,2861,959,1280,8512,6422,3380,6656,2742,0,7494,4205,4902,3773,0,0,0,0,0,0,0,0,0,0,0,0,0,0,0,0,0,0,0,0,0,0,0,0,0,0,0,0,0,0,0,0,0,0,0,0,0,0,0,0],"split_type":[0,0,0,0,0,0,0,0,0,0,0,0,0,0,0,0,0,0,0,0,0,0,0,0,0,0,0,0,0,0,0,0,0,0,0,0,0,0,0,0,0,0,0,0,0,0,0,0,0,0,0,0,0,0,0,0,0,0,0,0,0,0,0,0,0,0,0,0,0,0,0,0,0,0,0,0,0,0,0,0,0,0,0,0,0,0,0,0,0,0,0,0,0],"sum_hessian":[4.476947E3,7.395619E2,3.737385E3,6.759732E2,6.35887E1,1.652439E3,2.084946E3,6.0821387E2,6.775934E1,3.232831E1,3.1260391E1,3.6462074E1,1.6159769E3,7.7398987E2,1.3109562E3,2.0369179E1,5.8784467E2,4.115274E1,2.6606594E1,3.0716314E1,1.6119924E0,2.593288E1,5.327511E0,4.8321875E2,1.1327582E3,7.120235E2,6.1966347E1,4.935465E2,8.1740967E2,1.7684532E1,2.6846454E0,5.6198474E2,2.5859924E1,3.5156758E0,3.7637066E1,2.7061763E0,2.3900417E1,2.9589634E1,1.1266816E0,3.8583143E0,2.2074566E1,3.9193564E2,9.1283104E1,1.1013561E3,3.1402035E1,1.4012514E2,5.718984E2,6.0379326E1,1.5870233E0,4.0678568E2,8.676082E1,2.5468254E1,7.919414E2,1.1391542E0,1.6545378E1,1.161868E0,1.5227776E0,4.663311E2,9.565368E1,1.9645023E1,6.2149E0,1.9966553E0,1.5190206E0,3.311038E1,4.5266886E0,3.0465949E0,2.0853823E1,1.0921261E0,2.8497507E1,1.64455E1,5.6290655E0,2.4563684E2,1.462988E2,8.930989E1,1.973214E0,1.0965674E3,4.788788E0,1.6176435E1,1.5225599E1,1.1040915E2,2.9715988E1,5.1991907E2,5.1979317E1,5.9191128E1,1.188195E0,2.7838892E1,3.789468E2,6.484194E1,2.1918875E1,2.162765E1,3.8406048E0,7.798172E2,1.2124227E1],"tree_param":{"num_deleted":"0","num_feature":"9286","num_nodes":"93","size_leaf_vector":"1"}},{"base_weights":[4.815509E-1,-1.13696545E-1,5.546911E-1,1.0205932E0,-1.7720915E-1,-5.786676E-1,5.758259E-1,-1.7705305E-1,1.2694732E0,-4.2399812E-1,4.933667E-2,5.944599E-2,-6.0449725E-1,-2.5319E-1,6.000694E-1,-5.0886523E-2,5.7332035E-2,-3.5642274E-2,1.3742139E0,-4.5775655E-1,6.443652E-1,8.662222E-1,-3.6375333E-2,-6.3041097E-1,7.4297406E-2,-5.3612334E-1,4.0549624E-1,-1.8540965E-1,6.166668E-1,-3.5284642E-2,1.4893721E0,5.1284865E-2,-5.3596115E-1,9.662361E-1,-3.9059095E-2,-4.9330086E-2,1.0839989E0,-1.6454016E-1,3.7476915E-1,-6.442729E-2,1.3526891E-2,5.9108444E-2,-3.967913E-2,-5.7084197E-1,4.6138424E-1,-5.7661053E-2,6.586716E-1,-3.2299984E-1,6.6004086E-1,2.6692E-1,6.525613E-1,1.5714608E-1,9.312235E-3,-1.880265E-2,1.4529662E-1,-5.5557918E-2,6.6912234E-2,1.2880419E-1,4.6742978E-4,-4.503955E-2,1.2676463E-1,8.143736E-2,-2.307563E-2,5.1438898E-2,-3.7680484E-2,-5.955351E-2,5.9601974E-2,-3.393986E-2,1.0163821E-1,-3.2738026E-2,9.99911E-2,-4.4438776E-2,7.968176E-2,9.123202E-2,-4.3267947E-2,3.607894E-2,-3.88369E-2,-2.1446913E-2,6.6773824E-2],"categories":[],"categories_nodes":[],"categories_segments":[],"categories_sizes":[],"default_left":[1,0,0,0,1,0,0,1,0,1,0,0,1,1,0,0,0,0,0,0,1,0,1,1,0,1,0,1,0,0,1,1,1,0,0,0,0,0,1,0,0,0,0,1,0,0,0,1,1,1,0,0,0,0,0,0,0,0,0,0,0,0,0,0,0,0,0,0,0,0,0,0,0,0,0,0,0,0,0],"id":5,"left_children":[1,3,5,7,9,11,13,15,17,19,21,-1,23,25,27,-1,-1,-1,29,31,33,35,37,39,41,43,45,47,49,-1,51,53,55,57,-1,-1,59,61,63,-1,-1,-1,-1,65,67,-1,69,71,73,75,77,-1,-1,-1,-1,-1,-1,-1,-1,-1,-1,-1,-1,-1,-1,-1,-1,-1,-1,-1,-1,-1,-1,-1,-1,-1,-1,-1,-1],"loss_changes":[1.9850452E2,3.6173397E1,9.75708E1,8.165134E0,2.6519985E1,2.6263084E0,8.025598E1,1.6514345E0,4.2667084E0,8.48032E0,1.7396732E1,0E0,1.3431854E0,2.1452862E1,5.060205E1,0E0,0E0,0E0,4.710449E0,8.80888E0,2.8315167E0,7.519722E0,1.1940142E1,8.4171486E-1,1.1120856E0,3.0387497E0,9.0344715E0,9.624678E0,4.7440308E1,0E0,2.1366081E0,1.0433119E1,4.8942795E0,1.8218985E0,0E0,0E0,6.389162E0,1.1372377E1,5.847273E0,0E0,0E0,0E0,0E0,2.5992393E0,1.7886816E0,0E0,9.795963E0,9.903852E0,3.6070037E0,2.1959162E1,4.5397095E1,0E0,0E0,0E0,0E0,0E0,0E0,0E0,0E0,0E0,0E0,0E0,0E0,0E0,0E0,0E0,0E0,0E0,0E0,0E0,0E0,0E0,0E0,0E0,0E0,0E0,0E0,0E0,0E0],"parents":[2147483647,0,0,1,1,2,2,3,3,4,4,5,5,6,6,7,7,8,8,9,9,10,10,12,12,13,13,14,14,18,18,19,19,20,20,21,21,22,22,23,23,24,24,25,25,26,26,27,27,28,28,30,30,31,31,32,32,33,33,36,36,37,37,38,38,43,43,44,44,46,46,47,47,48,48,49,49,50,50],"right_children":[2,4,6,8,10,12,14,16,18,20,22,-1,24,26,28,-1,-1,-1,30,32,34,36,38,40,42,44,46,48,50,-1,52,54,56,58,-1,-1,60,62,64,-1,-1,-1,-1,66,68,-1,70,72,74,76,78,-1,-1,-1,-1,-1,-1,-1,-1,-1,-1,-1,-1,-1,-1,-1,-1,-1,-1,-1,-1,-1,-1,-1,-1,-1,-1,-1,-1],"split_conditions":[1.2539085E-2,4.568883E-2,1.7357108E-1,4.302285E-2,8.373686E-3,9.69332E-2,3.2412016E-1,4.1079696E-2,4.4874445E-2,6.494345E-2,5.2675385E-2,5.944599E-2,5.1629838E-2,2.4623416E-2,4.1761674E-2,-5.0886523E-2,5.7332035E-2,-3.5642274E-2,1.3922575E-1,4.061901E-2,2.1702291E-2,3.1038154E-2,2.9177364E-2,7.776106E-2,7.433864E-2,7.1879745E-2,4.4184364E-2,1.4327602E-1,7.605831E-2,-3.5284642E-2,5.2184947E-2,2.6996102E-2,3.9329622E-2,5.907125E-2,-3.9059095E-2,-4.9330086E-2,4.3491233E-2,6.68702E-2,4.936144E-2,-6.442729E-2,1.3526891E-2,5.9108444E-2,-3.967913E-2,5.5372834E-2,2.6031269E-2,-5.7661053E-2,4.751172E-2,3.2061346E-2,1.6089905E-2,5.008298E-2,7.229009E-2,1.5714608E-1,9.312235E-3,-1.880265E-2,1.4529662E-1,-5.5557918E-2,6.6912234E-2,1.2880419E-1,4.6742978E-4,-4.503955E-2,1.2676463E-1,8.143736E-2,-2.307563E-2,5.1438898E-2,-3.7680484E-2,-5.955351E-2,5.9601974E-2,-3.393986E-2,1.0163821E-1,-3.2738026E-2,9.99911E-2,-4.4438776E-2,7.968176E-2,9.123202E-2,-4.3267947E-2,3.607894E-2,-3.88369E-2,-2.1446913E-2,6.6773824E-2],"split_indices":[8321,6967,5381,8610,2066,6493,6438,553,7444,1772,2862,0,497,5937,6859,0,0,0,5766,6293,7114,8382,2861,4626,3619,7760,3942,4476,587,0,8382,5582,2468,8972,0,0,4042,6385,8575,0,0,0,0,2510,385,0,8523,7988,2532,5495,362,0,0,0,0,0,0,0,0,0,0,0,0,0,0,0,0,0,0,0,0,0,0,0,0,0,0,0,0],"split_type":[0,0,0,0,0,0,0,0,0,0,0,0,0,0,0,0,0,0,0,0,0,0,0,0,0,0,0,0,0,0,0,0,0,0,0,0,0,0,0,0,0,0,0,0,0,0,0,0,0,0,0,0,0,0,0,0,0,0,0,0,0,0,0,0,0,0,0,0,0,0,0,0,0,0,0,0,0,0,0],"sum_hessian":[4.5570503E3,4.9860703E2,4.058443E3,2.5639252E1,4.7296777E2,7.381349E1,3.9846296E3,4.4609804E0,2.117827E1,2.2595303E2,2.4701476E2,1.1159265E0,7.269757E1,1.1294602E2,3.8716836E3,3.3163528E0,1.1446277E0,1.1363139E0,2.0041956E1,2.1958601E2,6.3670077E0,2.259215E1,2.244226E2,7.009297E1,2.6045973E0,7.913871E1,3.3807316E1,7.990632E1,3.7917773E3,1.1238111E0,1.8918146E1,2.9288506E1,1.9029752E2,4.9072533E0,1.4597545E0,2.9446015E0,1.9647549E1,1.7154668E2,5.2875927E1,6.900231E1,1.0906553E0,1.1205869E0,1.4840105E0,7.689024E1,2.2484622E0,6.6670966E0,2.7140219E1,6.9253784E1,1.0652534E1,3.5371436E2,3.438063E3,1.7749146E1,1.1689996E0,2.5756853E1,3.531654E0,1.8777956E2,2.5179641E0,3.4223607E0,1.4848924E0,1.9449294E0,1.7702618E1,1.0152806E1,1.6139388E2,4.4858208E1,8.017718E0,7.577629E1,1.1139512E0,1.0794452E0,1.1690168E0,6.988043E0,2.0152176E1,6.3025047E1,6.2287364E0,8.788583E0,1.8639506E0,3.0978714E2,4.392723E1,5.8920197E1,3.3791428E3],"tree_param":{"num_deleted":"0","num_feature":"9286","num_nodes":"79","size_leaf_vector":"1"}},{"base_weights":[-2.2064494E-1,7.7970615E-3,-3.8321507E-1,2.0586902E-1,-1.5167096E-1,-4.1965324E-1,1.7885555E-1,-8.714138E-2,4.0417185E-1,-3.341455E-1,1.663918E-3,9.951334E-1,-4.3152732E-1,5.205436E-1,-3.4231406E-1,-3.1213748E-1,1.24891914E-1,-8.0641575E-2,5.067776E-1,2.0118865E-1,-3.9468622E-1,-9.982546E-2,3.3290842E-1,5.7214364E-2,1.3340039E0,7.364344E-2,-4.5809093E-1,8.1079036E-1,-4.979738E-3,9.992707E-1,-4.7292933E-1,-3.5549912E-1,1.2468665E-1,1.0662459E0,3.4164164E-2,-2.2188693E-1,6.2543505E-1,1.06202364E-1,6.586042E-1,6.257656E-1,-1.4907673E-1,-4.6154746E-1,1.1852512E-2,-1.5798856E-1,6.164941E-1,9.761129E-1,1.8650277E-1,-3.521246E-1,1.0089251E-1,-4.057103E-2,1.5652884E0,1.1119663E0,-5.057337E-2,-5.279401E-1,-2.4579799E-1,1.6276796E0,5.867744E-1,1.1909597E0,-1.869045E-1,-3.936137E-2,1.5625528E-1,-5.695644E-1,4.142718E-1,-3.959399E-2,1.4139287E-1,1.3214633E-1,-4.3812018E-2,-8.935754E-3,5.505541E-2,7.898305E-2,-3.207099E-2,-2.4855409E-2,1.1660458E-1,-8.433603E-3,8.387224E-2,7.384002E-2,-2.9911844E-3,1.0047834E-1,-4.0300794E-2,-2.9921114E-2,8.642986E-2,8.308094E-4,-5.027325E-2,1.0003209E-1,-1.1908314E-2,5.3877175E-2,-1.9984048E-2,7.497599E-2,-4.969893E-2,1.150996E-1,-4.6257902E-2,1.1856325E-1,9.818685E-3,1.12001775E-2,-5.0912257E-2,1.6974108E-1,1.0093979E-2,3.351229E-2,1.6842915E-1,-1.252306E-2,1.5882584E-1,6.0804248E-2,-5.3915303E-2,-2.910274E-2,7.3898636E-2,1.7599036E-1,1.3353196E-2,-4.3856084E-2,7.493083E-2,1.2824803E-2,1.4836706E-1,4.3192174E-2,-3.8256757E-2,-6.249254E-2,1.8269189E-2,1.0140803E-1,-4.5578353E-2],"categories":[],"categories_nodes":[],"categories_segments":[],"categories_sizes":[],"default_left":[0,0,1,1,1,0,1,1,1,0,1,1,0,1,0,1,0,1,0,0,1,1,0,1,0,0,1,0,0,0,1,1,0,0,1,0,1,1,1,0,1,0,0,0,0,1,0,0,0,0,1,1,1,0,1,1,0,0,0,0,0,1,0,0,0,0,0,0,0,0,0,0,0,0,0,0,0,0,0,0,0,0,0,0,0,0,0,0,0,0,0,0,0,0,0,0,0,0,0,0,0,0,0,0,0,0,0,0,0,0,0,0,0,0,0,0,0],"id":6,"left_children":[1,3,5,7,9,11,13,15,17,19,21,23,25,27,29,31,33,35,37,39,41,43,45,47,49,51,53,55,57,59,61,63,-1,65,67,69,71,73,75,77,79,81,83,85,87,89,91,93,-1,-1,95,97,99,101,103,105,107,109,111,-1,-1,113,115,-1,-1,-1,-1,-1,-1,-1,-1,-1,-1,-1,-1,-1,-1,-1,-1,-1,-1,-1,-1,-1,-1,-1,-1,-1,-1,-1,-1,-1,-1,-1,-1,-1,-1,-1,-1,-1,-1,-1,-1,-1,-1,-1,-1,-1,-1,-1,-1,-1,-1,-1,-1,-1,-1],"loss_changes":[1.6088887E2,5.695382E1,5.1911804E1,4.676332E1,2.7950443E1,4.0364716E1,2.7743101E1,1.5563392E1,2.390786E1,1.4862404E1,1.8314693E1,6.3082733E0,3.1677582E1,1.4325457E1,1.1319441E1,1.1135474E1,1.4333049E1,8.582786E0,2.402137E1,7.0836444E0,1.1153385E1,1.7472435E1,1.1849818E1,2.839298E0,6.554537E0,1.5361256E1,3.309268E1,1.0114647E1,7.707047E0,5.1759176E0,5.1303005E0,1.1627165E1,0E0,6.2448044E0,9.903404E0,7.3812304E0,7.0822244E0,1.5432926E1,1.5793175E1,8.765269E0,4.3001547E0,6.820122E0,7.7422476E0,1.1378618E1,5.0502853E0,6.4335575E0,9.176488E0,4.359231E-1,0E0,0E0,2.380787E0,5.092182E0,1.3283298E1,2.1789703E1,2.5003685E1,2.2256012E0,8.500666E0,1.2647767E0,3.8851533E0,0E0,0E0,2.2756138E0,3.690557E0,0E0,0E0,0E0,0E0,0E0,0E0,0E0,0E0,0E0,0E0,0E0,0E0,0E0,0E0,0E0,0E0,0E0,0E0,0E0,0E0,0E0,0E0,0E0,0E0,0E0,0E0,0E0,0E0,0E0,0E0,0E0,0E0,0E0,0E0,0E0,0E0,0E0,0E0,0E0,0E0,0E0,0E0,0E0,0E0,0E0,0E0,0E0,0E0,0E0,0E0,0E0,0E0,0E0,0E0],"parents":[2147483647,0,0,1,1,2,2,3,3,4,4,5,5,6,6,7,7,8,8,9,9,10,10,11,11,12,12,13,13,14,14,15,15,16,16,17,17,18,18,19,19,20,20,21,21,22,22,23,23,24,24,25,25,26,26,27,27,28,28,29,29,30,30,31,31,33,33,34,34,35,35,36,36,37,37,38,38,39,39,40,40,41,41,42,42,43,43,44,44,45,45,46,46,47,47,50,50,51,51,52,52,53,53,54,54,55,55,56,56,57,57,58,58,61,61,62,62],"right_children":[2,4,6,8,10,12,14,16,18,20,22,24,26,28,30,32,34,36,38,40,42,44,46,48,50,52,54,56,58,60,62,64,-1,66,68,70,72,74,76,78,80,82,84,86,88,90,92,94,-1,-1,96,98,100,102,104,106,108,110,112,-1,-1,114,116,-1,-1,-1,-1,-1,-1,-1,-1,-1,-1,-1,-1,-1,-1,-1,-1,-1,-1,-1,-1,-1,-1,-1,-1,-1,-1,-1,-1,-1,-1,-1,-1,-1,-1,-1,-1,-1,-1,-1,-1,-1,-1,-1,-1,-1,-1,-1,-1,-1,-1,-1,-1,-1,-1],"split_conditions":[5.1863633E-2,1.7300362E-2,2.6596379E-2,1.37962755E-2,4.061667E-2,5.244826E-2,2.4663243E-2,2.072992E-2,6.927669E-2,5.1099354E-1,2.1807473E-2,1.111331E-2,1.7358766E-1,1.5110444E-2,7.611624E-2,6.8708606E-2,3.4893468E-2,5.822877E-2,1.2467517E-1,4.3244533E-2,2.3769394E-2,5.094024E-2,5.6475516E-2,2.0470383E-2,2.9396204E-2,4.4447485E-2,2.0278733E-2,6.6648565E-2,3.667407E-2,3.557718E-2,7.500814E-2,6.323296E-2,1.2468665E-1,4.1158147E-2,1.8844659E-2,4.144666E-2,1.4127344E-2,3.815131E-2,3.286712E-2,6.559261E-2,5.153806E-2,4.8299078E-2,7.3618084E-2,5.598094E-2,4.7908857E-2,4.8249748E-2,3.2842185E-2,2.345668E-2,1.0089251E-1,-4.057103E-2,4.061538E-2,3.2724753E-2,4.3621246E-2,4.448794E-2,5.966989E-2,8.592931E-2,1.8630479E-2,7.053923E-2,8.89451E-2,-3.936137E-2,1.5625528E-1,2.2973068E-2,3.2627005E-2,-3.959399E-2,1.4139287E-1,1.3214633E-1,-4.3812018E-2,-8.935754E-3,5.505541E-2,7.898305E-2,-3.207099E-2,-2.4855409E-2,1.1660458E-1,-8.433603E-3,8.387224E-2,7.384002E-2,-2.9911844E-3,1.0047834E-1,-4.0300794E-2,-2.9921114E-2,8.642986E-2,8.308094E-4,-5.027325E-2,1.0003209E-1,-1.1908314E-2,5.3877175E-2,-1.9984048E-2,7.497599E-2,-4.969893E-2,1.150996E-1,-4.6257902E-2,1.1856325E-1,9.818685E-3,1.12001775E-2,-5.0912257E-2,1.6974108E-1,1.0093979E-2,3.351229E-2,1.6842915E-1,-1.252306E-2,1.5882584E-1,6.0804248E-2,-5.3915303E-2,-2.910274E-2,7.3898636E-2,1.7599036E-1,1.3353196E-2,-4.3856084E-2,7.493083E-2,1.2824803E-2,1.4836706E-1,4.3192174E-2,-3.8256757E-2,-6.249254E-2,1.8269189E-2,1.0140803E-1,-4.5578353E-2],"split_indices":[8031,8388,5187,7974,3297,1919,3559,8199,8523,4173,4911,7974,969,7392,2135,1046,2090,8105,2528,5188,6566,963,1541,2590,1923,8044,4919,4507,4002,5231,8514,5971,0,2492,3621,7444,7902,4792,6564,1891,1926,6344,7740,2739,2861,2511,5796,386,0,0,6622,7974,6625,2213,2428,4205,385,1,2531,0,0,4673,7310,0,0,0,0,0,0,0,0,0,0,0,0,0,0,0,0,0,0,0,0,0,0,0,0,0,0,0,0,0,0,0,0,0,0,0,0,0,0,0,0,0,0,0,0,0,0,0,0,0,0,0,0,0,0],"split_type":[0,0,0,0,0,0,0,0,0,0,0,0,0,0,0,0,0,0,0,0,0,0,0,0,0,0,0,0,0,0,0,0,0,0,0,0,0,0,0,0,0,0,0,0,0,0,0,0,0,0,0,0,0,0,0,0,0,0,0,0,0,0,0,0,0,0,0,0,0,0,0,0,0,0,0,0,0,0,0,0,0,0,0,0,0,0,0,0,0,0,0,0,0,0,0,0,0,0,0,0,0,0,0,0,0,0,0,0,0,0,0,0,0,0,0,0,0],"sum_hessian":[4.331128E3,1.8011382E3,2.52999E3,8.03204E2,9.9793414E2,2.3761982E3,1.5379175E2,3.2441382E2,4.787902E2,4.551311E2,5.4280304E2,1.9087887E1,2.3571104E3,9.289159E1,6.090016E1,1.571666E2,1.6724721E2,8.366867E1,3.9512152E2,4.600518E1,4.0912592E2,4.1603384E2,1.2676919E2,5.376303E0,1.3711583E1,1.1766459E2,2.2394458E3,5.9491547E1,3.340004E1,4.813093E0,5.6087067E1,1.5366458E2,3.5020065E0,1.3757094E1,1.5349011E2,7.0292854E1,1.3375814E1,1.0906551E2,2.86056E2,2.044096E1,2.556422E1,3.5122632E2,5.7899612E1,3.855109E2,3.0522938E1,2.2454142E1,1.0431505E2,4.199899E0,1.176404E0,1.5204728E0,1.219111E1,1.1722758E1,1.0594183E2,1.6839135E3,5.555322E2,1.1454828E1,4.8036716E1,3.677619E0,2.972242E1,1.4726748E0,3.3404183E0,5.0900898E1,5.1861706E0,1.509899E2,2.674683E0,1.1865654E1,1.8914404E0,1.2452936E2,2.8960762E1,5.6328797E0,6.465997E1,5.3182287E0,8.057586E0,8.725434E1,2.181117E1,2.5628162E2,2.9774378E1,1.4954708E1,5.486252E0,2.2879322E1,2.684898E0,2.8369864E1,3.2285645E2,5.995814E0,5.1903797E1,2.1171398E1,3.643395E2,2.7552061E1,2.970876E0,2.0198805E1,2.2553363E0,7.4627757E0,9.685227E1,1.134027E0,3.0658722E0,1.1036201E1,1.1549097E0,5.6454606E0,6.0772977E0,1.0220926E2,3.732572E0,1.5938678E1,1.6679749E3,5.318115E2,2.372069E1,1.03601465E1,1.0946816E0,6.3403997E0,4.169632E1,1.1047759E0,2.572843E0,6.8500843E0,2.2872335E1,4.7569378E1,3.331518E0,2.9718604E0,2.2143102E0],"tree_param":{"num_deleted":"0","num_feature":"9286","num_nodes":"117","size_leaf_vector":"1"}},{"base_weights":[-5.488302E-1,3.58317E-1,-5.6593007E-1,7.154137E-1,-2.4283433E-1,-5.7787955E-1,1.1220155E-1,9.8341614E-1,-4.8778534E-1,-5.1862407E-1,1.1669259E0,-5.863721E-1,3.4440592E-2,-2.0095894E-1,1.0837551E0,1.1597723E0,-3.6565515E-1,1.3797725E-2,-5.8224406E-2,-5.9217167E-1,5.744886E-2,1.4345479E-1,1.0853888E-2,6.5996134E-1,-5.8963066E-1,-2.5797316E-1,6.472337E-1,-3.6640692E-1,1.1135374E0,1.2372493E0,-3.8867142E-2,-4.7771927E-2,1.2986672E0,1.103465E-2,-5.1443137E-2,1.275263E-2,-6.311488E-2,-7.8485236E-2,1.3460352E-1,7.6448953E-1,-5.9246916E-1,1.3700657E-1,-3.7272245E-1,8.568542E-1,-4.763081E-2,9.040513E-2,-4.3624955E-1,2.5511941E-2,1.4096954E-1,-3.5641734E-2,1.3783649E0,1.4143872E-1,-1.8112533E-2,-5.2967906E-2,9.975066E-2,4.300687E-4,1.5394269E-1,2.3528583E-2,-5.9660055E-2,-4.9645506E-2,1.0923027E-1,-4.0957987E-2,1.0188104E-1,4.710592E-2,-5.0814796E-2,1.5238228E-1,8.993498E-4],"categories":[],"categories_nodes":[],"categories_segments":[],"categories_sizes":[],"default_left":[0,1,1,1,1,1,1,1,0,1,0,0,0,1,1,0,0,0,0,0,0,0,0,0,0,0,0,0,0,0,0,0,1,0,0,0,0,0,0,0,0,0,0,0,0,0,0,0,0,0,1,0,0,0,0,0,0,0,0,0,0,0,0,0,0,0,0],"id":7,"left_children":[1,3,5,7,9,11,13,15,17,19,21,23,25,27,29,31,33,-1,-1,35,-1,-1,-1,37,39,41,43,45,47,49,-1,-1,51,-1,-1,-1,-1,53,-1,55,57,-1,59,61,-1,-1,63,-1,-1,-1,65,-1,-1,-1,-1,-1,-1,-1,-1,-1,-1,-1,-1,-1,-1,-1,-1],"loss_changes":[6.590259E1,1.7126793E1,3.3753784E1,1.6537144E1,1.2337676E1,2.1265747E1,2.237571E1,1.019223E1,6.560371E-1,2.424954E0,1.3299689E0,1.6755249E1,1.0351007E1,1.2569249E1,4.5284233E0,8.933315E0,4.4675404E-1,0E0,0E0,7.758608E-1,0E0,0E0,0E0,5.668631E0,1.5903564E1,7.831917E0,4.7992015E0,4.868247E0,1.2925615E0,4.192341E0,0E0,0E0,6.0717506E0,0E0,0E0,0E0,0E0,3.5544846E0,0E0,5.2040625E0,1.38602295E1,0E0,7.321001E0,3.7133703E0,0E0,0E0,3.401061E0,0E0,0E0,0E0,3.038601E0,0E0,0E0,0E0,0E0,0E0,0E0,0E0,0E0,0E0,0E0,0E0,0E0,0E0,0E0,0E0,0E0],"parents":[2147483647,0,0,1,1,2,2,3,3,4,4,5,5,6,6,7,7,8,8,9,9,10,10,11,11,12,12,13,13,14,14,15,15,16,16,19,19,23,23,24,24,25,25,26,26,27,27,28,28,29,29,32,32,37,37,39,39,40,40,42,42,43,43,46,46,50,50],"right_children":[2,4,6,8,10,12,14,16,18,20,22,24,26,28,30,32,34,-1,-1,36,-1,-1,-1,38,40,42,44,46,48,50,-1,-1,52,-1,-1,-1,-1,54,-1,56,58,-1,60,62,-1,-1,64,-1,-1,-1,66,-1,-1,-1,-1,-1,-1,-1,-1,-1,-1,-1,-1,-1,-1,-1,-1],"split_conditions":[4.084684E-2,1.701543E-2,3.4751758E-2,2.5707005E-2,3.0759754E-2,7.5345024E-2,1.6205382E-2,2.4361774E-2,2.9277842E-2,3.2221258E-2,3.0956034E-2,9.6460044E-2,5.4663025E-2,3.8711E-2,3.267596E-2,2.7323682E-2,1.3181889E-1,1.3797725E-2,-5.8224406E-2,2.9430937E-2,5.744886E-2,1.4345479E-1,1.0853888E-2,2.9959347E-2,4.039271E-2,5.0252993E-2,3.9250884E-2,1.915936E-1,3.331143E-2,1.4856612E-2,-3.8867142E-2,-4.7771927E-2,2.7537012E-2,1.103465E-2,-5.1443137E-2,1.275263E-2,-6.311488E-2,8.120617E-2,1.3460352E-1,1.1722905E-1,5.311024E-2,1.3700657E-1,1.6024575E-1,6.063397E-2,-4.763081E-2,9.040513E-2,1.8758649E-2,2.5511941E-2,1.4096954E-1,-3.5641734E-2,4.1415818E-2,1.4143872E-1,-1.8112533E-2,-5.2967906E-2,9.975066E-2,4.300687E-4,1.5394269E-1,2.3528583E-2,-5.9660055E-2,-4.9645506E-2,1.0923027E-1,-4.0957987E-2,1.0188104E-1,4.710592E-2,-5.0814796E-2,1.5238228E-1,8.993498E-4],"split_indices":[6859,455,2008,7489,4443,8486,4424,678,5061,1876,33,1259,1094,7740,494,6293,518,0,0,210,0,0,0,2202,3681,6775,8388,7187,5336,6405,0,0,5437,0,0,0,0,4577,0,1519,5392,0,2528,6293,0,0,6520,0,0,0,7070,0,0,0,0,0,0,0,0,0,0,0,0,0,0,0,0],"split_type":[0,0,0,0,0,0,0,0,0,0,0,0,0,0,0,0,0,0,0,0,0,0,0,0,0,0,0,0,0,0,0,0,0,0,0,0,0,0,0,0,0,0,0,0,0,0,0,0,0,0,0,0,0,0,0,0,0,0,0,0,0,0,0,0,0,0,0],"sum_hessian":[4.234392E3,7.7973E1,4.156419E3,4.879667E1,2.917633E1,4.0845913E3,7.182747E1,4.005698E1,8.73969E0,2.493119E1,4.2451406E0,4.0287573E3,5.583402E1,5.49187E1,1.6908766E1,3.555005E1,4.5069313E0,1.0858071E0,7.653883E0,2.378888E1,1.1423098E0,3.1046853E0,1.1404554E0,9.980399E0,4.018777E3,3.818964E1,1.764438E1,4.9419777E1,5.4989214E0,1.5457146E1,1.4516201E0,2.5889053E0,3.2961143E1,1.1347294E0,3.3722022E0,1.1054461E0,2.2683434E1,5.233255E0,4.747144E0,7.8451796E0,4.010932E3,1.7942041E0,3.6395435E1,1.5070098E1,2.5742817E0,1.9528446E0,4.7466934E1,1.8879888E0,3.6109326E0,1.1332506E0,1.43238945E1,3.0611515E1,2.3496256E0,4.0448604E0,1.1883948E0,4.4678807E0,3.3772993E0,1.9641449E1,3.9912903E3,3.4170593E1,2.22484E0,1.5353446E0,1.3534754E1,3.077628E0,4.4389305E1,1.2846518E1,1.4773775E0],"tree_param":{"num_deleted":"0","num_feature":"9286","num_nodes":"67","size_leaf_vector":"1"}},{"base_weights":[2.2336647E-1,-1.5779543E-1,4.717115E-1,1.1721343E0,-2.066027E-1,7.842126E-1,1.6597867E-1,1.290794E0,-2.3039448E-1,1.3090995E-1,-3.539471E-1,8.888631E-1,1.1115104E-1,1.0780675E-1,1.1892836E0,1.3338546E0,-3.902048E-2,-5.4530468E-2,5.3827923E-2,-4.7208542E-1,2.6490664E-1,-3.9593133E-1,4.1773936E-1,1.9195905E-1,9.7080904E-1,1.1691775E0,-1.4359231E-1,3.356028E-4,7.0985633E-1,-1.286921E-1,1.3370576E0,-5.660705E-3,1.3752792E0,1.2498335E-1,-5.2104753E-1,3.5458454E-1,-3.8791755E-1,-4.2184588E-1,3.9972788E-1,-3.847729E-1,9.150623E-1,1.0005322E0,-1.2311436E-3,1.1376624E0,5.635716E-1,1.318383E0,-1.1506397E-1,1.6248663E-1,-3.380583E-1,2.72961E-1,-1.6074009E-1,1.3680763E0,4.1212603E-1,-5.730163E-2,7.235506E-1,1.3976754E0,-1.9998966E-1,1.4355879E-1,4.4896595E-2,1.0831083E-1,-5.612283E-2,5.4677006E-2,-3.0663526E-3,4.1472998E-2,-5.3798717E-2,-4.431322E-2,3.9405752E-2,2.0166049E-2,1.5046914E-1,-4.9508873E-2,9.17319E-2,1.2618783E-1,3.023013E-2,1.1950667E-1,-2.5881564E-2,3.245408E-2,-4.0070664E-2,1.22149765E-1,6.344711E-2,4.015066E-2,9.7845815E-2,1.4241038E-1,-4.2718887E-2,5.2842546E-2,-4.9461085E-2,-5.4386403E-2,3.4254365E-2,-4.5305755E-2,5.126668E-2,5.006481E-2,-1.5686695E-2,-2.3985697E-2,5.4791506E-2,-4.3681998E-2,1.4247791E-1,-1.4745915E-2,6.392337E-2,1.02327004E-1,9.169925E-3,-1.4824082E-2,1.4509077E-1,8.469237E-3,-3.891295E-2],"categories":[],"categories_nodes":[],"categories_segments":[],"categories_sizes":[],"default_left":[0,0,1,1,1,1,1,1,1,0,0,0,0,1,0,0,0,0,0,0,1,1,0,0,1,1,1,1,0,1,0,0,1,0,0,1,1,1,1,1,0,1,0,1,0,1,0,0,0,1,1,0,0,0,1,0,0,0,0,0,0,0,0,0,0,0,0,0,0,0,0,0,0,0,0,0,0,0,0,0,0,0,0,0,0,0,0,0,0,0,0,0,0,0,0,0,0,0,0,0,0,0,0],"id":8,"left_children":[1,3,5,7,9,11,13,15,17,19,21,23,25,27,29,31,-1,-1,-1,33,35,37,39,41,43,45,47,49,51,53,55,-1,57,-1,59,61,63,65,67,69,71,73,75,77,79,81,83,85,87,89,91,93,95,-1,97,99,101,-1,-1,-1,-1,-1,-1,-1,-1,-1,-1,-1,-1,-1,-1,-1,-1,-1,-1,-1,-1,-1,-1,-1,-1,-1,-1,-1,-1,-1,-1,-1,-1,-1,-1,-1,-1,-1,-1,-1,-1,-1,-1,-1,-1,-1,-1],"loss_changes":[4.2883966E2,1.1628139E2,2.619276E2,1.0854317E1,8.584426E1,9.542297E1,8.247896E1,4.7649155E0,1.696691E0,4.2546494E1,3.908368E1,6.683148E1,4.9660458E1,8.503027E1,1.4690521E1,3.383995E0,0E0,0E0,0E0,8.729401E0,2.5323433E1,2.366957E1,2.5283714E1,1.9483082E1,7.069177E1,7.000538E0,8.916921E0,4.9056004E1,3.844568E1,3.605911E0,6.5329514E0,0E0,2.4714966E0,0E0,6.6585827E0,2.8060421E1,6.5392976E0,1.9353607E1,7.6770926E0,3.9884036E0,7.8776665E0,6.201948E0,1.3360401E1,3.0598328E1,2.0255775E1,6.5326653E0,1.3946427E0,7.628931E0,9.170978E0,4.068245E1,3.950242E1,6.9230957E0,1.769461E1,0E0,5.368023E-1,5.5390472E0,2.1717697E-1,0E0,0E0,0E0,0E0,0E0,0E0,0E0,0E0,0E0,0E0,0E0,0E0,0E0,0E0,0E0,0E0,0E0,0E0,0E0,0E0,0E0,0E0,0E0,0E0,0E0,0E0,0E0,0E0,0E0,0E0,0E0,0E0,0E0,0E0,0E0,0E0,0E0,0E0,0E0,0E0,0E0,0E0,0E0,0E0,0E0,0E0],"parents":[2147483647,0,0,1,1,2,2,3,3,4,4,5,5,6,6,7,7,8,8,9,9,10,10,11,11,12,12,13,13,14,14,15,15,19,19,20,20,21,21,22,22,23,23,24,24,25,25,26,26,27,27,28,28,29,29,30,30,32,32,34,34,35,35,36,36,37,37,38,38,39,39,40,40,41,41,42,42,43,43,44,44,45,45,46,46,47,47,48,48,49,49,50,50,51,51,52,52,54,54,55,55,56,56],"right_children":[2,4,6,8,10,12,14,16,18,20,22,24,26,28,30,32,-1,-1,-1,34,36,38,40,42,44,46,48,50,52,54,56,-1,58,-1,60,62,64,66,68,70,72,74,76,78,80,82,84,86,88,90,92,94,96,-1,98,100,102,-1,-1,-1,-1,-1,-1,-1,-1,-1,-1,-1,-1,-1,-1,-1,-1,-1,-1,-1,-1,-1,-1,-1,-1,-1,-1,-1,-1,-1,-1,-1,-1,-1,-1,-1,-1,-1,-1,-1,-1,-1,-1,-1,-1,-1,-1],"split_conditions":[1.2092689E-1,1.2525104E-1,5.030684E-2,6.1937734E-2,6.75216E-3,2.478418E-2,3.6021467E-2,3.984805E-2,2.9413318E-2,1.7215906E-1,5.5200857E-1,3.8926624E-2,6.142164E-2,7.560507E-2,9.267772E-2,1.8443538E-2,-3.902048E-2,-5.4530468E-2,5.3827923E-2,1.8328212E-2,1.5925046E-2,5.9480105E-2,9.6269235E-2,2.1006016E-2,2.554125E-2,3.2413606E-2,2.3526007E-2,5.902724E-3,1.12127975E-1,4.0695522E-2,3.7995055E-1,-5.660705E-3,6.665328E-2,1.2498335E-1,6.638181E-2,1.5019775E-2,2.1542456E-2,3.9599232E-2,2.1006787E-2,8.340015E-2,7.514269E-2,2.5211943E-2,2.600738E-2,3.534482E-2,5.2785125E-2,2.4459496E-2,2.5775975E-2,2.9637508E-2,4.751142E-2,4.4102218E-2,3.469097E-2,3.1484082E-2,4.963837E-2,-5.730163E-2,2.8725721E-2,3.721886E-2,1.4762495E-1,1.4355879E-1,4.4896595E-2,1.0831083E-1,-5.612283E-2,5.4677006E-2,-3.0663526E-3,4.1472998E-2,-5.3798717E-2,-4.431322E-2,3.9405752E-2,2.0166049E-2,1.5046914E-1,-4.9508873E-2,9.17319E-2,1.2618783E-1,3.023013E-2,1.1950667E-1,-2.5881564E-2,3.245408E-2,-4.0070664E-2,1.22149765E-1,6.344711E-2,4.015066E-2,9.7845815E-2,1.4241038E-1,-4.2718887E-2,5.2842546E-2,-4.9461085E-2,-5.4386403E-2,3.4254365E-2,-4.5305755E-2,5.126668E-2,5.006481E-2,-1.5686695E-2,-2.3985697E-2,5.4791506E-2,-4.3681998E-2,1.4247791E-1,-1.4745915E-2,6.392337E-2,1.02327004E-1,9.169925E-3,-1.4824082E-2,1.4509077E-1,8.469237E-3,-3.891295E-2],"split_indices":[8031,5177,8321,3091,7974,6967,3773,7213,9229,3114,8321,8514,2116,5726,26,5520,0,0,0,6566,511,186,4155,8199,9229,5194,1926,7974,5886,3062,2954,0,7567,0,1598,5250,959,2963,3510,6807,6675,6789,2861,4061,2066,1979,5416,2428,8321,3297,3264,4515,4919,0,8972,5070,1772,0,0,0,0,0,0,0,0,0,0,0,0,0,0,0,0,0,0,0,0,0,0,0,0,0,0,0,0,0,0,0,0,0,0,0,0,0,0,0,0,0,0,0,0,0,0],"split_type":[0,0,0,0,0,0,0,0,0,0,0,0,0,0,0,0,0,0,0,0,0,0,0,0,0,0,0,0,0,0,0,0,0,0,0,0,0,0,0,0,0,0,0,0,0,0,0,0,0,0,0,0,0,0,0,0,0,0,0,0,0,0,0,0,0,0,0,0,0,0,0,0,0,0,0,0,0,0,0,0,0,0,0,0,0,0,0,0,0,0,0,0,0,0,0,0,0,0,0,0,0,0,0],"sum_hessian":[4.528546E3,1.7866879E3,2.741858E3,6.2433964E1,1.7242539E3,1.3551464E3,1.3867115E3,5.7637276E1,4.796688E0,5.240217E2,1.2002322E3,1.1725177E3,1.8262872E2,1.3131671E3,7.3544395E1,5.6399067E1,1.238207E0,3.608818E0,1.1878701E0,9.481662E1,4.292051E2,1.1387638E3,6.1468403E1,1.2371705E2,1.0488007E3,3.4742584E1,1.4788612E2,1.1151106E3,1.980565E2,7.427622E0,6.6116776E1,1.621031E0,5.4778038E1,1.9434106E0,9.287321E1,3.7776825E2,5.1436855E1,1.1032992E3,3.5464546E1,2.3604681E1,3.786372E1,2.3052929E1,1.00664116E2,7.427056E2,3.06095E2,3.1102463E1,3.6401236E0,5.7518913E1,9.036722E1,4.1389185E2,7.012188E2,6.056495E1,1.3749156E2,5.097587E0,2.3300345E0,6.3695442E1,2.421333E0,5.091348E1,3.8645582E0,1.635182E0,9.123802E1,2.5175705E2,1.260112E2,7.824412E0,4.3612446E1,1.0756921E3,2.7607098E1,3.1076511E1,4.388036E0,2.2332409E1,1.2722723E0,2.3502329E1,1.436139E1,2.001258E1,3.0403488E0,5.5550396E1,4.511372E1,6.354137E2,1.0729192E2,2.2152832E2,8.4566696E1,2.9499952E1,1.6025087E0,1.2049611E0,2.4351623E0,1.1273454E1,4.6245457E1,8.001799E1,1.0349224E1,2.7045993E2,1.4343192E2,6.313897E2,6.9829124E1,1.6405698E0,5.8924377E1,3.9793205E1,9.769835E1,1.1602092E0,1.1698254E0,2.0608785E0,6.1634563E1,1.1869818E0,1.2343512E0],"tree_param":{"num_deleted":"0","num_feature":"9286","num_nodes":"103","size_leaf_vector":"1"}},{"base_weights":[4.3675613E-1,-1.24712616E-1,4.9799997E-1,8.1544656E-1,-1.9676848E-1,-5.652364E-1,5.162855E-1,9.635074E-1,-5.0051935E-2,-2.8340432E-1,3.6928546E-1,-5.918035E-1,5.8019053E-2,5.3345823E-1,-5.0668955E-1,1.0712453E0,-4.332752E-2,5.884757E-1,-3.3833423E-1,1.2897162E-1,2.6872084E-1,-6.186093E-1,1.6200721E-1,3.782964E-1,6.0624033E-1,-5.61322E-1,9.1667585E-2,1.1734225E0,-4.1515574E-2,7.590592E-2,1.1505281E0,5.800776E-1,-3.8712335E-1,-1.6427346E-1,4.549478E-1,1.4554209E-2,-6.328413E-2,-3.4290962E-2,5.8108527E-2,4.094741E-1,-4.240258E-1,6.291704E-1,-6.349314E-2,-6.187175E-1,6.0164493E-1,1.2566723E-1,-3.6080837E-2,-2.9688755E-2,9.963569E-2,1.432578E-1,-9.873495E-3,-4.6651486E-2,7.776525E-2,-4.6387713E-2,-2.69997E-3,-5.3039342E-2,5.276381E-2,5.831942E-2,-5.3332027E-2,3.6117908E-2,9.229016E-2,-4.9931817E-2,1.0073259E-1,6.4366356E-2,-2.2888182E-2,-1.50487E-2,1.1221857E-1,-6.3409075E-2,1.6502433E-2,1.9600999E-4,1.0128595E-1],"categories":[],"categories_nodes":[],"categories_segments":[],"categories_sizes":[],"default_left":[1,0,0,1,1,1,1,1,0,0,0,1,0,1,1,1,0,0,0,0,0,0,1,1,1,1,0,1,0,1,1,0,1,1,1,0,0,0,0,1,1,1,1,1,0,0,0,0,0,0,0,0,0,0,0,0,0,0,0,0,0,0,0,0,0,0,0,0,0,0,0],"id":9,"left_children":[1,3,5,7,9,11,13,15,-1,17,19,21,-1,23,25,27,-1,29,31,-1,33,35,37,39,41,43,-1,45,-1,47,49,51,53,55,57,-1,-1,-1,-1,59,61,63,65,67,69,-1,-1,-1,-1,-1,-1,-1,-1,-1,-1,-1,-1,-1,-1,-1,-1,-1,-1,-1,-1,-1,-1,-1,-1,-1,-1],"loss_changes":[1.6118811E2,3.1433937E1,8.2435425E1,6.9231834E0,2.1171755E1,2.5316887E0,7.324805E1,4.9871216E0,0E0,1.8069122E1,4.9717045E0,1.5303726E0,0E0,4.5914795E1,5.887745E0,4.7687683E0,0E0,6.388833E0,1.5981453E1,0E0,4.3532305E0,8.37656E-1,8.812218E-1,3.2876144E1,4.2728577E1,4.8553886E0,0E0,3.8559341E0,0E0,4.6975737E0,3.8945866E0,4.1135206E0,9.233646E0,4.508353E0,5.0470862E0,0E0,0E0,0E0,0E0,3.0883469E1,5.8260803E0,3.357251E1,9.75425E0,8.8175964E-1,9.020035E-1,0E0,0E0,0E0,0E0,0E0,0E0,0E0,0E0,0E0,0E0,0E0,0E0,0E0,0E0,0E0,0E0,0E0,0E0,0E0,0E0,0E0,0E0,0E0,0E0,0E0,0E0],"parents":[2147483647,0,0,1,1,2,2,3,3,4,4,5,5,6,6,7,7,9,9,10,10,11,11,13,13,14,14,15,15,17,17,18,18,20,20,21,21,22,22,23,23,24,24,25,25,27,27,29,29,30,30,31,31,32,32,33,33,34,34,39,39,40,40,41,41,42,42,43,43,44,44],"right_children":[2,4,6,8,10,12,14,16,-1,18,20,22,-1,24,26,28,-1,30,32,-1,34,36,38,40,42,44,-1,46,-1,48,50,52,54,56,58,-1,-1,-1,-1,60,62,64,66,68,70,-1,-1,-1,-1,-1,-1,-1,-1,-1,-1,-1,-1,-1,-1,-1,-1,-1,-1,-1,-1,-1,-1,-1,-1,-1,-1],"split_conditions":[1.1066236E-2,1.0824479E-1,1.7357108E-1,3.2791622E-2,2.9177364E-2,2.0641504E-1,4.9820296E-2,2.747161E-2,-5.0051935E-2,6.0202125E-2,1.2269527E-1,5.5875268E-2,5.8019053E-2,1.3295976E-2,5.2817423E-2,4.5792554E-2,-4.332752E-2,3.7093323E-2,6.716746E-2,1.2897162E-1,3.9057456E-2,9.852902E-2,1.97195E-2,3.792995E-2,8.473413E-2,4.1322105E-2,9.1667585E-2,2.8653938E-1,-4.1515574E-2,3.205965E-2,4.026402E-2,7.218968E-2,3.3273757E-2,2.6024831E-2,5.562708E-2,1.4554209E-2,-6.328413E-2,-3.4290962E-2,5.8108527E-2,2.4735715E-2,4.26374E-2,7.452178E-2,2.7702019E-2,1.3316491E-1,4.237262E-2,1.2566723E-1,-3.6080837E-2,-2.9688755E-2,9.963569E-2,1.432578E-1,-9.873495E-3,-4.6651486E-2,7.776525E-2,-4.6387713E-2,-2.69997E-3,-5.3039342E-2,5.276381E-2,5.831942E-2,-5.3332027E-2,3.6117908E-2,9.229016E-2,-4.9931817E-2,1.0073259E-1,6.4366356E-2,-2.2888182E-2,-1.50487E-2,1.1221857E-1,-6.3409075E-2,1.6502433E-2,1.9600999E-4,1.0128595E-1],"split_indices":[8321,5587,5381,836,2861,1991,8512,8031,0,7011,7792,2862,0,2861,9229,5485,0,8972,1521,0,7693,657,2861,3454,7581,2510,0,2072,0,9229,6489,421,2492,6714,4792,0,0,0,0,4146,5390,8486,7213,724,3043,0,0,0,0,0,0,0,0,0,0,0,0,0,0,0,0,0,0,0,0,0,0,0,0,0,0],"split_type":[0,0,0,0,0,0,0,0,0,0,0,0,0,0,0,0,0,0,0,0,0,0,0,0,0,0,0,0,0,0,0,0,0,0,0,0,0,0,0,0,0,0,0,0,0,0,0,0,0,0,0,0,0,0,0,0,0,0,0,0,0,0,0,0,0,0,0,0,0,0,0],"sum_hessian":[4.6847354E3,4.606422E2,4.2240933E3,3.2057007E1,4.285852E2,7.091194E1,4.1531816E3,2.9055742E1,3.001263E0,3.721293E2,5.64559E1,6.977687E1,1.1350753E0,4.0850835E3,6.809799E1,2.719145E1,1.8642936E0,2.1479576E1,3.5064972E2,4.3960185E0,5.205988E1,6.755398E1,2.22289E0,1.306339E3,2.7787444E3,6.6164085E1,1.9339124E0,2.5639517E1,1.551933E0,1.1827976E1,9.6516E0,1.7138731E1,3.33511E2,1.569214E1,3.636774E1,1.0664632E0,6.648752E1,1.090626E0,1.132264E0,1.2579457E3,4.839328E1,2.686815E3,9.192946E1,6.3498257E1,2.6658242E0,2.449148E1,1.1480358E0,8.900587E0,2.9273882E0,7.7541776E0,1.8974223E0,2.505485E0,1.4633246E1,2.7467987E2,5.8831127E1,1.0414709E1,5.2774305E0,3.2553226E1,3.8145132E0,1.1513486E3,1.0659697E2,4.6593513E1,1.799768E0,2.6424324E3,4.4382694E1,8.6459E1,5.4704623E0,6.2463963E1,1.0342958E0,1.4931262E0,1.172698E0],"tree_param":{"num_deleted":"0","num_feature":"9286","num_nodes":"71","size_leaf_vector":"1"}},{"base_weights":[-2.0866041E-1,7.0475135E-3,-3.6676675E-1,1.917231E-1,-1.4462219E-1,-4.0302023E-1,1.7330739E-1,-8.2532436E-2,3.7227806E-1,-2.1938749E-1,1.9988787E-1,9.024196E-1,-4.1484153E-1,4.8709717E-1,-3.277887E-1,-1.2905662E-1,8.680582E-1,-7.706672E-2,4.6438536E-1,-2.5895387E-1,4.1552332E-1,1.0303133E0,8.849198E-2,-1.2060457E-1,1.1370807E0,7.48714E-2,-4.4144657E-1,7.446523E-1,6.1469956E-4,9.306539E-1,-4.5859182E-1,2.1402892E-1,-2.815425E-1,-4.8515648E-2,1.1906707E0,9.260386E-2,-6.2625945E-2,9.585297E-2,6.005649E-1,-4.5833915E-1,-1.3125658E-1,8.994694E-1,8.832344E-2,-4.9513847E-2,1.3105495E0,3.7260946E-2,1.5880804E-1,5.3060587E-2,-4.8253953E-2,1.2646719E0,-3.5577167E-2,-2.3868555E-1,4.525319E-1,-5.118602E-1,-2.314569E-1,8.738574E-1,-3.190226E-1,1.1043417E0,-1.7669937E-1,-3.8550906E-2,1.4284435E-1,-5.5612177E-1,3.910997E-1,-4.346698E-2,3.8603853E-2,-5.193743E-2,-7.380525E-3,-3.5971977E-2,1.3772054E-1,-8.302736E-3,7.6906405E-2,7.16777E-2,-1.08441375E-2,4.653969E-2,9.709502E-2,-5.21813E-2,3.1624865E-2,-1.9343335E-2,4.278585E-2,1.2549952E-1,-5.3385206E-2,-1.4993711E-2,9.482702E-2,-4.141961E-2,1.4996284E-1,8.12669E-2,-3.5367333E-3,1.4453022E-1,1.3247699E-2,9.057842E-2,-3.768016E-2,-3.8652245E-2,7.1194105E-2,5.712716E-2,-5.2324213E-2,-2.7602002E-2,6.907847E-2,-5.179375E-2,9.733908E-2,-5.7071842E-2,5.893476E-2,1.1374296E-2,1.3739005E-1,-3.0555997E-2,7.4514754E-2,-6.1243434E-2,1.7395286E-2,9.5195934E-2,-4.519903E-2],"categories":[],"categories_nodes":[],"categories_segments":[],"categories_sizes":[],"default_left":[0,0,1,1,1,0,1,1,1,1,0,0,0,1,0,0,0,1,0,1,0,0,1,0,1,1,1,1,0,0,1,0,1,0,0,1,0,0,1,1,1,1,0,0,0,0,0,0,0,1,0,0,0,0,1,0,1,0,1,0,0,1,0,0,0,0,0,0,0,0,0,0,0,0,0,0,0,0,0,0,0,0,0,0,0,0,0,0,0,0,0,0,0,0,0,0,0,0,0,0,0,0,0,0,0,0,0,0,0],"id":10,"left_children":[1,3,5,7,9,11,13,15,17,19,21,23,25,27,29,31,33,35,37,39,41,43,45,47,49,51,53,55,57,59,61,63,65,-1,67,69,-1,71,73,75,77,79,81,-1,83,85,-1,-1,-1,87,-1,89,91,93,95,97,99,101,103,-1,-1,105,107,-1,-1,-1,-1,-1,-1,-1,-1,-1,-1,-1,-1,-1,-1,-1,-1,-1,-1,-1,-1,-1,-1,-1,-1,-1,-1,-1,-1,-1,-1,-1,-1,-1,-1,-1,-1,-1,-1,-1,-1,-1,-1,-1,-1,-1,-1],"loss_changes":[1.4515388E2,5.0475723E1,4.815622E1,4.0269417E1,2.5530455E1,3.589514E1,2.4561398E1,1.4415148E1,2.0323738E1,2.054409E1,1.6279495E1,5.171587E0,2.9762085E1,1.2006947E1,1.0361996E1,1.6235973E1,7.221957E0,7.9080725E0,2.0365631E1,1.9453407E1,7.538123E0,9.556614E0,1.2012521E1,1.3913765E0,3.7173996E0,1.4132477E1,3.1883972E1,8.890049E0,6.8832073E0,4.490181E0,4.803857E0,1.0846939E1,1.0558773E1,0E0,4.133314E0,7.813898E0,0E0,1.415701E1,1.4414955E1,1.4856598E1,1.6373001E1,1.0503099E1,6.2500668E0,0E0,6.4512997E0,8.643182E0,0E0,0E0,0E0,3.0854073E0,0E0,1.0673092E1,1.2043861E1,2.0270752E1,2.2602568E1,8.28109E0,2.0555115E0,1.1436286E0,3.8277187E0,0E0,0E0,2.164548E0,3.402425E0,0E0,0E0,0E0,0E0,0E0,0E0,0E0,0E0,0E0,0E0,0E0,0E0,0E0,0E0,0E0,0E0,0E0,0E0,0E0,0E0,0E0,0E0,0E0,0E0,0E0,0E0,0E0,0E0,0E0,0E0,0E0,0E0,0E0,0E0,0E0,0E0,0E0,0E0,0E0,0E0,0E0,0E0,0E0,0E0,0E0,0E0],"parents":[2147483647,0,0,1,1,2,2,3,3,4,4,5,5,6,6,7,7,8,8,9,9,10,10,11,11,12,12,13,13,14,14,15,15,16,16,17,17,18,18,19,19,20,20,21,21,22,22,23,23,24,24,25,25,26,26,27,27,28,28,29,29,30,30,31,31,32,32,34,34,35,35,37,37,38,38,39,39,40,40,41,41,42,42,44,44,45,45,49,49,51,51,52,52,53,53,54,54,55,55,56,56,57,57,58,58,61,61,62,62],"right_children":[2,4,6,8,10,12,14,16,18,20,22,24,26,28,30,32,34,36,38,40,42,44,46,48,50,52,54,56,58,60,62,64,66,-1,68,70,-1,72,74,76,78,80,82,-1,84,86,-1,-1,-1,88,-1,90,92,94,96,98,100,102,104,-1,-1,106,108,-1,-1,-1,-1,-1,-1,-1,-1,-1,-1,-1,-1,-1,-1,-1,-1,-1,-1,-1,-1,-1,-1,-1,-1,-1,-1,-1,-1,-1,-1,-1,-1,-1,-1,-1,-1,-1,-1,-1,-1,-1,-1,-1,-1,-1,-1],"split_conditions":[5.1863633E-2,1.7300362E-2,2.6596379E-2,1.37962755E-2,2.1807473E-2,5.244826E-2,2.4663243E-2,3.545246E-2,6.927669E-2,2.9286284E-2,3.6111817E-2,1.6977597E-2,1.7358766E-1,1.5110444E-2,7.611624E-2,5.8023665E-2,2.0115327E-2,1.7538989E-2,1.2467517E-1,1.7014809E-2,5.2556783E-2,3.301242E-2,5.3703263E-2,2.7036967E-2,2.122166E-2,2.4551418E-2,2.0278733E-2,3.047457E-2,3.667407E-2,3.557718E-2,7.500814E-2,1.1229353E-1,7.334019E-3,-4.8515648E-2,2.6070422E-2,2.9441362E-2,-6.2625945E-2,4.1294813E-2,4.438926E-2,5.0536916E-2,2.7987715E-2,3.6702443E-2,1.8399878E-1,-4.9513847E-2,3.1288795E-2,7.20946E-2,1.5880804E-1,5.3060587E-2,-4.8253953E-2,3.313075E-2,-3.5577167E-2,3.4785762E-2,4.8499055E-2,4.448794E-2,5.966989E-2,5.698614E-2,4.1810222E-2,1.9292425E-2,4.6471927E-2,-3.8550906E-2,1.4284435E-1,2.2973068E-2,6.137813E-2,-4.346698E-2,3.8603853E-2,-5.193743E-2,-7.380525E-3,-3.5971977E-2,1.3772054E-1,-8.302736E-3,7.6906405E-2,7.16777E-2,-1.08441375E-2,4.653969E-2,9.709502E-2,-5.21813E-2,3.1624865E-2,-1.9343335E-2,4.278585E-2,1.2549952E-1,-5.3385206E-2,-1.4993711E-2,9.482702E-2,-4.141961E-2,1.4996284E-1,8.12669E-2,-3.5367333E-3,1.4453022E-1,1.3247699E-2,9.057842E-2,-3.768016E-2,-3.8652245E-2,7.1194105E-2,5.712716E-2,-5.2324213E-2,-2.7602002E-2,6.907847E-2,-5.179375E-2,9.733908E-2,-5.7071842E-2,5.893476E-2,1.1374296E-2,1.3739005E-1,-3.0555997E-2,7.4514754E-2,-6.1243434E-2,1.7395286E-2,9.5195934E-2,-4.519903E-2],"split_indices":[8031,8388,5187,7974,4911,1919,3559,1082,8523,963,4853,7114,969,7392,2135,4319,8518,1028,2528,7974,7126,7816,8323,4084,832,7521,4919,4381,4002,5231,8514,2528,4347,0,7902,3615,0,3412,959,511,1958,8244,7392,0,5186,1824,0,0,0,5675,0,2092,8523,2213,2428,8151,4347,1772,2510,0,0,4673,6345,0,0,0,0,0,0,0,0,0,0,0,0,0,0,0,0,0,0,0,0,0,0,0,0,0,0,0,0,0,0,0,0,0,0,0,0,0,0,0,0,0,0,0,0,0,0],"split_type":[0,0,0,0,0,0,0,0,0,0,0,0,0,0,0,0,0,0,0,0,0,0,0,0,0,0,0,0,0,0,0,0,0,0,0,0,0,0,0,0,0,0,0,0,0,0,0,0,0,0,0,0,0,0,0,0,0,0,0,0,0,0,0,0,0,0,0,0,0,0,0,0,0,0,0,0,0,0,0,0,0,0,0,0,0,0,0,0,0,0,0,0,0,0,0,0,0,0,0,0,0,0,0,0,0,0,0,0,0],"sum_hessian":[4.2550386E3,1.8000908E3,2.4549478E3,8.11604E2,9.8848676E2,2.3007588E3,1.5418896E2,3.2241376E2,4.8919025E2,8.1251794E2,1.759688E2,1.9971283E1,2.2807876E3,9.483228E1,5.9356686E1,3.0819424E2,1.4219526E1,8.324471E1,4.0594556E2,7.654112E2,4.7106777E1,1.9837397E1,1.561314E2,3.8169637E0,1.6154318E1,1.17431786E2,2.1633557E3,6.1658276E1,3.3174007E1,5.0129275E0,5.4343758E1,9.470629E1,2.1348795E2,2.6403995E0,1.1579127E1,6.423193E1,1.901278E1,1.0999048E2,2.9595508E2,2.978156E2,4.6759555E2,1.8296415E1,2.8810362E1,2.9596784E0,1.6877718E1,1.5196461E2,4.1667805E0,1.1970855E0,2.619878E0,1.5023166E1,1.1311526E0,6.436227E1,5.306952E1,1.6190269E3,5.443289E2,5.5138973E1,6.5193014E0,3.8680966E0,2.9305912E1,1.4375588E0,3.575369E0,4.905822E1,5.2855372E0,1.9529144E1,7.517715E1,9.883488E1,1.14653076E2,1.1438165E0,1.043531E1,5.168903E1,1.2542904E1,2.6608656E1,8.338182E1,2.1847983E2,7.7475235E1,2.7556104E2,2.2254593E1,4.2138876E2,4.6206783E1,1.47597685E1,3.536646E0,2.3206354E1,5.6040087E0,1.5498309E0,1.5327888E1,1.21420355E1,1.3982259E2,1.2717645E1,2.3055212E0,6.3323603E0,5.8029907E1,1.2416984E1,4.0652534E1,1.6324787E1,1.602702E3,5.199075E2,2.4421438E1,3.3994968E0,5.173948E1,5.395892E0,1.1234093E0,1.1315892E0,2.7365074E0,2.6298328E1,3.0075834E0,4.5694798E1,3.3634243E0,3.0964887E0,2.1890485E0],"tree_param":{"num_deleted":"0","num_feature":"9286","num_nodes":"109","size_leaf_vector":"1"}},{"base_weights":[-5.33783E-1,3.3027264E-1,-5.51025E-1,7.164151E-2,1.0310432E0,-5.632205E-1,1.19044736E-1,-1.403197E-1,1.1075206E0,1.245646E0,-2.412388E-1,-5.719014E-1,4.210422E-2,-1.8379037E-1,1.0026904E0,-2.6340187E-1,1.0661935E-1,-3.4633335E-2,1.3208987E-1,5.2247196E-1,1.437461E-1,-4.278906E-2,1.2465552E-2,6.334858E-1,-5.752357E-1,-2.4113002E-1,6.075524E-1,-3.487423E-1,1.0487809E0,1.1373695E0,-3.7715796E-2,-3.694278E-1,9.595193E-2,-4.4101436E-2,1.1581328E-1,-1.6035673E-1,1.1662326E0,7.552772E-1,-5.781893E-1,1.3079171E-1,-3.5679835E-1,7.980148E-1,-4.665257E-2,5.2268577E-1,-4.506039E-1,9.028975E-3,1.2360775E-1,-3.6398508E-2,1.2684258E0,-4.7230452E-2,1.1197653E-1,5.852887E-2,-4.9806513E-2,9.759388E-3,1.3685808E-1,-4.373946E-2,1.1833586E-1,6.0677927E-2,-5.813232E-2,-4.569712E-2,1.1356052E-1,-7.0225648E-3,1.03014626E-1,-4.5625117E-2,1.3006939E-1,-5.3418543E-2,6.755004E-2,1.3924819E-1,1.7474588E-3],"categories":[],"categories_nodes":[],"categories_segments":[],"categories_sizes":[],"default_left":[0,1,1,1,1,1,1,1,1,1,0,0,0,1,1,1,0,0,0,0,0,0,0,0,0,0,0,0,0,0,0,1,0,0,0,0,0,0,0,0,0,0,0,0,1,0,0,0,1,0,0,0,0,0,0,0,0,0,0,0,0,0,0,0,0,0,0,0,0],"id":11,"left_children":[1,3,5,7,9,11,13,15,17,19,21,23,25,27,29,31,-1,-1,-1,33,-1,-1,-1,35,37,39,41,43,45,47,-1,49,-1,-1,-1,51,53,55,57,-1,59,61,-1,63,65,-1,-1,-1,67,-1,-1,-1,-1,-1,-1,-1,-1,-1,-1,-1,-1,-1,-1,-1,-1,-1,-1,-1,-1],"loss_changes":[6.0752808E1,1.4455818E1,3.2644653E1,1.3248389E1,6.1807423E0,2.0598755E1,1.9474176E1,7.7637053E0,3.6346092E0,1.8277531E0,3.2283995E-1,1.5879272E1,9.161354E0,1.1452789E1,3.8769379E0,6.38721E0,0E0,0E0,0E0,3.8597817E0,0E0,0E0,0E0,4.891786E0,1.5566162E1,7.3145847E0,4.273379E0,4.571284E0,1.0886722E0,3.8367252E0,0E0,7.198864E0,0E0,0E0,0E0,1.6378566E0,1.3320723E0,5.0928383E0,1.462085E1,0E0,5.9530754E0,3.4112024E0,0E0,4.8394628E0,4.5276365E0,0E0,0E0,0E0,2.4584866E0,0E0,0E0,0E0,0E0,0E0,0E0,0E0,0E0,0E0,0E0,0E0,0E0,0E0,0E0,0E0,0E0,0E0,0E0,0E0,0E0],"parents":[2147483647,0,0,1,1,2,2,3,3,4,4,5,5,6,6,7,7,8,8,9,9,10,10,11,11,12,12,13,13,14,14,15,15,19,19,23,23,24,24,25,25,26,26,27,27,28,28,29,29,31,31,35,35,36,36,37,37,38,38,40,40,41,41,43,43,44,44,48,48],"right_children":[2,4,6,8,10,12,14,16,18,20,22,24,26,28,30,32,-1,-1,-1,34,-1,-1,-1,36,38,40,42,44,46,48,-1,50,-1,-1,-1,52,54,56,58,-1,60,62,-1,64,66,-1,-1,-1,68,-1,-1,-1,-1,-1,-1,-1,-1,-1,-1,-1,-1,-1,-1,-1,-1,-1,-1,-1,-1],"split_conditions":[4.084684E-2,6.312399E-2,3.4751758E-2,2.2642693E-2,1.9723136E-2,7.5345024E-2,1.6205382E-2,6.802957E-2,1.9910157E-2,1.441035E-2,5.3429145E-2,9.6460044E-2,5.4663025E-2,3.8711E-2,3.267596E-2,5.8612026E-2,1.0661935E-1,-3.4633335E-2,1.3208987E-1,2.0900695E-2,1.437461E-1,-4.278906E-2,1.2465552E-2,3.07946E-2,3.21335E-2,3.6412373E-2,3.9250884E-2,2.0838568E-2,3.223535E-2,1.8379385E-2,-3.7715796E-2,4.398514E-2,9.595193E-2,-4.4101436E-2,1.1581328E-1,2.1915168E-2,6.783893E-2,5.0224937E-2,2.1565986E-1,1.3079171E-1,1.9099946E-1,2.3313265E-1,-4.665257E-2,2.195365E-2,4.7608808E-2,9.028975E-3,1.2360775E-1,-3.6398508E-2,4.1415818E-2,-4.7230452E-2,1.1197653E-1,5.852887E-2,-4.9806513E-2,9.759388E-3,1.3685808E-1,-4.373946E-2,1.1833586E-1,6.0677927E-2,-5.813232E-2,-4.569712E-2,1.1356052E-1,-7.0225648E-3,1.03014626E-1,-4.5625117E-2,1.3006939E-1,-5.3418543E-2,6.755004E-2,1.3924819E-1,1.7474588E-3],"split_indices":[6859,8051,2008,8864,7509,8486,4424,3065,8373,7114,958,1259,1094,7740,494,5971,0,0,0,1874,0,0,0,957,2088,5447,8388,3258,5248,3436,0,3901,0,0,0,2492,5883,6520,5049,0,2528,5780,0,448,3257,0,0,0,7070,0,0,0,0,0,0,0,0,0,0,0,0,0,0,0,0,0,0,0,0],"split_type":[0,0,0,0,0,0,0,0,0,0,0,0,0,0,0,0,0,0,0,0,0,0,0,0,0,0,0,0,0,0,0,0,0,0,0,0,0,0,0,0,0,0,0,0,0,0,0,0,0,0,0,0,0,0,0,0,0,0,0,0,0,0,0,0,0,0,0,0,0],"sum_hessian":[4.0647075E3,7.916772E1,3.9855398E3,5.863114E1,2.0536577E1,3.9144546E3,7.1085075E1,4.93896E1,9.241543E0,1.7590437E1,2.9461412E0,3.859166E3,5.528857E1,5.3531315E1,1.7553762E1,4.552687E1,3.86273E0,1.1030186E0,8.138524E0,4.468244E0,1.3122192E1,1.8387246E0,1.1074166E0,1.0124575E1,3.8490415E3,3.7219032E1,1.8069536E1,4.7845352E1,5.6859627E0,1.6152899E1,1.4008629E0,4.253688E1,2.9899879E0,1.8978453E0,2.5703986E0,4.346654E0,5.7779202E0,7.961217E0,3.8410803E3,1.8698779E0,3.5349155E1,1.5566253E1,2.503284E0,4.57498E0,4.3270374E1,1.1717243E0,4.5142384E0,1.1541275E0,1.4998772E1,4.0426945E1,2.1099365E0,1.126429E0,3.2202249E0,1.1558682E0,4.622052E0,2.09701E0,5.8642073E0,9.623773E0,3.8314565E3,3.377586E1,1.5732951E0,3.4309514E0,1.2135301E1,2.2090209E0,2.3659592E0,4.0769985E1,2.500388E0,1.3542619E1,1.4561522E0],"tree_param":{"num_deleted":"0","num_feature":"9286","num_nodes":"69","size_leaf_vector":"1"}},{"base_weights":[2.065183E-1,-1.5021946E-1,4.308296E-1,1.9741923E-1,-3.1475607E-1,7.072006E-1,1.5302435E-1,-4.295949E-1,3.2123655E-1,-3.6362034E-1,4.165918E-1,2.1739244E-1,8.243405E-1,5.9502807E-2,6.745238E-1,8.6793387E-1,-5.047747E-1,2.462527E-1,1.3002181E0,1.18643664E-1,-3.8057685E-1,-3.3570004E-1,7.590362E-1,5.626617E-2,1.2254484E0,1.5351886E-1,9.0603465E-1,-1.6550854E-3,1.0164864E0,4.336929E-1,1.2454635E0,-2.913774E-3,1.2274366E-1,1.1561257E-1,-5.572569E-1,4.303025E-1,-6.180235E-2,2.7382616E-3,1.3494623E0,-4.026555E-1,5.146658E-1,-4.7987038E-1,8.1613444E-2,-5.17413E-2,8.3458626E-1,6.230344E-1,-1.0303759E-1,1.2898467E0,-3.8342264E-2,4.741314E-1,-3.325056E-1,1.0182558E0,3.4560728E-1,2.52927E-1,-1.5527353E-1,-1.9362745E-1,1.142154E0,-1.23486415E-1,6.351359E-1,1.2981454E0,2.1394964E-2,-5.9036165E-2,6.685061E-2,1.06463306E-1,2.9926693E-2,2.9238833E-2,-3.615232E-2,3.9325204E-2,1.3788556E-1,8.712699E-2,-4.1589838E-2,-2.4121586E-2,8.1575595E-2,7.2256826E-2,-6.079623E-2,9.590905E-2,-1.4635398E-2,9.6957445E-2,-1.608534E-2,-3.831091E-2,1.1820043E-2,1.3606684E-1,-8.992023E-3,3.102315E-2,1.471777E-1,1.1142969E-1,-4.1980814E-2,1.0576246E-1,1.1001964E-2,1.16909645E-1,1.945032E-2,4.5941412E-2,-1.5027131E-2,-2.3170201E-2,5.032273E-2,-5.561898E-2,5.572288E-2,-4.6388324E-2,1.1934191E-1,-2.728112E-2,8.613192E-2,7.5964235E-2,-3.4460198E-2,-1.1950213E-2,1.3432014E-1,-3.989938E-2,4.1804913E-2],"categories":[],"categories_nodes":[],"categories_segments":[],"categories_sizes":[],"default_left":[0,1,1,0,0,0,1,0,1,0,0,1,0,1,1,0,0,1,0,0,1,1,0,0,1,1,1,1,0,0,1,0,0,0,1,0,1,0,0,0,0,0,0,0,1,1,0,1,0,1,0,1,0,1,1,1,0,1,1,0,0,0,0,0,0,0,0,0,0,0,0,0,0,0,0,0,0,0,0,0,0,0,0,0,0,0,0,0,0,0,0,0,0,0,0,0,0,0,0,0,0,0,0,0,0,0,0],"id":12,"left_children":[1,3,5,7,9,11,13,15,17,19,21,23,25,27,29,31,33,35,37,-1,39,41,43,45,47,49,51,53,55,57,59,-1,-1,-1,61,63,65,-1,67,69,71,73,-1,-1,75,77,79,81,-1,83,85,87,89,91,93,95,97,99,101,103,105,-1,-1,-1,-1,-1,-1,-1,-1,-1,-1,-1,-1,-1,-1,-1,-1,-1,-1,-1,-1,-1,-1,-1,-1,-1,-1,-1,-1,-1,-1,-1,-1,-1,-1,-1,-1,-1,-1,-1,-1,-1,-1,-1,-1,-1,-1],"loss_changes":[3.65364E2,1.0090849E2,2.1509943E2,4.4157303E1,4.2930847E1,8.0425964E1,6.819862E1,9.600822E0,3.4480354E1,2.9958237E1,1.9688955E1,4.419056E1,6.197174E1,6.950217E1,2.8700851E1,1.8133988E0,8.438644E0,2.5062923E1,2.0624428E0,0E0,2.2171722E1,4.425419E0,5.46064E0,2.137122E1,4.3803368E0,1.9517963E1,6.317633E1,4.3729736E1,1.1068779E1,1.7038437E1,4.0062866E0,0E0,0E0,0E0,3.9393692E0,2.2668262E1,1.7730827E1,0E0,3.634987E-1,1.8667664E1,6.3837557E0,3.8614607E0,0E0,0E0,6.1999664E0,1.425968E1,1.151266E1,3.6685371E0,0E0,1.1851576E1,6.7795568E0,2.995752E1,2.0930744E1,3.5103043E1,3.521339E1,2.3695862E0,5.886055E0,6.2585845E0,1.3819496E1,3.990303E0,7.6676416E-1,0E0,0E0,0E0,0E0,0E0,0E0,0E0,0E0,0E0,0E0,0E0,0E0,0E0,0E0,0E0,0E0,0E0,0E0,0E0,0E0,0E0,0E0,0E0,0E0,0E0,0E0,0E0,0E0,0E0,0E0,0E0,0E0,0E0,0E0,0E0,0E0,0E0,0E0,0E0,0E0,0E0,0E0,0E0,0E0,0E0,0E0],"parents":[2147483647,0,0,1,1,2,2,3,3,4,4,5,5,6,6,7,7,8,8,9,9,10,10,11,11,12,12,13,13,14,14,15,15,16,16,17,17,18,18,20,20,21,21,22,22,23,23,24,24,25,25,26,26,27,27,28,28,29,29,30,30,34,34,35,35,36,36,38,38,39,39,40,40,41,41,44,44,45,45,46,46,47,47,49,49,50,50,51,51,52,52,53,53,54,54,55,55,56,56,57,57,58,58,59,59,60,60],"right_children":[2,4,6,8,10,12,14,16,18,20,22,24,26,28,30,32,34,36,38,-1,40,42,44,46,48,50,52,54,56,58,60,-1,-1,-1,62,64,66,-1,68,70,72,74,-1,-1,76,78,80,82,-1,84,86,88,90,92,94,96,98,100,102,104,106,-1,-1,-1,-1,-1,-1,-1,-1,-1,-1,-1,-1,-1,-1,-1,-1,-1,-1,-1,-1,-1,-1,-1,-1,-1,-1,-1,-1,-1,-1,-1,-1,-1,-1,-1,-1,-1,-1,-1,-1,-1,-1,-1,-1,-1,-1],"split_conditions":[1.2092689E-1,6.75216E-3,5.030684E-2,1.7215906E-1,5.5200857E-1,1.03547975E-1,7.560507E-2,8.152372E-2,4.5855377E-2,1.1571152E-1,9.6269235E-2,4.5414217E-2,9.944426E-2,3.6021467E-2,3.4161855E-2,2.4784043E-2,1.8328212E-2,1.976849E-2,5.6309115E-2,1.18643664E-1,5.669759E-2,5.763057E-2,5.1380847E-2,2.1440703E-2,3.2251164E-2,2.7290715E-2,2.5248671E-2,5.902724E-3,3.5294786E-2,4.963837E-2,4.724199E-2,-2.913774E-3,1.2274366E-1,1.1561257E-1,4.448497E-2,5.4711174E-2,4.2744417E-2,2.7382616E-3,7.137334E-2,6.0219552E-2,1.819575E-1,2.8694015E-2,8.1613444E-2,-5.17413E-2,3.2580223E-2,3.1041054E-2,7.6559186E-2,4.4600487E-2,-3.8342264E-2,3.5961527E-2,1.9504812E-2,6.1256826E-2,4.7245625E-2,4.4102218E-2,3.469097E-2,4.0695522E-2,4.4790074E-2,2.7539125E-2,2.5811384E-2,4.991764E-2,1.4976196E-1,-5.9036165E-2,6.685061E-2,1.06463306E-1,2.9926693E-2,2.9238833E-2,-3.615232E-2,3.9325204E-2,1.3788556E-1,8.712699E-2,-4.1589838E-2,-2.4121586E-2,8.1575595E-2,7.2256826E-2,-6.079623E-2,9.590905E-2,-1.4635398E-2,9.6957445E-2,-1.608534E-2,-3.831091E-2,1.1820043E-2,1.3606684E-1,-8.992023E-3,3.102315E-2,1.471777E-1,1.1142969E-1,-4.1980814E-2,1.0576246E-1,1.1001964E-2,1.16909645E-1,1.945032E-2,4.5941412E-2,-1.5027131E-2,-2.3170201E-2,5.032273E-2,-5.561898E-2,5.572288E-2,-4.6388324E-2,1.1934191E-1,-2.728112E-2,8.613192E-2,7.5964235E-2,-3.4460198E-2,-1.1950213E-2,1.3432014E-1,-3.989938E-2,4.1804913E-2],"split_indices":[8031,7974,8321,3114,8321,5726,5726,1777,6538,5381,4155,8512,4617,3773,5886,5188,6566,959,5270,0,4065,8316,5250,8199,4957,1926,2861,7974,8649,4919,6185,0,0,0,4892,518,9229,0,6767,1202,2361,5250,0,0,9229,7974,5840,7001,0,440,1891,1575,8199,3297,3264,3062,4443,854,2988,6692,362,0,0,0,0,0,0,0,0,0,0,0,0,0,0,0,0,0,0,0,0,0,0,0,0,0,0,0,0,0,0,0,0,0,0,0,0,0,0,0,0,0,0,0,0,0,0],"split_type":[0,0,0,0,0,0,0,0,0,0,0,0,0,0,0,0,0,0,0,0,0,0,0,0,0,0,0,0,0,0,0,0,0,0,0,0,0,0,0,0,0,0,0,0,0,0,0,0,0,0,0,0,0,0,0,0,0,0,0,0,0,0,0,0,0,0,0,0,0,0,0,0,0,0,0,0,0,0,0,0,0,0,0,0,0,0,0,0,0,0,0,0,0,0,0,0,0,0,0,0,0,0,0,0,0,0,0],"sum_hessian":[4.5640815E3,1.76207E3,2.8020112E3,5.6600183E2,1.1960682E3,1.4038569E3,1.3981544E3,9.293037E1,4.7307144E2,1.1216304E3,7.4437805E1,2.714932E2,1.1323638E3,1.1864924E3,2.1166199E2,4.51205E0,8.841832E1,4.405775E2,3.2493935E1,1.1390742E1,1.1102396E3,2.3291048E1,5.114676E1,2.3498872E2,3.650446E1,1.232435E2,1.00912024E3,1.1161603E3,7.0332115E1,1.5010506E2,6.155693E1,1.5537949E0,2.958255E0,2.0641875E0,8.635413E1,2.7555078E2,1.6502673E2,1.2682787E0,3.1225655E1,1.0840547E3,2.6184948E1,2.1218592E1,2.0724566E0,2.531272E0,4.8615486E1,5.0918995E1,1.8406973E2,3.5290188E1,1.2142692E0,7.427287E1,4.8970627E1,8.4008325E2,1.6903697E2,4.1980225E2,6.963581E2,6.5658264E0,6.376629E1,3.996134E1,1.1014372E2,5.8958916E1,2.5980146E0,8.4588E1,1.7661362E0,4.5956257E1,2.2959451E2,7.5651344E1,8.937539E1,1.3600476E0,2.9865606E1,1.0486537E1,1.0735681E3,7.5157204E0,1.8669228E1,1.5959451E0,1.9622646E1,4.315978E1,5.4557085E0,3.514518E1,1.5773813E1,8.09108E1,1.03158936E2,3.358039E1,1.7097964E0,6.491858E1,9.354295E0,2.1173682E0,4.6853256E1,8.0502386E2,3.505936E1,2.5163507E1,1.4387346E2,2.775322E2,1.4227005E2,6.245215E2,7.183656E1,4.602634E0,1.9631923E0,1.7235054E0,6.2042786E1,3.5327637E1,4.633704E0,9.792404E1,1.221968E1,1.7652278E0,5.7193687E1,1.2584084E0,1.3396063E0],"tree_param":{"num_deleted":"0","num_feature":"9286","num_nodes":"107","size_leaf_vector":"1"}},{"base_weights":[3.980247E-1,-1.14901945E-1,4.5159888E-1,-3.931692E-1,9.902484E-2,-5.494565E-1,4.6750942E-1,4.338123E-1,-4.4599375E-1,8.4935176E-1,1.27118835E-2,5.8281045E-2,-5.771332E-1,4.8259827E-1,-4.915219E-1,-4.9862813E-2,8.5015535E-1,-5.193991E-1,5.65114E-2,8.578043E-2,1.0173985E0,9.701577E-2,-3.9053884E-1,-6.0484356E-1,9.596598E-2,-1.095973E-1,4.9900043E-1,-5.88585E-1,3.336917E-1,1.3646657E0,-2.114643E-1,-5.423906E-1,6.907094E-1,-1.8202466E-1,1.06652856E-1,-5.0685465E-2,8.9604355E-2,1.1428715E0,-1.4015253E-2,-5.5425155E-1,1.578068E-1,7.01102E-1,-4.768588E-1,-6.1988633E-2,1.6525669E-2,5.7825726E-2,-3.7548758E-2,-2.128993E-1,1.1021445E0,5.116423E-1,-2.1997246E-1,-6.210956E-1,6.0094316E-2,-1.9324519E-1,1.235255E-1,1.5242176E-1,4.3737527E-2,-4.0391903E-2,1.4224608E-2,-5.7136983E-2,2.4141781E-2,1.2747018E-1,-3.3227097E-2,6.546121E-2,-3.346306E-2,9.742991E-4,1.2233152E-1,1.4351253E-2,-6.1147805E-2,2.3330463E-2,-3.6825128E-2,6.177692E-3,1.03399694E-1,-5.252981E-2,5.8758177E-2,-3.0321592E-2,7.534345E-2,1.3300967E-1,1.9752396E-2,2.1336881E-2,5.4128755E-2,-3.8228914E-2,7.215694E-2,-6.3773595E-2,1.4588477E-2,-5.0735276E-2,5.479482E-2],"categories":[],"categories_nodes":[],"categories_segments":[],"categories_sizes":[],"default_left":[1,1,0,0,0,0,1,0,1,0,1,0,1,0,1,0,0,1,1,0,1,0,0,1,0,1,1,1,1,0,1,1,1,0,0,0,0,0,0,0,1,0,1,0,0,0,0,1,0,0,1,1,0,1,0,0,0,0,0,0,0,0,0,0,0,0,0,0,0,0,0,0,0,0,0,0,0,0,0,0,0,0,0,0,0,0,0],"id":13,"left_children":[1,3,5,7,9,11,13,15,17,19,21,-1,23,25,27,-1,29,31,33,35,37,39,41,43,45,47,49,51,53,55,57,59,61,63,-1,-1,-1,65,-1,67,69,71,73,-1,-1,-1,-1,75,77,79,81,83,-1,85,-1,-1,-1,-1,-1,-1,-1,-1,-1,-1,-1,-1,-1,-1,-1,-1,-1,-1,-1,-1,-1,-1,-1,-1,-1,-1,-1,-1,-1,-1,-1,-1,-1],"loss_changes":[1.3177966E2,2.7073023E1,6.938989E1,8.825005E0,1.6668812E1,2.4788284E0,6.207251E1,5.22621E0,6.8982086E0,3.3201656E0,7.924649E0,0E0,1.31217E0,4.0923035E1,5.537752E0,0E0,5.1616035E0,4.8979263E0,6.1297812E0,3.2787068E0,3.307993E0,7.7159066E0,4.1330724E0,8.5214996E-1,1.0178906E0,1.4531456E1,3.7325867E1,2.6947002E0,3.8759837E0,2.4225044E-1,3.1464627E-1,3.774643E0,2.4972732E0,2.8726912E0,0E0,0E0,0E0,1.7804012E0,0E0,7.5345516E-1,7.116036E0,6.5100086E-1,2.2656164E0,0E0,0E0,0E0,0E0,9.486727E0,1.6207762E0,3.546472E1,1.1194731E1,8.450661E-1,0E0,1.6043097E0,0E0,0E0,0E0,0E0,0E0,0E0,0E0,0E0,0E0,0E0,0E0,0E0,0E0,0E0,0E0,0E0,0E0,0E0,0E0,0E0,0E0,0E0,0E0,0E0,0E0,0E0,0E0,0E0,0E0,0E0,0E0,0E0,0E0],"parents":[2147483647,0,0,1,1,2,2,3,3,4,4,5,5,6,6,7,7,8,8,9,9,10,10,12,12,13,13,14,14,16,16,17,17,18,18,19,19,20,20,21,21,22,22,23,23,24,24,25,25,26,26,27,27,28,28,29,29,30,30,31,31,32,32,33,33,37,37,39,39,40,40,41,41,42,42,47,47,48,48,49,49,50,50,51,51,53,53],"right_children":[2,4,6,8,10,12,14,16,18,20,22,-1,24,26,28,-1,30,32,34,36,38,40,42,44,46,48,50,52,54,56,58,60,62,64,-1,-1,-1,66,-1,68,70,72,74,-1,-1,-1,-1,76,78,80,82,84,-1,86,-1,-1,-1,-1,-1,-1,-1,-1,-1,-1,-1,-1,-1,-1,-1,-1,-1,-1,-1,-1,-1,-1,-1,-1,-1,-1,-1,-1,-1,-1,-1,-1,-1],"split_conditions":[1.1066236E-2,8.373686E-3,1.7357108E-1,3.2515593E-2,7.411832E-2,9.69332E-2,4.9820296E-2,1.7486038E-2,3.1727158E-2,1.9284032E-2,3.2754734E-2,5.8281045E-2,5.1629838E-2,1.5516341E-2,3.185427E-2,-4.9862813E-2,1.17165826E-1,3.9329622E-2,2.6996102E-2,3.486598E-2,4.9410954E-2,5.4703537E-2,1.6581448E-2,8.399532E-2,7.433864E-2,3.4351457E-2,3.3613697E-2,8.630225E-2,4.6015922E-2,1.7868767E-2,3.7236E-2,4.8923522E-2,9.4228715E-2,3.0651411E-2,1.06652856E-1,-5.0685465E-2,8.9604355E-2,5.5583596E-2,-1.4015253E-2,3.1503942E-2,2.9802548E-2,5.5167213E-2,1.12394966E-1,-6.1988633E-2,1.6525669E-2,5.7825726E-2,-3.7548758E-2,1.256767E-2,3.7236612E-2,7.605831E-2,2.2533856E-2,5.322407E-2,6.0094316E-2,9.275767E-2,1.235255E-1,1.5242176E-1,4.3737527E-2,-4.0391903E-2,1.4224608E-2,-5.7136983E-2,2.4141781E-2,1.2747018E-1,-3.3227097E-2,6.546121E-2,-3.346306E-2,9.742991E-4,1.2233152E-1,1.4351253E-2,-6.1147805E-2,2.3330463E-2,-3.6825128E-2,6.177692E-3,1.03399694E-1,-5.252981E-2,5.8758177E-2,-3.0321592E-2,7.534345E-2,1.3300967E-1,1.9752396E-2,2.1336881E-2,5.4128755E-2,-3.8228914E-2,7.215694E-2,-6.3773595E-2,1.4588477E-2,-5.0735276E-2,5.479482E-2],"split_indices":[8321,2066,5381,5638,5587,6493,8512,6714,8882,7974,3062,0,497,455,4919,0,2072,2468,5582,8888,1010,180,1094,520,3619,6943,6438,515,8972,1926,214,6185,421,2532,0,0,0,4494,0,2072,2373,2489,162,0,0,0,0,6638,5336,587,455,6185,0,3436,0,0,0,0,0,0,0,0,0,0,0,0,0,0,0,0,0,0,0,0,0,0,0,0,0,0,0,0,0,0,0,0,0],"split_type":[0,0,0,0,0,0,0,0,0,0,0,0,0,0,0,0,0,0,0,0,0,0,0,0,0,0,0,0,0,0,0,0,0,0,0,0,0,0,0,0,0,0,0,0,0,0,0,0,0,0,0,0,0,0,0,0,0,0,0,0,0,0,0,0,0,0,0,0,0,0,0,0,0,0,0,0,0,0,0,0,0,0,0,0,0,0,0],"sum_hessian":[4.7926543E3,4.531345E2,4.3395195E3,1.9658582E2,2.5654868E2,6.736765E1,4.272152E3,1.1370201E1,1.852156E2,2.5555124E1,2.3099356E2,1.1288327E0,6.6238815E1,4.206467E3,6.568532E1,3.4487517E0,7.9214497E0,1.6157875E2,2.3636854E1,4.882132E0,2.0672993E1,1.9168019E2,3.931338E1,6.3717094E1,2.521723E0,1.1321428E2,4.0932524E3,5.9028973E1,6.656346E0,5.1433067E0,2.7781427E0,1.5910757E2,2.471181E0,1.9784195E1,3.8526585E0,3.036015E0,1.846117E0,1.8662724E1,2.0102694E0,1.5671434E1,1.7600874E2,2.3589475E0,3.6954433E1,6.2687645E1,1.0294522E0,1.1345503E0,1.3871727E0,1.0508039E2,8.133888E0,4.022807E3,7.044558E1,5.792374E1,1.1052314E0,4.6968393E0,1.9595069E0,3.8390229E0,1.3042837E0,1.7072663E0,1.0708764E0,1.536961E2,5.4114733E0,1.4164823E0,1.0546987E0,2.5445523E0,1.7239643E1,1.3114059E0,1.7351316E1,1.07357E0,1.4597864E1,1.5440556E2,2.1603186E1,1.2136692E0,1.1452783E0,3.5830406E1,1.1240253E0,9.6726265E1,8.354124E0,6.1211123E0,2.0127752E0,3.6441983E2,3.658387E3,6.059356E1,9.852024E0,5.6858654E1,1.0650883E0,3.5204237E0,1.1764153E0],"tree_param":{"num_deleted":"0","num_feature":"9286","num_nodes":"87","size_leaf_vector":"1"}},{"base_weights":[-1.9730592E-1,6.5647457E-3,-3.5111502E-1,1.7343439E-1,-1.4252491E-1,-3.8714123E-1,1.6799997E-1,-9.003774E-2,3.4172228E-1,-3.2017297E-1,-1.4270992E-3,8.311183E-1,-3.9890185E-1,-3.2275563E-1,4.504984E-1,1.35844E-1,-2.705996E-1,-7.806621E-2,4.284666E-1,1.8102813E-1,-3.818057E-1,6.881303E-2,-4.4088405E-1,-1.1353564E-1,1.0370103E0,-4.2977172E-1,2.3777774E-2,3.0857548E-1,-4.7879776E-1,5.494666E-1,-4.8827535E-1,8.6150366E-1,-1.5482156E-2,9.878789E-1,-2.9698378E-1,-2.3156321E-1,6.0085523E-1,8.7695636E-2,5.521497E-1,5.792333E-1,-1.6717473E-1,1.888023E-1,-4.263172E-1,-3.3848632E-2,4.453687E-1,8.99954E-1,-5.0328636E-1,5.1770855E-2,-4.739573E-2,-3.6090646E-2,1.1540856E0,6.6611487E-1,-4.4002217E-1,-2.4606161E-1,4.2961115E-1,1.0244793E0,-1.861797E-1,-5.391602E-1,9.616039E-2,6.49856E-1,-4.5908523E-1,1.2882784E-2,-5.7916578E-2,1.0798653E-1,-1.626907E-2,-3.4620285E-2,2.6202587E-2,1.1716055E-2,1.2852085E-1,7.8622885E-2,-3.273156E-2,7.0149496E-2,-3.239361E-2,-1.6347412E-2,1.0765705E-1,5.0254118E-2,-2.0707665E-2,6.1748948E-2,-5.4841815E-3,9.046091E-2,-3.8415905E-2,-3.2039728E-2,7.952408E-2,-1.8990679E-2,8.464784E-2,1.9748365E-3,-4.7932986E-2,-1.1763555E-2,4.7289345E-2,5.8297765E-2,-3.540106E-2,1.0986934E-2,1.2178166E-1,-5.4300513E-2,6.59604E-2,1.3111757E-1,1.2636113E-2,2.5259385E-2,1.4633852E-1,4.8474588E-2,-4.513012E-2,9.113835E-2,-3.731201E-2,1.09901145E-1,2.0473214E-2,9.800359E-3,1.2735924E-1,-5.4475527E-2,1.03178345E-1,-5.8128834E-2,5.8589566E-2,4.912236E-3,8.312731E-2,-5.6439854E-2,1.6563563E-2],"categories":[],"categories_nodes":[],"categories_segments":[],"categories_sizes":[],"default_left":[0,0,1,1,1,0,0,0,1,0,1,0,1,0,1,0,0,1,0,0,0,1,0,0,0,0,1,0,1,1,0,0,0,0,0,0,1,0,1,0,1,0,0,1,1,0,1,0,0,0,1,1,0,0,0,0,0,1,0,0,1,0,0,0,0,0,0,0,0,0,0,0,0,0,0,0,0,0,0,0,0,0,0,0,0,0,0,0,0,0,0,0,0,0,0,0,0,0,0,0,0,0,0,0,0,0,0,0,0,0,0,0,0,0,0],"id":14,"left_children":[1,3,5,7,9,11,13,15,17,19,21,23,25,27,29,31,33,35,37,39,41,43,45,47,49,51,53,55,57,59,61,63,65,67,69,71,73,75,77,79,81,83,85,87,89,91,93,-1,-1,-1,95,97,99,101,103,105,107,109,-1,111,113,-1,-1,-1,-1,-1,-1,-1,-1,-1,-1,-1,-1,-1,-1,-1,-1,-1,-1,-1,-1,-1,-1,-1,-1,-1,-1,-1,-1,-1,-1,-1,-1,-1,-1,-1,-1,-1,-1,-1,-1,-1,-1,-1,-1,-1,-1,-1,-1,-1,-1,-1,-1,-1,-1],"loss_changes":[1.3105394E2,4.476054E1,4.461548E1,3.7672127E1,2.3817715E1,3.225128E1,2.1674244E1,1.3564737E1,1.8905373E1,1.3062492E1,1.6408613E1,4.3238583E0,2.8810394E1,5.794117E0,9.463772E0,1.6267189E1,6.425107E0,9.476346E0,1.8060661E1,6.5774827E0,9.602161E0,1.773364E1,6.5823326E0,1.3309022E0,3.3385963E0,2.3400757E1,1.666123E1,4.4293685E0,4.548274E0,9.411139E0,6.337304E-1,5.891651E0,1.1421396E1,8.910024E-1,6.2254467E0,6.5878305E0,6.284499E0,1.4240941E1,1.252906E1,7.2524896E0,4.046243E0,7.09006E0,8.240292E0,1.5386616E1,1.1015211E1,7.7440286E-1,3.6208916E0,0E0,0E0,0E0,2.5325298E0,6.0462065E0,2.14823E1,1.3787369E1,8.918346E0,1.0393801E0,4.0221357E0,2.4793396E0,0E0,8.925327E0,6.681E-1,0E0,0E0,0E0,0E0,0E0,0E0,0E0,0E0,0E0,0E0,0E0,0E0,0E0,0E0,0E0,0E0,0E0,0E0,0E0,0E0,0E0,0E0,0E0,0E0,0E0,0E0,0E0,0E0,0E0,0E0,0E0,0E0,0E0,0E0,0E0,0E0,0E0,0E0,0E0,0E0,0E0,0E0,0E0,0E0,0E0,0E0,0E0,0E0,0E0,0E0,0E0,0E0,0E0,0E0],"parents":[2147483647,0,0,1,1,2,2,3,3,4,4,5,5,6,6,7,7,8,8,9,9,10,10,11,11,12,12,13,13,14,14,15,15,16,16,17,17,18,18,19,19,20,20,21,21,22,22,23,23,24,24,25,25,26,26,27,27,28,28,29,29,30,30,31,31,32,32,33,33,34,34,35,35,36,36,37,37,38,38,39,39,40,40,41,41,42,42,43,43,44,44,45,45,46,46,50,50,51,51,52,52,53,53,54,54,55,55,56,56,57,57,59,59,60,60],"right_children":[2,4,6,8,10,12,14,16,18,20,22,24,26,28,30,32,34,36,38,40,42,44,46,48,50,52,54,56,58,60,62,64,66,68,70,72,74,76,78,80,82,84,86,88,90,92,94,-1,-1,-1,96,98,100,102,104,106,108,110,-1,112,114,-1,-1,-1,-1,-1,-1,-1,-1,-1,-1,-1,-1,-1,-1,-1,-1,-1,-1,-1,-1,-1,-1,-1,-1,-1,-1,-1,-1,-1,-1,-1,-1,-1,-1,-1,-1,-1,-1,-1,-1,-1,-1,-1,-1,-1,-1,-1,-1,-1,-1,-1,-1,-1,-1],"split_conditions":[5.1863633E-2,1.7517205E-2,2.6596379E-2,1.37962755E-2,4.061667E-2,5.244826E-2,1.1086341E-1,3.667725E-2,6.927669E-2,5.1099354E-1,3.0318681E-2,1.6977597E-2,4.1366886E-2,5.0588425E-2,5.3356856E-2,5.147819E-2,6.2118366E-2,5.6700893E-2,1.2467517E-1,4.3244533E-2,4.4590447E-2,3.1625193E-2,5.513244E-2,1.9845257E-2,3.274134E-2,6.637915E-2,1.473092E-2,1.6944634E-2,5.6462966E-2,3.04945E-2,3.1385735E-2,7.503977E-2,4.790808E-2,3.3993308E-2,8.765519E-2,4.144666E-2,1.4127344E-2,1.0805934E-1,3.286712E-2,6.559261E-2,5.153806E-2,4.2117897E-2,5.8928978E-2,2.5506847E-2,3.1767797E-2,7.6396115E-2,8.278345E-2,5.1770855E-2,-4.739573E-2,-3.6090646E-2,3.313075E-2,2.603326E-2,5.3958904E-2,5.4915313E-2,7.895496E-2,7.062046E-2,1.01835616E-1,5.4657985E-2,9.616039E-2,2.171433E-2,7.8408234E-2,1.2882784E-2,-5.7916578E-2,1.0798653E-1,-1.626907E-2,-3.4620285E-2,2.6202587E-2,1.1716055E-2,1.2852085E-1,7.8622885E-2,-3.273156E-2,7.0149496E-2,-3.239361E-2,-1.6347412E-2,1.0765705E-1,5.0254118E-2,-2.0707665E-2,6.1748948E-2,-5.4841815E-3,9.046091E-2,-3.8415905E-2,-3.2039728E-2,7.952408E-2,-1.8990679E-2,8.464784E-2,1.9748365E-3,-4.7932986E-2,-1.1763555E-2,4.7289345E-2,5.8297765E-2,-3.540106E-2,1.0986934E-2,1.2178166E-1,-5.4300513E-2,6.59604E-2,1.3111757E-1,1.2636113E-2,2.5259385E-2,1.4633852E-1,4.8474588E-2,-4.513012E-2,9.113835E-2,-3.731201E-2,1.09901145E-1,2.0473214E-2,9.800359E-3,1.2735924E-1,-5.4475527E-2,1.03178345E-1,-5.8128834E-2,5.8589566E-2,4.912236E-3,8.312731E-2,-5.6439854E-2,1.6563563E-2],"split_indices":[8031,8388,5187,7974,3297,1919,8932,2492,8523,4173,5675,7114,5701,7509,2200,8699,834,8105,2528,5188,1923,6625,7854,2489,2841,2631,5002,2861,8515,3439,4577,7816,3043,431,2506,7444,7902,4792,6564,1891,1926,5336,6295,2510,4915,965,6899,0,0,0,5675,3942,7494,2793,5296,4336,5250,3801,0,3297,7740,0,0,0,0,0,0,0,0,0,0,0,0,0,0,0,0,0,0,0,0,0,0,0,0,0,0,0,0,0,0,0,0,0,0,0,0,0,0,0,0,0,0,0,0,0,0,0,0,0,0,0,0,0,0],"split_type":[0,0,0,0,0,0,0,0,0,0,0,0,0,0,0,0,0,0,0,0,0,0,0,0,0,0,0,0,0,0,0,0,0,0,0,0,0,0,0,0,0,0,0,0,0,0,0,0,0,0,0,0,0,0,0,0,0,0,0,0,0,0,0,0,0,0,0,0,0,0,0,0,0,0,0,0,0,0,0,0,0,0,0,0,0,0,0,0,0,0,0,0,0,0,0,0,0,0,0,0,0,0,0,0,0,0,0,0,0,0,0,0,0,0,0],"sum_hessian":[4.1783213E3,1.7971691E3,2.381152E3,8.4794147E2,9.4922766E2,2.2268635E3,1.5428853E2,3.306849E2,5.1725653E2,4.1962857E2,5.295991E2,2.0625671E1,2.206238E3,5.631527E1,9.797326E1,1.4701622E2,1.8366869E2,8.859788E1,4.2865866E2,4.573899E1,3.738896E2,4.573435E2,7.22556E1,3.7712684E0,1.6854403E1,2.0560596E3,1.501784E2,1.0966871E1,4.5348396E1,8.9004814E1,8.968445E0,2.4558233E1,1.22457985E2,3.023242E0,1.8064545E2,7.279795E1,1.5799928E1,1.1460599E2,3.1405267E2,2.1027933E1,2.471106E1,2.682096E1,3.4706863E2,3.6008295E2,9.7260544E1,2.6163478E0,6.963925E1,1.2120614E0,2.559207E0,1.1415257E0,1.5712877E1,1.846036E1,2.0375991E3,9.043902E1,5.9739388E1,4.0442376E0,6.9226336E0,4.4124954E1,1.2234428E0,8.127091E1,7.7339015E0,1.0977616E0,7.870683E0,2.0197668E1,4.360566E0,5.575925E1,6.669873E1,1.124431E0,1.8988109E0,4.2417746E0,1.7640367E2,5.963769E0,6.683418E1,6.3130865E0,9.486841E0,4.731406E1,6.729193E1,2.835162E2,3.053647E1,1.5764614E1,5.2633185E0,2.1892696E1,2.8183637E0,1.7471567E1,9.349392E0,3.693269E1,3.1013596E2,3.0965167E2,5.0431282E1,8.320752E1,1.4053023E1,1.1366706E0,1.4796773E0,6.785472E1,1.7845343E0,1.3390331E1,2.3225462E0,1.3022691E1,5.4376683E0,2.4046476E1,2.0135527E3,8.335297E0,8.210372E1,1.404483E1,4.5694557E1,1.1522648E0,2.8919728E0,5.775133E0,1.147501E0,4.2998196E1,1.1267579E0,1.9145254E1,6.212566E1,6.700854E0,1.0330477E0],"tree_param":{"num_deleted":"0","num_feature":"9286","num_nodes":"115","size_leaf_vector":"1"}},{"base_weights":[-5.196761E-1,3.2422101E-1,-5.3719985E-1,6.170372E-1,-2.1552058E-1,-5.4961795E-1,1.2201466E-1,8.278791E-1,-4.611711E-1,-4.9239856E-1,1.0379434E0,-5.584206E-1,3.795152E-2,-1.7024444E-1,9.316052E-1,-3.6078465E-1,9.7089E-1,1.6684053E-2,-5.6107998E-2,-5.693074E-1,5.6200277E-2,1.2470334E-1,1.131432E-2,-2.2770153E-1,-5.7128716E-1,-2.3256002E-1,5.5537647E-1,-3.3362225E-1,9.790341E-1,1.0514721E0,-3.671677E-2,1.2343969E-2,-5.1220845E-2,1.1134353E0,-3.1609255E-1,1.6103767E-2,-6.1089784E-2,-3.5976827E-1,7.617506E-1,2.1085827E-1,-5.7798725E-1,1.2520254E-1,-3.481822E-1,7.265136E-1,-4.5903012E-2,8.368217E-2,-4.049475E-1,1.1629709E-1,6.5425537E-3,-3.580464E-2,1.1691884E0,-3.61978E-2,1.1730409E-1,-4.800295E-2,1.1111127E-2,-4.083588E-2,8.069972E-2,3.9628483E-3,1.3033849E-1,9.518363E-2,-1.8705172E-2,6.0774483E-2,-5.816179E-2,-4.7248654E-2,9.542079E-2,-4.1793805E-2,8.679613E-2,-4.9747135E-2,3.1650815E-2,1.2765022E-1,2.3297407E-3],"categories":[],"categories_nodes":[],"categories_segments":[],"categories_sizes":[],"default_left":[0,1,1,1,1,1,1,0,0,1,1,0,0,1,1,0,1,0,0,0,0,0,0,1,0,0,0,0,0,0,0,0,0,0,1,0,0,1,0,0,0,0,0,0,0,0,1,0,0,0,1,0,0,0,0,0,0,0,0,0,0,0,0,0,0,0,0,0,0,0,0],"id":15,"left_children":[1,3,5,7,9,11,13,15,17,19,21,23,25,27,29,31,33,-1,-1,35,-1,-1,-1,37,39,41,43,45,47,49,-1,-1,-1,51,53,-1,-1,55,57,59,61,-1,63,65,-1,-1,67,-1,-1,-1,69,-1,-1,-1,-1,-1,-1,-1,-1,-1,-1,-1,-1,-1,-1,-1,-1,-1,-1,-1,-1],"loss_changes":[5.783191E1,1.2766802E1,3.1338013E1,1.2221716E1,1.052571E1,1.9414307E1,1.7063725E1,7.8165264E0,6.6840804E-1,2.2915902E0,9.3064594E-1,1.55896E1,8.00669E0,1.0342418E1,3.3603954E0,4.625333E-1,7.593834E0,0E0,0E0,8.017893E-1,0E0,0E0,0E0,1.856884E1,1.875293E1,6.900866E0,3.7390761E0,4.2999706E0,1.0822968E0,3.3637543E0,0E0,0E0,0E0,3.5694656E0,3.8356093E-1,0E0,0E0,7.3707027E0,6.5220785E0,9.29731E0,1.5529785E1,0E0,6.2343583E0,3.142642E0,0E0,0E0,3.1877851E0,0E0,0E0,0E0,2.0135612E0,0E0,0E0,0E0,0E0,0E0,0E0,0E0,0E0,0E0,0E0,0E0,0E0,0E0,0E0,0E0,0E0,0E0,0E0,0E0,0E0],"parents":[2147483647,0,0,1,1,2,2,3,3,4,4,5,5,6,6,7,7,8,8,9,9,10,10,11,11,12,12,13,13,14,14,15,15,16,16,19,19,23,23,24,24,25,25,26,26,27,27,28,28,29,29,33,33,34,34,37,37,38,38,39,39,40,40,42,42,43,43,46,46,50,50],"right_children":[2,4,6,8,10,12,14,16,18,20,22,24,26,28,30,32,34,-1,-1,36,-1,-1,-1,38,40,42,44,46,48,50,-1,-1,-1,52,54,-1,-1,56,58,60,62,-1,64,66,-1,-1,68,-1,-1,-1,70,-1,-1,-1,-1,-1,-1,-1,-1,-1,-1,-1,-1,-1,-1,-1,-1,-1,-1,-1,-1],"split_conditions":[4.084684E-2,1.701543E-2,3.4751758E-2,2.5707005E-2,3.0759754E-2,7.5345024E-2,1.6205382E-2,3.9484024E-2,1.3981731E-2,5.1183715E-2,8.2455255E-2,5.5213764E-2,5.4663025E-2,3.8711E-2,3.267596E-2,7.883701E-3,4.651331E-2,1.6684053E-2,-5.6107998E-2,3.1588025E-2,5.6200277E-2,1.2470334E-1,1.131432E-2,2.1749001E-2,3.175378E-2,5.0252993E-2,3.9250884E-2,1.915936E-1,2.2158942E-1,1.4856612E-2,-3.671677E-2,1.2343969E-2,-5.1220845E-2,2.1405896E-2,4.4876505E-2,1.6103767E-2,-6.1089784E-2,3.6223922E-2,2.6395053E-2,8.8120066E-2,9.6460044E-2,1.2520254E-1,1.6024575E-1,6.063397E-2,-4.5903012E-2,8.368217E-2,5.171971E-2,1.1629709E-1,6.5425537E-3,-3.580464E-2,4.1415818E-2,-3.61978E-2,1.1730409E-1,-4.800295E-2,1.1111127E-2,-4.083588E-2,8.069972E-2,3.9628483E-3,1.3033849E-1,9.518363E-2,-1.8705172E-2,6.0774483E-2,-5.816179E-2,-4.7248654E-2,9.542079E-2,-4.1793805E-2,8.679613E-2,-4.9747135E-2,3.1650815E-2,1.2765022E-1,2.3297407E-3],"split_indices":[6859,455,2008,7489,4443,8486,4424,3194,2292,6629,957,2200,1094,7740,494,2066,7530,0,0,4494,0,0,0,2233,4003,6775,8388,7187,1519,6405,0,0,0,6795,1498,0,0,7717,7051,957,1259,0,2528,6293,0,0,4673,0,0,0,7070,0,0,0,0,0,0,0,0,0,0,0,0,0,0,0,0,0,0,0,0],"split_type":[0,0,0,0,0,0,0,0,0,0,0,0,0,0,0,0,0,0,0,0,0,0,0,0,0,0,0,0,0,0,0,0,0,0,0,0,0,0,0,0,0,0,0,0,0,0,0,0,0,0,0,0,0,0,0,0,0,0,0,0,0,0,0,0,0,0,0,0,0,0,0],"sum_hessian":[3.8978918E3,7.893808E1,3.8189536E3,5.1082184E1,2.7855896E1,3.7485066E3,7.044714E1,4.2921185E1,8.160997E0,2.331337E1,4.5425267E0,3.693226E3,5.5280373E1,5.23417E1,1.810544E1,4.445848E0,3.8475338E1,1.0281682E0,7.132829E0,2.2157269E1,1.1561013E0,3.4206982E0,1.1218284E0,1.3900357E2,3.5542227E3,3.6663246E1,1.8617126E1,4.6448452E1,5.8932524E0,1.6749958E1,1.355482E0,1.1031127E0,3.3427353E0,3.476017E1,3.7151651E0,1.0390567E0,2.1118212E1,1.2319638E2,1.5807193E1,2.9929277E1,3.5242932E3,1.9389238E0,3.472432E1,1.617252E1,2.4446073E0,2.051469E0,4.439698E1,4.678407E0,1.2148455E0,1.1336917E0,1.5616266E1,1.1527729E0,3.36074E1,2.5955021E0,1.119663E0,1.1889495E2,4.301431E0,7.234765E0,8.572428E0,9.970456E0,1.9958822E1,1.0250301E1,3.514043E3,3.2280575E1,2.443747E0,1.5639447E0,1.4608576E1,3.9625614E1,4.7713666E0,1.4174801E1,1.4414651E0],"tree_param":{"num_deleted":"0","num_feature":"9286","num_nodes":"71","size_leaf_vector":"1"}},{"base_weights":[1.9167402E-1,-1.4306045E-1,3.9579237E-1,1.8355171E-1,-3.0258182E-1,6.4356685E-1,1.4162134E-1,2.977935E-1,-4.2442757E-1,-3.5020936E-1,3.8295197E-1,7.2693634E-1,8.0711424E-2,5.4082967E-2,6.184366E-1,2.2909816E-1,1.1731932E0,-4.913486E-1,9.537855E-2,1.0785305E-1,-3.6673427E-1,-3.2568276E-1,6.887609E-1,8.9127487E-1,4.7895038E-1,9.6260965E-1,-1.5017115E-1,-3.1039463E-3,9.1673946E-1,1.1091337E0,3.892582E-1,3.756026E-1,-1.160386E-1,1.5540645E-3,1.2169936E0,6.816673E-2,-5.233082E-1,-3.930595E-1,3.97775E-1,-4.6975148E-1,7.657271E-2,9.713354E-1,3.4847412E-1,9.40941E-1,-3.205986E-1,5.5702376E-1,-3.4953508E-1,1.0759645E0,-2.9912156E-1,-4.2660132E-1,2.8401855E-2,-2.782022E-1,1.26567E-1,-1.2981363E-1,1.035085E0,-4.284635E-2,1.1522908E0,-1.3787745E-1,5.773784E-1,5.2480698E-2,-1.4360371E-2,3.1100882E-2,-3.4782466E-2,3.4984734E-2,1.2436467E-1,-6.074034E-2,-7.6972633E-3,-4.3931525E-2,2.244689E-3,2.092014E-2,1.3904366E-1,6.7301154E-2,-5.9900023E-2,1.09373465E-1,-2.266007E-2,-4.325256E-2,7.115294E-2,-1.651937E-2,9.677084E-2,-5.3494878E-2,2.2382455E-2,7.275968E-2,2.422336E-2,-4.8434827E-2,8.212107E-2,1.1629728E-1,-4.4488158E-2,4.9682674E-3,-4.7413822E-2,-5.036787E-2,1.0929348E-1,-4.8381343E-2,3.087127E-2,-3.3823572E-2,5.0774004E-2,-1.8029734E-2,2.690729E-2,-5.6167852E-2,6.457218E-2,-4.4854585E-2,1.0802416E-1,1.1907243E-1,4.938742E-3,-3.244758E-2,6.59893E-2,6.850257E-2,-3.8152006E-2],"categories":[],"categories_nodes":[],"categories_segments":[],"categories_sizes":[],"default_left":[0,1,1,1,0,1,1,1,1,0,0,1,0,1,0,1,0,0,0,0,1,1,0,1,1,1,0,0,0,0,0,1,1,0,0,0,1,0,1,0,0,1,0,0,1,1,1,1,0,1,0,1,0,1,0,0,1,1,1,0,0,0,0,0,0,0,0,0,0,0,0,0,0,0,0,0,0,0,0,0,0,0,0,0,0,0,0,0,0,0,0,0,0,0,0,0,0,0,0,0,0,0,0,0,0,0,0],"id":16,"left_children":[1,3,5,7,9,11,13,15,17,19,21,23,25,27,29,31,33,35,-1,-1,37,39,41,43,45,47,49,51,53,55,57,59,61,-1,63,-1,65,67,69,71,-1,73,75,77,79,81,83,85,87,89,91,93,95,97,99,-1,101,103,105,-1,-1,-1,-1,-1,-1,-1,-1,-1,-1,-1,-1,-1,-1,-1,-1,-1,-1,-1,-1,-1,-1,-1,-1,-1,-1,-1,-1,-1,-1,-1,-1,-1,-1,-1,-1,-1,-1,-1,-1,-1,-1,-1,-1,-1,-1,-1,-1],"loss_changes":[3.133098E2,9.057871E1,1.7928577E2,3.9768753E1,3.8259377E1,6.7607666E1,5.8705795E1,2.8659916E1,8.833492E0,2.6185776E1,1.6766132E1,5.07536E1,3.8252857E1,5.8713E1,2.410537E1,2.2660643E1,1.7436371E0,3.6240635E0,0E0,0E0,2.1904572E1,4.08464E0,4.81962E0,4.5693237E1,3.271077E1,5.895046E0,7.3766537E0,3.988452E1,9.298553E0,5.067253E0,1.4980968E1,2.4418968E1,1.3377298E1,0E0,3.387146E-1,0E0,3.159027E0,2.0097E1,6.5355997E0,3.58566E0,0E0,4.4629345E0,7.650388E0,2.1617493E1,3.67157E0,2.4512268E1,7.3277383E0,5.2774773E0,2.6741987E-1,7.415577E0,1.3297884E1,1.7071823E1,3.327947E1,3.1779358E0,4.945503E0,0E0,2.7944183E0,6.217679E0,1.1712791E1,0E0,0E0,0E0,0E0,0E0,0E0,0E0,0E0,0E0,0E0,0E0,0E0,0E0,0E0,0E0,0E0,0E0,0E0,0E0,0E0,0E0,0E0,0E0,0E0,0E0,0E0,0E0,0E0,0E0,0E0,0E0,0E0,0E0,0E0,0E0,0E0,0E0,0E0,0E0,0E0,0E0,0E0,0E0,0E0,0E0,0E0,0E0,0E0],"parents":[2147483647,0,0,1,1,2,2,3,3,4,4,5,5,6,6,7,7,8,8,9,9,10,10,11,11,12,12,13,13,14,14,15,15,16,16,17,17,20,20,21,21,22,22,23,23,24,24,25,25,26,26,27,27,28,28,29,29,30,30,31,31,32,32,34,34,36,36,37,37,38,38,39,39,41,41,42,42,43,43,44,44,45,45,46,46,47,47,48,48,49,49,50,50,51,51,52,52,53,53,54,54,56,56,57,57,58,58],"right_children":[2,4,6,8,10,12,14,16,18,20,22,24,26,28,30,32,34,36,-1,-1,38,40,42,44,46,48,50,52,54,56,58,60,62,-1,64,-1,66,68,70,72,-1,74,76,78,80,82,84,86,88,90,92,94,96,98,100,-1,102,104,106,-1,-1,-1,-1,-1,-1,-1,-1,-1,-1,-1,-1,-1,-1,-1,-1,-1,-1,-1,-1,-1,-1,-1,-1,-1,-1,-1,-1,-1,-1,-1,-1,-1,-1,-1,-1,-1,-1,-1,-1,-1,-1,-1,-1,-1,-1,-1,-1],"split_conditions":[1.2092689E-1,6.75216E-3,5.030684E-2,7.4911214E-2,5.5200857E-1,2.478418E-2,7.560507E-2,4.5855377E-2,4.0959913E-2,1.1571152E-1,9.6269235E-2,4.2285092E-2,6.142164E-2,3.6021467E-2,1.12127975E-1,2.7489372E-2,3.451359E-2,5.417991E-2,9.537855E-2,1.0785305E-1,5.9480105E-2,5.763057E-2,6.005438E-2,3.993212E-2,2.9103972E-2,7.0959635E-2,6.526855E-2,2.7482194E-1,3.905364E-2,3.1484082E-2,4.963837E-2,2.6398621E-2,3.4368403E-2,1.5540645E-3,3.6918823E-2,6.816673E-2,2.1702588E-1,3.405929E-2,2.1006787E-2,2.8694015E-2,7.657271E-2,2.7646601E-2,5.3777445E-2,4.1228097E-2,4.8902523E-2,1.656382E-2,4.9022183E-2,5.8616273E-2,2.2683704E-2,4.895701E-2,1.7931558E-1,4.8743386E-2,3.834074E-2,4.0695522E-2,4.4790074E-2,-4.284635E-2,1.640845E-1,5.4546542E-2,2.5811384E-2,5.2480698E-2,-1.4360371E-2,3.1100882E-2,-3.4782466E-2,3.4984734E-2,1.2436467E-1,-6.074034E-2,-7.6972633E-3,-4.3931525E-2,2.244689E-3,2.092014E-2,1.3904366E-1,6.7301154E-2,-5.9900023E-2,1.09373465E-1,-2.266007E-2,-4.325256E-2,7.115294E-2,-1.651937E-2,9.677084E-2,-5.3494878E-2,2.2382455E-2,7.275968E-2,2.422336E-2,-4.8434827E-2,8.212107E-2,1.1629728E-1,-4.4488158E-2,4.9682674E-3,-4.7413822E-2,-5.036787E-2,1.0929348E-1,-4.8381343E-2,3.087127E-2,-3.3823572E-2,5.0774004E-2,-1.8029734E-2,2.690729E-2,-5.6167852E-2,6.457218E-2,-4.4854585E-2,1.0802416E-1,1.1907243E-1,4.938742E-3,-3.244758E-2,6.59893E-2,6.850257E-2,-3.8152006E-2],"split_indices":[8031,7974,8321,8262,8321,6967,5726,6538,1598,5381,4155,7693,2116,3773,5886,959,7902,569,0,0,186,8316,6675,2861,5840,4792,6330,5701,1931,4515,4919,436,9229,0,683,0,371,8388,3510,5250,0,7388,6429,8197,8575,2428,2082,5194,1094,4098,6507,7604,4347,3062,4443,0,3901,5731,2988,0,0,0,0,0,0,0,0,0,0,0,0,0,0,0,0,0,0,0,0,0,0,0,0,0,0,0,0,0,0,0,0,0,0,0,0,0,0,0,0,0,0,0,0,0,0,0,0],"split_type":[0,0,0,0,0,0,0,0,0,0,0,0,0,0,0,0,0,0,0,0,0,0,0,0,0,0,0,0,0,0,0,0,0,0,0,0,0,0,0,0,0,0,0,0,0,0,0,0,0,0,0,0,0,0,0,0,0,0,0,0,0,0,0,0,0,0,0,0,0,0,0,0,0,0,0,0,0,0,0,0,0,0,0,0,0,0,0,0,0,0,0,0,0,0,0,0,0,0,0,0,0,0,0,0,0,0,0],"sum_hessian":[4.5837227E3,1.7364349E3,2.8472878E3,5.697497E2,1.1666853E3,1.4410103E3,1.4062775E3,4.800555E2,8.969419E1,1.0913525E3,7.5332695E1,1.2548516E3,1.8615868E2,1.1890868E3,2.1719066E2,4.4629507E2,3.376046E1,8.615434E1,3.5398529E0,1.174353E1,1.079609E3,2.2689812E1,5.2642887E1,7.5315027E2,5.0170135E2,3.7967106E1,1.4819156E2,1.1160955E3,7.2991394E1,6.792209E1,1.4926857E2,3.1324136E2,1.330537E2,1.2801666E0,3.2480293E1,1.7458876E0,8.4408455E1,1.0441407E3,3.5468246E1,2.0547132E1,2.142679E0,2.7747154E1,2.4895733E1,7.237139E2,2.943634E1,4.5879398E2,4.2907375E1,3.4972393E1,2.994712E0,5.761495E1,9.0576614E1,3.5718283E2,7.589126E2,7.4055686E0,6.558583E1,1.6106304E0,6.631146E1,3.9329525E1,1.0993904E2,2.4331044E2,6.993093E1,4.6689743E1,8.6363945E1,1.3898E0,3.1090492E1,7.072257E1,1.3685876E1,9.3949536E2,1.0464547E2,3.082352E1,4.6447244E0,1.6603057E0,1.8886827E1,2.5253826E1,2.4933271E0,7.839707E0,1.7056025E1,1.6977186E1,7.067367E2,2.113319E1,8.303151E0,2.967078E2,1.6208618E2,3.9002472E1,3.9049044E0,3.3302456E1,1.6699376E0,1.2398485E0,1.7548635E0,5.5469814E1,2.1451333E0,3.1779526E1,5.879709E1,3.3236508E2,2.4817759E1,2.4058496E2,5.1832764E2,4.9338546E0,2.4717143E0,1.6733793E0,6.391245E1,6.400153E1,2.3099256E0,3.2354977E1,6.9745507E0,9.9099594E1,1.0839448E1],"tree_param":{"num_deleted":"0","num_feature":"9286","num_nodes":"107","size_leaf_vector":"1"}},{"base_weights":[3.6416942E-1,-1.05610624E-1,4.1135347E-1,-3.7677643E-1,9.5347814E-2,-5.3593695E-1,4.2537543E-1,4.1841897E-1,-4.3000373E-1,7.706374E-1,1.5193746E-2,-5.647803E-1,5.8331456E-2,