{"learner":{"attributes":{},"feature_names":[],"feature_types":[],"gradient_booster":{"model":{"gbtree_model_param":{"num_parallel_tree":"1","num_trees":"100"},"iteration_indptr":[0,1,2,3,4,5,6,7,8,9,10,11,12,13,14,15,16,17,18,19,20,21,22,23,24,25,26,27,28,29,30,31,32,33,34,35,36,37,38,39,40,41,42,43,44,45,46,47,48,49,50,51,52,53,54,55,56,57,58,59,60,61,62,63,64,65,66,67,68,69,70,71,72,73,74,75,76,77,78,79,80,81,82,83,84,85,86,87,88,89,90,91,92,93,94,95,96,97,98,99,100],"tree_info":[0,0,0,0,0,0,0,0,0,0,0,0,0,0,0,0,0,0,0,0,0,0,0,0,0,0,0,0,0,0,0,0,0,0,0,0,0,0,0,0,0,0,0,0,0,0,0,0,0,0,0,0,0,0,0,0,0,0,0,0,0,0,0,0,0,0,0,0,0,0,0,0,0,0,0,0,0,0,0,0,0,0,0,0,0,0,0,0,0,0,0,0,0,0,0,0,0,0,0,0],"trees":[{"base_weights":[-6.502718E-10,-5.113284E-1,4.6300846E-1,-7.634185E-1,-3.0080387E-1,2.0919393E-1,7.193466E-1,-8.910135E-2,-6.590743E-2,-4.0823944E-2,-1.78541E-2,7.905777E-3,3.2577317E-2,5.8931436E-2,8.3639406E-2],"categories":[],"categories_nodes":[],"categories_segments":[],"categories_sizes":[],"default_left":[0,0,0,0,0,0,0,0,0,0,0,0,0,0,0],"id":0,"left_children":[1,3,5,7,9,11,13,-1,-1,-1,-1,-1,-1,-1,-1],"loss_changes":[1.5167554E2,1.5927528E1,2.1724472E1,1.248642E0,2.1279297E0,2.5586433E0,2.046791E0,0E0,0E0,0E0,0E0,0E0,0E0,0E0,0E0],"parents":[2147483647,0,0,1,1,2,2,3,3,4,4,5,5,6,6],"right_children":[2,4,6,8,10,12,14,-1,-1,-1,-1,-1,-1,-1,-1],"split_conditions":[2.8368793E-2,1.7021276E-2,4.2105265E-2,9.478673E-3,2.2988506E-2,3.448276E-2,5.2434456E-2,-8.910135E-2,-6.590743E-2,-4.0823944E-2,-1.78541E-2,7.905777E-3,3.2577317E-2,5.8931436E-2,8.3639406E-2],"split_indices":[10000,10000,10000,10000,10000,10000,10000,0,0,0,0,0,0,0,0],"split_type":[0,0,0,0,0,0,0,0,0,0,0,0,0,0,0],"sum_hessian":[6.386586E2,3.0344333E2,3.3521527E2,1.3689444E2,1.6654889E2,1.6934929E2,1.65866E2,5.8194E1,7.870045E1,8.7404915E1,7.9143974E1,8.0814766E1,8.853452E1,8.143346E1,8.443254E1],"tree_param":{"num_deleted":"0","num_feature":"10001","num_nodes":"15","size_leaf_vector":"1"}},{"base_weights":[2.3720196E-7,-6.162729E-1,3.1546533E-1,-8.756746E-1,-3.616458E-1,1.3587092E-1,6.3721436E-1,-9.0472126E-1,-9.338535E-2,-4.0873787E-1,4.1079223E-2,-1.2098771E-2,2.731705E-1,5.010236E-1,7.593631E-2,-9.178721E-2,-1.8152663E-3,-4.6910774E-2,3.0625982E-2,-4.7755152E-1,-4.3459922E-2,1.0880392E-1,-1.6727637E-1,3.0151454E-1,-4.0589068E-2,5.3976744E-2,1.4246215E-2,-6.193148E-1,-2.7754182E-2,1.3424206E-2,-3.45947E-2,1.764848E-1,-2.2285262E-1,-4.986389E-1,-4.8938215E-2,3.2462132E-1,-4.2302657E-2,-6.8486564E-2,1.0943671E-2,2.3964854E-2,-1.2022282E-2,-4.4589806E-2,3.167092E-3,-7.157547E-2,1.3658977E-2,-1.4555948E-2,1.2186801E-2,4.2745534E-2,1.8444447E-2],"categories":[],"categories_nodes":[],"categories_segments":[],"categories_sizes":[],"default_left":[0,0,0,0,0,0,0,0,0,0,0,0,0,0,0,0,0,0,0,0,0,0,0,0,0,0,0,0,0,0,0,0,0,0,0,0,0,0,0,0,0,0,0,0,0,0,0,0,0],"id":1,"left_children":[1,3,5,7,9,11,13,15,17,19,-1,21,23,25,-1,-1,-1,-1,-1,27,29,31,33,35,-1,-1,-1,37,-1,-1,-1,39,41,43,45,47,-1,-1,-1,-1,-1,-1,-1,-1,-1,-1,-1,-1,-1],"loss_changes":[1.7106934E2,1.9361382E1,3.3544205E1,3.252922E0,5.6987953E0,7.617536E0,3.0833664E0,1.6331253E0,1.1006649E0,3.5941486E0,0E0,3.4204233E0,3.864931E0,1.3316116E0,0E0,0E0,0E0,0E0,0E0,3.2565517E0,1.3310113E0,2.3408775E0,3.1051087E0,3.2718544E0,0E0,0E0,0E0,3.4164371E0,0E0,0E0,0E0,1.6351876E0,1.0257467E0,2.9792385E0,1.0065584E0,2.5447826E0,0E0,0E0,0E0,0E0,0E0,0E0,0E0,0E0,0E0,0E0,0E0,0E0,0E0],"parents":[2147483647,0,0,1,1,2,2,3,3,4,4,5,5,6,6,7,7,8,8,9,9,11,11,12,12,13,13,19,19,20,20,21,21,22,22,23,23,27,27,31,31,32,32,33,33,34,34,35,35],"right_children":[2,4,6,8,10,12,14,16,18,20,-1,22,24,26,-1,-1,-1,-1,-1,28,30,32,34,36,-1,-1,-1,38,-1,-1,-1,40,42,44,46,48,-1,-1,-1,-1,-1,-1,-1,-1,-1,-1,-1,-1,-1],"split_conditions":[4.4247787E-2,3.4653466E-2,6.25E-2,7.356751E-2,7.11566E-2,1.8965911E-2,7.070707E-2,1.4246342E-1,2.991453E-2,1.0290316E-1,4.1079223E-2,1.756032E-2,6.747254E-2,5.840913E-2,7.593631E-2,-9.178721E-2,-1.8152663E-3,-4.6910774E-2,3.0625982E-2,4.2105265E-2,3.014224E-2,2.0417444E-2,5.3333335E-2,7.993027E-2,-4.0589068E-2,5.3976744E-2,1.4246215E-2,2.8527876E-2,-2.7754182E-2,1.3424206E-2,-3.45947E-2,3.8658407E-2,5.5793993E-2,4.2292316E-2,2.0153083E-2,2.9474113E-2,-4.2302657E-2,-6.8486564E-2,1.0943671E-2,2.3964854E-2,-1.2022282E-2,-4.4589806E-2,3.167092E-3,-7.157547E-2,1.3658977E-2,-1.4555948E-2,1.2186801E-2,4.2745534E-2,1.8444447E-2],"split_indices":[10000,10000,10000,1370,1938,1365,10000,554,10000,4708,0,4698,4700,4745,0,0,0,0,0,10000,1643,1497,10000,4786,0,0,0,1822,0,0,0,1199,10000,5,102,102,0,0,0,0,0,0,0,0,0,0,0,0,0],"split_type":[0,0,0,0,0,0,0,0,0,0,0,0,0,0,0,0,0,0,0,0,0,0,0,0,0,0,0,0,0,0,0,0,0,0,0,0,0,0,0,0,0,0,0,0,0,0,0,0,0],"sum_hessian":[8.7792896E2,2.9692365E2,5.810053E2,1.4587465E2,1.51049E2,3.7378668E2,2.072186E2,1.405013E2,5.3733616E0,1.4281317E2,8.235829E0,1.8034175E2,1.9344495E2,1.0038983E2,1.06828766E2,1.3841284E2,2.0884452E0,2.6799877E0,2.693374E0,1.1991531E2,2.2897856E1,1.0153341E2,7.880834E1,1.8622777E2,7.2171707E0,9.014409E1,1.0245749E1,6.894904E1,5.0966267E1,1.4774494E1,8.123363E0,8.47138E1,1.6819607E1,1.9892635E1,5.8915703E1,1.8100713E2,5.220646E0,6.331418E1,5.6348634E0,7.000359E1,1.4710206E1,8.563394E0,8.256213E0,1.4730953E1,5.1616826E0,3.772393E1,2.1191774E1,1.0322885E2,7.777827E1],"tree_param":{"num_deleted":"0","num_feature":"10001","num_nodes":"49","size_leaf_vector":"1"}},{"base_weights":[7.119378E-8,-5.0310457E-1,3.3388457E-1,-8.383637E-1,-2.754382E-1,1.7536396E-1,4.2906448E-1,-8.613919E-1,-2.1641493E-2,-1.1918297E-1,-4.971783E-1,2.1182278E-1,-1.3364431E-2,3.830994E-1,7.061555E-2,-8.8062875E-2,-2.040496E-2,-1.770629E-1,2.3924055E-2,-5.502501E-1,1.8242259E-2,2.2427343E-1,-3.854963E-2,4.2688322E-1,2.1169188E-3,-2.3160599E-1,1.914154E-2,-8.104892E-2,-3.273176E-2,2.771747E-2,7.342341E-2,4.4600844E-1,3.6074098E-3,-4.8138097E-2,-1.3637197E-2,-2.9908007E-3,3.2389518E-2,4.912367E-2,2.856319E-2],"categories":[],"categories_nodes":[],"categories_segments":[],"categories_sizes":[],"default_left":[0,0,0,0,0,0,0,0,0,0,0,0,0,0,0,0,0,0,0,0,0,0,0,0,0,0,0,0,0,0,0,0,0,0,0,0,0,0,0],"id":2,"left_children":[1,3,5,7,9,11,13,15,-1,17,19,21,-1,23,-1,-1,-1,25,-1,27,-1,29,-1,31,-1,33,-1,-1,-1,-1,35,37,-1,-1,-1,-1,-1,-1,-1],"loss_changes":[1.4083131E2,2.5296135E1,7.528267E0,1.7438126E0,6.8936243E0,2.1773634E0,3.731163E0,1.4594193E0,0E0,2.511774E0,3.0809402E0,1.3582606E0,0E0,4.2960777E0,0E0,0E0,0E0,2.1155996E0,0E0,4.196186E0,0E0,1.321516E0,0E0,1.7949524E0,0E0,2.0804958E0,0E0,0E0,0E0,0E0,1.1748345E0,1.5346031E0,0E0,0E0,0E0,0E0,0E0,0E0,0E0],"parents":[2147483647,0,0,1,1,2,2,3,3,4,4,5,5,6,6,7,7,9,9,10,10,11,11,13,13,17,17,19,19,21,21,23,23,25,25,30,30,31,31],"right_children":[2,4,6,8,10,12,14,16,-1,18,20,22,-1,24,-1,-1,-1,26,-1,28,-1,30,-1,32,-1,34,-1,-1,-1,-1,36,38,-1,-1,-1,-1,-1,-1,-1],"split_conditions":[4.761905E-2,3.4653466E-2,5.625E-2,7.356751E-2,4.4306014E-3,2.2388706E-2,8.411215E-2,1.4246342E-1,-2.1641493E-2,5.9955154E-2,8.9970775E-2,6.0612485E-2,-1.3364431E-2,2.5222862E-2,7.061555E-2,-8.8062875E-2,-2.040496E-2,2.5738765E-2,2.3924055E-2,4.4247787E-2,1.8242259E-2,4.6660762E-2,-3.854963E-2,2.9395266E-2,2.1169188E-3,3.984064E-2,1.914154E-2,-8.104892E-2,-3.273176E-2,2.771747E-2,4.5005832E-2,2.0905847E-2,3.6074098E-3,-4.8138097E-2,-1.3637197E-2,-2.9908007E-3,3.2389518E-2,4.912367E-2,2.856319E-2],"split_indices":[10000,10000,10000,1370,102,3590,10000,554,0,324,184,2901,0,93,0,0,0,1509,0,10000,0,4974,0,2834,0,10000,0,0,0,0,3878,4700,0,0,0,0,0,0,0],"split_type":[0,0,0,0,0,0,0,0,0,0,0,0,0,0,0,0,0,0,0,0,0,0,0,0,0,0,0,0,0,0,0,0,0,0,0,0,0,0,0],"sum_hessian":[8.3638727E2,3.334422E2,5.0294504E2,1.337706E2,1.9967162E2,1.8975452E2,3.1319052E2,1.2862323E2,5.1473722E0,1.1803355E2,8.163807E1,1.7001012E2,1.97444E1,2.7067273E2,4.25178E1,1.24636116E2,3.9871101E0,1.0205863E2,1.59749155E1,7.5901085E1,5.7369814E0,1.6715053E2,2.8595865E0,2.413022E2,2.9370516E1,8.922306E1,1.2835571E1,3.3804268E1,4.209682E1,1.2313216E2,4.401837E1,2.2990974E2,1.1392458E1,2.3509312E1,6.5713745E1,3.1785816E1,1.2232557E1,1.7772575E2,5.2183987E1],"tree_param":{"num_deleted":"0","num_feature":"10001","num_nodes":"39","size_leaf_vector":"1"}},{"base_weights":[-2.040565E-9,-6.8456674E-1,2.0782375E-1,-7.9796207E-1,-4.2326483E-1,3.9734527E-2,3.9368486E-1,-8.2231385E-1,-2.4716867E-2,-6.698966E-1,-1.8071124E-1,-7.512012E-2,1.6313021E-1,3.343829E-1,5.6035925E-2,-8.418331E-2,-1.8263651E-2,-7.576594E-2,-8.159874E-3,-5.1799E-1,-7.915219E-3,5.3298816E-2,-2.5648165E-1,1.8414514E-1,-5.7327848E-2,3.4597215E-1,-3.517352E-2,-7.466129E-2,-8.274427E-3,7.2131976E-3,-5.8125194E-2,-6.527372E-2,8.444428E-2,-6.0495842E-2,-1.6267832E-1,2.258613E-1,-1.2919786E-2,3.8941484E-2,1.6907036E-2,1.1713224E-2,-4.0125564E-2,-3.9533414E-3,-3.4188967E-2,2.4760779E-2,-3.032134E-2],"categories":[],"categories_nodes":[],"categories_segments":[],"categories_sizes":[],"default_left":[0,0,0,0,0,0,0,0,0,0,0,0,0,0,0,0,0,0,0,0,0,0,0,0,0,0,0,0,0,0,0,0,0,0,0,0,0,0,0,0,0,0,0,0,0],"id":3,"left_children":[1,3,5,7,9,11,13,15,-1,17,19,21,23,25,-1,-1,-1,-1,-1,27,29,31,33,35,-1,37,-1,-1,-1,-1,-1,-1,39,-1,41,43,-1,-1,-1,-1,-1,-1,-1,-1,-1],"loss_changes":[1.1704676E2,5.3393555E0,1.9701212E1,1.5737228E0,3.474988E0,4.7248387E0,2.7739258E0,1.4250412E0,0E0,1.4580021E0,1.8420187E0,4.0406046E0,2.5911374E0,1.8985367E0,0E0,0E0,0E0,0E0,0E0,1.0044811E0,1.0498085E0,2.299264E0,2.2501845E0,2.0802646E0,0E0,1.6268044E0,0E0,0E0,0E0,0E0,0E0,0E0,1.6128641E0,0E0,1.2659941E0,1.6725168E0,0E0,0E0,0E0,0E0,0E0,0E0,0E0,0E0,0E0],"parents":[2147483647,0,0,1,1,2,2,3,3,4,4,5,5,6,6,7,7,9,9,10,10,11,11,12,12,13,13,19,19,20,20,21,21,22,22,23,23,25,25,32,32,34,34,35,35],"right_children":[2,4,6,8,10,12,14,16,-1,18,20,22,24,26,-1,-1,-1,-1,-1,28,30,32,34,36,-1,38,-1,-1,-1,-1,-1,-1,40,-1,42,44,-1,-1,-1,-1,-1,-1,-1,-1,-1],"split_conditions":[4.0590405E-2,3.4653466E-2,5.8139537E-2,7.356751E-2,4.539604E-2,4.9763035E-2,7.590759E-2,1.4246342E-1,-2.4716867E-2,1.7924011E-1,2.6882114E-2,4.4306014E-3,4.1902136E-2,3.3171903E-2,5.6035925E-2,-8.418331E-2,-1.8263651E-2,-7.576594E-2,-8.159874E-3,1.6733564E-2,2.680643E-2,1.3647921E-2,4.453441E-2,3.580786E-2,-5.7327848E-2,2.0417444E-2,-3.517352E-2,-7.466129E-2,-8.274427E-3,7.2131976E-3,-5.8125194E-2,-6.527372E-2,2.9284498E-2,-6.0495842E-2,2.1901304E-2,3.363645E-2,-1.2919786E-2,3.8941484E-2,1.6907036E-2,1.1713224E-2,-4.0125564E-2,-3.9533414E-3,-3.4188967E-2,2.4760779E-2,-3.032134E-2],"split_indices":[10000,10000,10000,1370,4708,10000,10000,554,0,3090,1365,102,500,273,0,0,0,0,0,3,102,3630,10000,4582,0,1497,0,0,0,0,0,0,1190,0,4974,1497,0,0,0,0,0,0,0,0,0],"split_type":[0,0,0,0,0,0,0,0,0,0,0,0,0,0,0,0,0,0,0,0,0,0,0,0,0,0,0,0,0,0,0,0,0,0,0,0,0,0,0,0,0,0,0,0,0],"sum_hessian":[8.2071313E2,1.9059698E2,6.301161E2,1.31484E2,5.911299E1,3.3151453E2,2.986016E2,1.2544485E2,6.039151E0,2.8436514E1,3.067648E1,1.7190211E2,1.5961243E2,2.2245818E2,7.61434E1,1.2142367E2,4.021175E0,2.4494518E1,3.941996E0,9.715398E0,2.0961082E1,1.010538E2,7.084832E1,1.5591306E2,3.6993582E0,2.1925056E2,3.2076118E0,5.9005923E0,3.8148053E0,1.9160194E1,1.800888E0,3.426261E0,9.762754E1,1.3870517E1,5.69778E1,1.3784111E2,1.8071953E1,1.750591E2,4.4191467E1,9.2182434E1,5.445108E0,3.4495113E1,2.2482685E1,1.3291013E2,4.930989E0],"tree_param":{"num_deleted":"0","num_feature":"10001","num_nodes":"45","size_leaf_vector":"1"}},{"base_weights":[-1.06614975E-8,-6.403673E-1,1.9196543E-1,-7.613571E-1,-3.8299933E-1,8.4746115E-2,4.4638288E-1,-7.875808E-1,-2.1065223E-1,-6.050958E-1,-1.7956401E-1,-1.5302119E-1,1.3402943E-1,4.8323244E-2,2.0309883E-1,-8.075245E-2,-1.692709E-2,-6.4594306E-2,1.55100925E-2,-7.248389E-1,-3.9888057E-3,-1.0291982E-2,-6.511801E-2,-2.1182401E-2,-4.0746716E-1,1.512091E-1,-2.3766318E-1,8.9845415E-3,5.817786E-2,-7.956404E-2,-1.9781932E-3,3.8563989E-3,-5.000022E-2,-5.6746036E-2,-1.0749533E-2,5.427042E-2,1.9462316E-1,-4.290427E-2,7.770866E-3,1.3012089E-2,-8.45285E-3,1.4772512E-2,3.249951E-2],"categories":[],"categories_nodes":[],"categories_segments":[],"categories_sizes":[],"default_left":[0,0,0,0,0,0,0,0,0,0,0,0,0,0,0,0,0,0,0,0,0,0,0,0,0,0,0,0,0,0,0,0,0,0,0,0,0,0,0,0,0,0,0],"id":4,"left_children":[1,3,5,7,9,11,13,15,17,19,21,23,25,-1,27,-1,-1,-1,-1,29,-1,-1,-1,31,33,35,37,-1,-1,-1,-1,-1,-1,-1,-1,39,41,-1,-1,-1,-1,-1,-1],"loss_changes":[1.0007906E2,5.555237E0,1.704828E1,1.6639786E0,2.6951504E0,5.198538E0,1.5645828E0,1.350296E0,1.2344892E0,1.9503832E0,1.1551112E0,2.5520606E0,2.376587E0,0E0,1.0680323E0,0E0,0E0,0E0,0E0,1.1860209E0,0E0,0E0,0E0,1.4878936E0,1.1867313E0,1.4665041E0,1.0341904E0,0E0,0E0,0E0,0E0,0E0,0E0,0E0,0E0,1.1685443E0,1.4317579E0,0E0,0E0,0E0,0E0,0E0,0E0],"parents":[2147483647,0,0,1,1,2,2,3,3,4,4,5,5,6,6,7,7,8,8,9,9,10,10,11,11,12,12,14,14,19,19,23,23,24,24,25,25,26,26,35,35,36,36],"right_children":[2,4,6,8,10,12,14,16,18,20,22,24,26,-1,28,-1,-1,-1,-1,30,-1,-1,-1,32,34,36,38,-1,-1,-1,-1,-1,-1,-1,-1,40,42,-1,-1,-1,-1,-1,-1],"split_conditions":[4.109589E-2,3.4653466E-2,6.521739E-2,7.356751E-2,4.539604E-2,4.605263E-2,2.922091E-2,1.4246342E-1,2.8571429E-2,5.5808477E-2,1.2738461E-2,4.4306014E-3,1.2729977E-2,4.8323244E-2,9.7222224E-2,-8.075245E-2,-1.692709E-2,-6.4594306E-2,1.55100925E-2,4.8660836E-1,-3.9888057E-3,-1.0291982E-2,-6.511801E-2,2.1366881E-2,7.452886E-2,5.078125E-2,1.8801142E-2,8.9845415E-3,5.817786E-2,-7.956404E-2,-1.9781932E-3,3.8563989E-3,-5.000022E-2,-5.6746036E-2,-1.0749533E-2,1.6686164E-2,3.8516898E-2,-4.290427E-2,7.770866E-3,1.3012089E-2,-8.45285E-3,1.4772512E-2,3.249951E-2],"split_indices":[10000,10000,10000,1370,4708,10000,4076,554,10000,4839,4449,102,4168,0,10000,0,0,0,0,434,0,0,0,1474,4976,10000,632,0,0,0,0,0,0,0,0,4974,4381,0,0,0,0,0,0],"split_type":[0,0,0,0,0,0,0,0,0,0,0,0,0,0,0,0,0,0,0,0,0,0,0,0,0,0,0,0,0,0,0,0,0,0,0,0,0,0,0,0,0,0,0],"sum_hessian":[8.1212494E2,1.8676607E2,6.253588E2,1.2571067E2,6.1055393E1,4.4088815E2,1.8447067E2,1.1958606E2,6.1246147E0,2.824504E1,3.2810352E1,7.533408E1,3.6555408E2,1.5934834E2,2.5122332E1,1.15552864E2,4.0331926E0,2.4466915E0,3.6779234E0,2.3074188E1,5.1708536E0,2.9271545E1,3.538807E0,5.0336136E1,2.4997946E1,3.4997156E2,1.5582524E1,2.0291056E1,4.8312764E0,2.0851786E1,2.2224028E0,4.5569504E1,4.766632E0,1.5721176E1,9.276771E0,1.08949585E2,2.4102197E2,9.473322E0,6.1092024E0,7.049059E1,3.8458992E1,1.7882666E2,6.219531E1],"tree_param":{"num_deleted":"0","num_feature":"10001","num_nodes":"43","size_leaf_vector":"1"}},{"base_weights":[8.845797E-9,-5.5939484E-1,1.9825032E-1,-7.167471E-1,-2.7835622E-1,6.0956605E-2,3.650655E-2,-7.441225E-1,-2.651218E-2,-1.450534E-1,-5.991962E-1,7.116193E-2,-5.59448E-2,-7.622557E-2,-1.748278E-2,-4.815908E-2,-5.202843E-2,-7.192507E-2,1.0783147E-2,-4.2940713E-2,1.2802094E-1,-2.3124361E-2,8.666576E-3,1.18176E-3,-4.773708E-2,1.4145307E-1,-4.1043364E-2,3.2984738E-3,-4.3143287E-2,1.1905589E-2,4.4529475E-2],"categories":[],"categories_nodes":[],"categories_segments":[],"categories_sizes":[],"default_left":[0,0,0,0,0,0,0,0,0,0,0,0,0,0,0,0,0,0,0,0,0,0,0,0,0,0,0,0,0,0,0],"id":5,"left_children":[1,3,5,7,9,11,-1,13,-1,15,17,19,-1,-1,-1,21,-1,-1,-1,23,25,-1,-1,27,-1,29,-1,-1,-1,-1,-1],"loss_changes":[8.961631E1,9.151131E0,1.3642237E1,1.4707642E0,3.2289624E0,2.119535E0,0E0,1.174202E0,0E0,2.0143373E0,1.9821119E0,2.1078405E0,0E0,0E0,0E0,1.1476849E0,0E0,0E0,0E0,2.080721E0,1.6240997E0,0E0,0E0,1.3833804E0,0E0,1.3896842E0,0E0,0E0,0E0,0E0,0E0],"parents":[2147483647,0,0,1,1,2,2,3,3,4,4,5,5,7,7,9,9,10,10,11,11,15,15,19,19,20,20,23,23,25,25],"right_children":[2,4,6,8,10,12,-1,14,-1,16,18,20,-1,-1,-1,22,-1,-1,-1,24,26,-1,-1,28,-1,30,-1,-1,-1,-1,-1],"split_conditions":[4.347826E-2,3.5714287E-2,6E-2,1.5447953E-1,4.4306014E-3,1.4834352E-2,3.650655E-2,1.4246342E-1,-2.651218E-2,2.6415898E-2,8.9970775E-2,4.8780486E-2,-5.59448E-2,-7.622557E-2,-1.748278E-2,5.4969266E-2,-5.202843E-2,-7.192507E-2,1.0783147E-2,7.6676935E-2,6.611814E-2,-2.3124361E-2,8.666576E-3,1.412716E-2,-4.773708E-2,3.5383645E-2,-4.1043364E-2,3.2984738E-3,-4.3143287E-2,1.1905589E-2,4.4529475E-2],"split_indices":[10000,10000,10000,1938,102,2060,0,554,0,4449,184,10000,0,0,0,4708,0,0,0,4974,2881,0,0,3419,0,4460,0,0,0,0,0],"split_type":[0,0,0,0,0,0,0,0,0,0,0,0,0,0,0,0,0,0,0,0,0,0,0,0,0,0,0,0,0,0,0],"sum_hessian":[8.060806E2,2.1044759E2,5.9563306E2,1.3391745E2,7.653014E1,3.274761E2,2.6815692E2,1.2565328E2,8.26416E0,5.5092415E1,2.1437729E1,3.2304745E2,4.42866E0,1.2144602E2,4.207261E0,4.4682564E1,1.0409848E1,1.8311174E1,3.1265552E0,1.0752164E2,2.1552582E2,1.8646513E1,2.6036053E1,9.851349E1,9.008148E0,2.1099959E2,4.526236E0,9.262785E1,5.8856344E0,1.9781018E2,1.3189411E1],"tree_param":{"num_deleted":"0","num_feature":"10001","num_nodes":"31","size_leaf_vector":"1"}},{"base_weights":[-3.965261E-8,-5.950862E-1,1.6730861E-1,-7.097662E-1,-3.5624275E-1,-1.0872958E-2,2.8747246E-1,-7.3936485E-2,-2.7036354E-2,-4.5942196E-1,1.3727387E-3,1.9042494E-2,-2.8790668E-2,2.1601298E-1,3.9231878E-2,-5.178434E-1,4.9299416E-3,4.1715447E-2,-3.7956122E-2,2.3963134E-1,-8.19693E-3,-2.6661605E-2,-7.367347E-2,1.0678644E-1,-6.2250175E-2,2.667791E-1,4.110773E-3,1.2680766E-2,-3.316835E-2,-4.6578977E-2,-2.5273364E-3,2.7981743E-2,-1.5419143E-2],"categories":[],"categories_nodes":[],"categories_segments":[],"categories_sizes":[],"default_left":[0,0,0,0,0,0,0,0,0,0,0,0,0,0,0,0,0,0,0,0,0,0,0,0,0,0,0,0,0,0,0,0,0],"id":6,"left_children":[1,3,5,7,9,11,13,-1,-1,15,-1,17,-1,19,-1,21,-1,23,-1,25,-1,-1,-1,27,29,31,-1,-1,-1,-1,-1,-1,-1],"loss_changes":[8.001158E1,4.577675E0,1.3433594E1,1.3366051E0,2.266789E0,2.1072779E0,2.72233E0,0E0,0E0,1.4025335E0,0E0,2.0929165E0,0E0,1.6033773E0,0E0,2.0937738E0,0E0,1.4838878E0,0E0,1.1141386E0,0E0,0E0,0E0,1.2242918E0,1.2519397E0,1.0501356E0,0E0,0E0,0E0,0E0,0E0,0E0,0E0],"parents":[2147483647,0,0,1,1,2,2,3,3,4,4,5,5,6,6,9,9,11,11,13,13,15,15,17,17,19,19,23,23,24,24,25,25],"right_children":[2,4,6,8,10,12,14,-1,-1,16,-1,18,-1,20,-1,22,-1,24,-1,26,-1,-1,-1,28,30,32,-1,-1,-1,-1,-1,-1,-1],"split_conditions":[4.109589E-2,3.4653466E-2,5.4347824E-2,5.5453308E-2,1.1156967E-1,1.412716E-2,6.818182E-2,-7.3936485E-2,-2.7036354E-2,1.5447953E-1,1.3727387E-3,2.1507174E-2,-2.8790668E-2,1.2729977E-2,3.9231878E-2,2.0292899E-2,4.9299416E-3,1.4799442E-2,-3.7956122E-2,4.210721E-2,-8.19693E-3,-2.6661605E-2,-7.367347E-2,1.0119057E-2,4.3956045E-2,4.6915837E-2,4.110773E-3,1.2680766E-2,-3.316835E-2,-4.6578977E-2,-2.5273364E-3,2.7981743E-2,-1.5419143E-2],"split_indices":[10000,10000,10000,2561,4381,3419,10000,0,0,1938,0,97,0,4168,0,4513,0,102,0,3787,0,0,0,574,10000,4740,0,0,0,0,0,0,0],"split_type":[0,0,0,0,0,0,0,0,0,0,0,0,0,0,0,0,0,0,0,0,0,0,0,0,0,0,0,0,0,0,0,0,0],"sum_hessian":[8.0162726E2,1.7535718E2,6.262701E2,1.1714072E2,5.8216457E1,2.5260757E2,3.736625E2,1.09108406E2,8.032308E0,4.5332195E1,1.288426E1,2.288288E2,2.3778786E1,2.2403119E2,1.496313E2,4.0646435E1,4.6857605E0,2.1736047E2,1.146832E1,2.0775978E2,1.627141E1,1.9958063E1,2.0688374E1,1.3367043E2,8.369005E1,1.824643E2,2.5295485E1,1.285131E2,5.1573133E0,6.051484E0,7.7638565E1,1.77308E2,5.156295E0],"tree_param":{"num_deleted":"0","num_feature":"10001","num_nodes":"33","size_leaf_vector":"1"}},{"base_weights":[2.7863122E-8,-5.1106566E-1,1.7652076E-1,-7.1569465E-2,-3.2240158E-1,4.929024E-2,2.880832E-1,-1.9378917E-1,-6.421276E-1,6.26646E-2,-4.205978E-2,2.4989122E-1,4.4978708E-2,-2.9450896E-1,2.8244422E-3,-7.4399136E-2,-8.328333E-3,7.973583E-2,-2.8625553E-2,2.5725275E-1,-2.6540164E-2,-3.481559E-2,1.8899387E-2,-3.408158E-2,1.3719746E-1,2.7161264E-1,-2.9880102E-3,1.8352655E-3,-2.7037159E-2,1.4671675E-2,-5.3365808E-2,2.8869674E-2,2.6020582E-3],"categories":[],"categories_nodes":[],"categories_segments":[],"categories_sizes":[],"default_left":[0,0,0,0,0,0,0,0,0,0,0,0,0,0,0,0,0,0,0,0,0,0,0,0,0,0,0,0,0,0,0,0,0],"id":7,"left_children":[1,3,5,-1,7,9,11,13,15,17,-1,19,-1,21,-1,-1,-1,23,-1,25,-1,-1,-1,27,29,31,-1,-1,-1,-1,-1,-1,-1],"loss_changes":[7.2126076E1,7.69326E0,8.420677E0,0E0,4.3417625E0,1.7786878E0,1.8417072E0,1.7724872E0,1.6870699E0,1.6429296E0,0E0,1.0477562E0,0E0,1.4757318E0,0E0,0E0,0E0,1.7056667E0,0E0,1.059866E0,0E0,0E0,0E0,1.0959452E0,1.1832712E0,1.0121784E0,0E0,0E0,0E0,0E0,0E0,0E0,0E0],"parents":[2147483647,0,0,1,1,2,2,4,4,5,5,6,6,7,7,8,8,9,9,11,11,13,13,17,17,19,19,23,23,24,24,25,25],"right_children":[2,4,6,-1,8,10,12,14,16,18,-1,20,-1,22,-1,-1,-1,24,-1,26,-1,-1,-1,28,30,32,-1,-1,-1,-1,-1,-1,-1],"split_conditions":[4.3956045E-2,3.1111112E-2,5.7613168E-2,-7.1569465E-2,4.4306014E-3,3.363645E-2,8.070866E-2,3.788244E-2,6.36647E-2,4.083489E-2,-4.205978E-2,3.3171903E-2,4.4978708E-2,7.11566E-2,2.8244422E-3,-7.4399136E-2,-8.328333E-3,4.8275862E-2,-2.8625553E-2,9.327766E-2,-2.6540164E-2,-3.481559E-2,1.8899387E-2,4.0430486E-2,1.4834352E-2,8.345436E-2,-2.9880102E-3,1.8352655E-3,-2.7037159E-2,1.4671675E-2,-5.3365808E-2,2.8869674E-2,2.6020582E-3],"split_indices":[10000,10000,10000,0,102,1497,10000,1365,4573,1485,0,273,0,1938,0,0,0,10000,0,403,0,0,0,4974,2060,1500,0,0,0,0,0,0,0],"split_type":[0,0,0,0,0,0,0,0,0,0,0,0,0,0,0,0,0,0,0,0,0,0,0,0,0,0,0,0,0,0,0,0,0],"sum_hessian":[7.975025E2,2.0425243E2,5.932501E2,9.664054E1,1.07611885E2,2.77836E2,3.154141E2,7.7887215E1,2.9724669E1,2.709895E2,6.8464985E0,2.5721033E2,5.820378E1,5.3356846E1,2.4530369E1,2.4861683E1,4.8629866E0,2.5908502E2,1.190449E1,2.5408127E2,3.1290646E0,4.8279892E1,5.076954E0,8.705576E1,1.7202925E2,2.4203102E2,1.205024E1,7.200069E1,1.5055075E1,1.7039272E2,1.6365306E0,2.2612555E2,1.5905468E1],"tree_param":{"num_deleted":"0","num_feature":"10001","num_nodes":"33","size_leaf_vector":"1"}},{"base_weights":[-3.2668574E-8,-5.3079253E-1,1.5193678E-1,-6.608704E-1,-2.96987E-1,-3.125749E-2,2.4059626E-1,-6.866984E-1,-1.5024195E-2,-3.4463182E-1,3.1412713E-2,-5.812866E-3,-3.9036687E-2,1.882194E-1,3.8100377E-2,-7.07581E-2,-1.32641E-2,-4.1300386E-1,2.1660868E-3,-5.5075664E-2,1.3896765E-2,2.0704298E-1,-2.502196E-3,-6.1173934E-1,-2.1809995E-2,-1.4158852E-1,9.855918E-3,2.1331191E-2,-4.007281E-2,-7.141932E-2,-4.9771825E-3,-1.7902048E-2,1.8544154E-2],"categories":[],"categories_nodes":[],"categories_segments":[],"categories_sizes":[],"default_left":[0,0,0,0,0,0,0,0,0,0,0,0,0,0,0,0,0,0,0,0,0,0,0,0,0,0,0,0,0,0,0,0,0],"id":8,"left_children":[1,3,5,7,9,11,13,15,-1,17,-1,19,-1,21,-1,-1,-1,23,-1,25,-1,27,-1,29,-1,31,-1,-1,-1,-1,-1,-1,-1],"loss_changes":[6.415058E1,5.187481E0,1.005197E1,1.3861504E0,2.0036335E0,1.8487166E0,2.9938831E0,1.1465683E0,0E0,1.5332642E0,0E0,1.3641019E0,0E0,1.23176E0,0E0,0E0,0E0,1.855238E0,0E0,1.9095352E0,0E0,1.1557264E0,0E0,1.396164E0,0E0,1.1551194E0,0E0,0E0,0E0,0E0,0E0,0E0,0E0],"parents":[2147483647,0,0,1,1,2,2,3,3,4,4,5,5,6,6,7,7,9,9,11,11,13,13,17,17,19,19,21,21,23,23,25,25],"right_children":[2,4,6,8,10,12,14,16,-1,18,-1,20,-1,22,-1,-1,-1,24,-1,26,-1,28,-1,30,-1,32,-1,-1,-1,-1,-1,-1,-1],"split_conditions":[4.2105265E-2,3.508772E-2,5.1948052E-2,7.356751E-2,1.5369299E-1,3.687727E-2,7.2E-2,1.4246342E-1,-1.5024195E-2,2.5738765E-2,3.1412713E-2,6.0881276E-2,-3.9036687E-2,1.3622187E-2,3.8100377E-2,-7.07581E-2,-1.32641E-2,2.9892836E-2,2.1660868E-3,3.537454E-2,1.3896765E-2,1.14448555E-1,-2.502196E-3,4.1172963E-2,-2.1809995E-2,5.4812092E-2,9.855918E-3,2.1331191E-2,-4.007281E-2,-7.141932E-2,-4.9771825E-3,-1.7902048E-2,1.8544154E-2],"split_indices":[10000,10000,10000,1370,4543,4814,10000,554,0,1509,0,2584,0,4705,0,0,0,1365,0,324,0,1437,0,3904,0,842,0,0,0,0,0,0,0],"split_type":[0,0,0,0,0,0,0,0,0,0,0,0,0,0,0,0,0,0,0,0,0,0,0,0,0,0,0,0,0,0,0,0,0],"sum_hessian":[7.9344977E2,1.7602199E2,6.1742773E2,1.1192558E2,6.4096405E1,2.0157243E2,4.1585532E2,1.0620865E2,5.7169333E0,5.9865147E1,4.2312613E0,1.8918402E2,1.238841E1,3.045778E2,1.1127754E2,1.02083984E2,4.124661E0,5.0340992E1,9.524151E0,1.4161717E2,4.7566856E1,2.7989914E2,2.4678638E1,2.3866571E1,2.6474422E1,9.0649956E1,5.096722E1,2.7768396E2,2.2151794E0,1.9957233E1,3.909338E0,8.174588E1,8.904071E0],"tree_param":{"num_deleted":"0","num_feature":"10001","num_nodes":"33","size_leaf_vector":"1"}},{"base_weights":[1.6785416E-8,-4.4947165E-1,1.6461678E-1,-6.1611384E-1,-2.1064402E-1,7.758465E-2,3.1261444E-1,-6.4553267E-1,-2.1741375E-2,-1.446081E-1,-5.730159E-2,-1.0337228E-2,1.2233229E-1,2.8741017E-1,5.9025783E-2,-6.725008E-2,-1.8447818E-2,-2.8660467E-1,2.8513581E-3,8.517972E-3,-1.3501482E-1,1.4225662E-2,-9.597481E-3,3.2989655E-2,1.3574607E-2,-3.6805424E-1,2.8397862E-3,-3.0626904E-2,-3.7356496E-2,-4.499142E-2,4.677988E-3,2.5026007E-3,-5.3432327E-2],"categories":[],"categories_nodes":[],"categories_segments":[],"categories_sizes":[],"default_left":[0,0,0,0,0,0,0,0,0,0,0,0,0,0,0,0,0,0,0,0,0,0,0,0,0,0,0,0,0,0,0,0,0],"id":9,"left_children":[1,3,5,7,9,11,13,15,-1,17,-1,19,21,23,-1,-1,-1,25,-1,-1,27,-1,-1,-1,-1,29,-1,31,-1,-1,-1,-1,-1],"loss_changes":[5.857E1,8.315449E0,7.4385967E0,1.3195763E0,2.0404062E0,1.4418855E0,1.3294163E0,1.3108902E0,0E0,1.8860533E0,0E0,1.4932708E0,1.0694959E0,1.2332516E0,0E0,0E0,0E0,1.089535E0,0E0,0E0,1.3422432E0,0E0,0E0,0E0,0E0,1.1582842E0,0E0,1.1039132E0,0E0,0E0,0E0,0E0,0E0],"parents":[2147483647,0,0,1,1,2,2,3,3,4,4,5,5,6,6,7,7,9,9,11,11,12,12,13,13,17,17,20,20,25,25,27,27],"right_children":[2,4,6,8,10,12,14,16,-1,18,-1,20,22,24,-1,-1,-1,26,-1,-1,28,-1,-1,-1,-1,30,-1,32,-1,-1,-1,-1,-1],"split_conditions":[4.477612E-2,3.6585364E-2,6.3253015E-2,5.5453308E-2,2.680643E-2,5.042017E-2,9.7222224E-2,8.944027E-2,-2.1741375E-2,2.9951945E-2,-5.730159E-2,4.4306014E-3,2.0905847E-2,2.8017255E-2,5.9025783E-2,-6.725008E-2,-1.8447818E-2,8.696672E-2,2.8513581E-3,8.517972E-3,2.0086033E-2,1.4225662E-2,-9.597481E-3,3.2989655E-2,1.3574607E-2,5.106678E-2,2.8397862E-3,7.582488E-3,-3.7356496E-2,-4.499142E-2,4.677988E-3,2.5026007E-3,-5.3432327E-2],"split_indices":[10000,10000,10000,2561,102,10000,10000,535,0,1365,0,102,4700,1986,0,0,0,3315,0,0,3326,0,0,0,0,4839,0,660,0,0,0,0,0],"split_type":[0,0,0,0,0,0,0,0,0,0,0,0,0,0,0,0,0,0,0,0,0,0,0,0,0,0,0,0,0,0,0,0,0],"sum_hessian":[7.8958734E2,2.1119832E2,5.78389E2,1.2346839E2,8.772993E1,3.651699E2,2.1321909E2,1.1440754E2,9.060858E0,7.53904E1,1.2339521E1,1.2342626E2,2.4174364E2,1.9733989E2,1.587921E1,1.076521E2,6.755435E0,4.1058334E1,3.4332073E1,7.0065254E1,5.3361004E1,2.218448E2,1.9898836E1,1.5323753E2,4.4102345E1,3.248924E1,8.569093E0,3.7903206E1,1.5457797E1,2.7064074E1,5.4251657E0,3.498776E1,2.9154475E0],"tree_param":{"num_deleted":"0","num_feature":"10001","num_nodes":"33","size_leaf_vector":"1"}},{"base_weights":[1.6503222E-8,-5.6262034E-1,1.2462386E-1,-6.6352315E-2,-3.984297E-1,1.4229547E-2,2.863241E-1,-4.733858E-1,6.497378E-3,-1.3232687E-1,7.168463E-2,2.437844E-2,4.0635075E-2,-5.5372316E-2,-1.3062906E-2,-4.8696846E-2,-3.0855423E-1,7.9412855E-2,-5.58029E-2,9.853693E-3,-1.44878E-2,-1.5996976E-2,-6.667166E-2,9.377438E-2,-2.2630572E-2,5.701856E-3,2.2178473E-2],"categories":[],"categories_nodes":[],"categories_segments":[],"categories_sizes":[],"default_left":[0,0,0,0,0,0,0,0,0,0,0,0,0,0,0,0,0,0,0,0,0,0,0,0,0,0,0],"id":10,"left_children":[1,3,5,-1,7,9,11,13,-1,15,17,-1,-1,-1,-1,19,21,23,-1,-1,-1,-1,-1,25,-1,-1,-1],"loss_changes":[5.5254486E1,2.1031494E0,1.151222E1,0E0,2.0070448E0,3.2466877E0,1.2371254E0,1.279562E0,0E0,1.5858331E0,1.3915035E0,0E0,0E0,0E0,0E0,1.0742561E0,1.7437365E0,1.2257537E0,0E0,0E0,0E0,0E0,0E0,1.223588E0,0E0,0E0,0E0],"parents":[2147483647,0,0,1,1,2,2,4,4,5,5,6,6,7,7,9,9,10,10,15,15,16,16,17,17,23,23],"right_children":[2,4,6,-1,8,10,12,14,-1,16,18,-1,-1,-1,-1,20,22,24,-1,-1,-1,-1,-1,26,-1,-1,-1],"split_conditions":[3.90625E-2,3.076923E-2,6.0606062E-2,-6.6352315E-2,7.11566E-2,4.7058824E-2,7.804878E-2,1.1156967E-1,6.497378E-3,4.4306014E-3,6.747254E-2,2.437844E-2,4.0635075E-2,-5.5372316E-2,-1.3062906E-2,7.8031183E-3,2.1901304E-2,4.551227E-2,-5.58029E-2,9.853693E-3,-1.44878E-2,-1.5996976E-2,-6.667166E-2,3.7471075E-2,-2.2630572E-2,5.701856E-3,2.2178473E-2],"split_indices":[10000,10000,10000,0,1938,10000,10000,4381,0,102,4700,0,0,0,0,56,4974,788,0,0,0,0,0,1711,0,0,0],"split_type":[0,0,0,0,0,0,0,0,0,0,0,0,0,0,0,0,0,0,0,0,0,0,0,0,0,0,0],"sum_hessian":[7.860449E2,1.419029E2,6.44142E2,8.600665E1,5.5896236E1,3.8344708E2,2.6069498E2,4.809523E1,7.801007E0,1.07621925E2,2.7582513E2,1.9471526E2,6.597971E1,3.8464252E1,9.630979E0,7.385148E1,3.3770447E1,2.733444E2,2.4807575E0,2.9171442E1,4.468004E1,2.4890999E1,8.879447E0,2.6174197E2,1.16024E1,2.044759E2,5.726607E1],"tree_param":{"num_deleted":"0","num_feature":"10001","num_nodes":"27","size_leaf_vector":"1"}},{"base_weights":[-1.0846021E-8,-4.6183288E-1,1.4031646E-1,-6.385839E-2,-2.8548136E-1,2.6647294E-2,2.5852016E-1,-1.8022102E-1,-5.788856E-1,3.6196463E-2,-4.2766165E-2,2.1003896E-1,3.6172528E-2,-2.3321016E-2,1.2234974E-2,-6.56846E-2,-1.1284299E-3,-5.0107963E-2,9.151058E-2,2.2025239E-2,-2.8060824E-2,-2.9287993E-3,-5.8108415E-2,1.0547165E-2,-3.1375904E-2],"categories":[],"categories_nodes":[],"categories_segments":[],"categories_sizes":[],"default_left":[0,0,0,0,0,0,0,0,0,0,0,0,0,0,0,0,0,0,0,0,0,0,0,0,0],"id":11,"left_children":[1,3,5,-1,7,9,11,13,15,17,-1,19,-1,-1,-1,-1,-1,21,23,-1,-1,-1,-1,-1,-1],"loss_changes":[5.083419E1,5.5155067E0,8.076935E0,0E0,2.7774415E0,1.3508967E0,1.399189E0,1.1528473E0,1.0627747E0,1.4482334E0,0E0,1.0789757E0,0E0,0E0,0E0,0E0,0E0,1.2958845E0,1.0778152E0,0E0,0E0,0E0,0E0,0E0,0E0],"parents":[2147483647,0,0,1,1,2,2,4,4,5,5,6,6,7,7,8,8,9,9,11,11,17,17,18,18],"right_children":[2,4,6,-1,8,10,12,14,16,18,-1,20,-1,-1,-1,-1,-1,22,24,-1,-1,-1,-1,-1,-1],"split_conditions":[4.366812E-2,3.2051284E-2,5.882353E-2,-6.385839E-2,4.4306014E-3,1.5976746E-2,7.356322E-2,7.11566E-2,8.9970775E-2,4.9479168E-2,-4.2766165E-2,2.6703253E-2,3.6172528E-2,-2.3321016E-2,1.2234974E-2,-6.56846E-2,-1.1284299E-3,9.8971E-3,4.9202204E-2,2.2025239E-2,-2.8060824E-2,-2.9287993E-3,-5.8108415E-2,1.0547165E-2,-3.1375904E-2],"split_indices":[10000,10000,10000,0,102,3760,10000,1938,184,10000,0,1850,0,0,0,0,0,1377,288,0,0,0,0,0,0],"split_type":[0,0,0,0,0,0,0,0,0,0,0,0,0,0,0,0,0,0,0,0,0,0,0,0,0],"sum_hessian":[7.824449E2,1.8179607E2,6.006488E2,8.948613E1,9.2309944E1,3.068223E2,2.938265E2,6.912516E1,2.318478E1,3.0140732E2,5.414986E0,2.019803E2,9.184622E1,5.9018505E1,1.0106659E1,2.0246658E1,2.9381223E0,1.17762024E2,1.8364528E2,1.9840143E2,3.578866E0,1.1433405E2,3.4279642E0,1.782447E2,5.400574E0],"tree_param":{"num_deleted":"0","num_feature":"10001","num_nodes":"25","size_leaf_vector":"1"}},{"base_weights":[7.7358864E-10,-5.054673E-1,1.1967082E-1,-6.3380554E-2,-3.4572795E-1,-4.2501476E-2,2.164328E-1,-4.418083E-1,-9.704036E-3,-1.9724654E-2,-2.5561714E-1,1.5009879E-2,3.1429257E-2,-4.978482E-1,-4.935706E-3,-4.032625E-4,-4.0332783E-2,-5.702741E-2,-9.5097525E-3,-5.728233E-2,-1.0644593E-2],"categories":[],"categories_nodes":[],"categories_segments":[],"categories_sizes":[],"default_left":[0,0,0,0,0,0,0,0,0,0,0,0,0,0,0,0,0,0,0,0,0],"id":12,"left_children":[1,3,5,-1,7,9,11,13,-1,15,17,-1,-1,19,-1,-1,-1,-1,-1,-1,-1],"loss_changes":[4.7234177E1,2.8453407E0,9.916912E0,0E0,1.6008883E0,1.1443061E0,2.520853E0,1.0605774E0,0E0,1.2925696E0,1.0962936E0,0E0,0E0,1.2028017E0,0E0,0E0,0E0,0E0,0E0,0E0,0E0],"parents":[2147483647,0,0,1,1,2,2,4,4,5,5,6,6,7,7,9,9,10,10,13,13],"right_children":[2,4,6,-1,8,10,12,14,-1,16,18,-1,-1,20,-1,-1,-1,-1,-1,-1,-1],"split_conditions":[4.109589E-2,3.076923E-2,5.3333335E-2,-6.3380554E-2,7.833866E-2,1.3755527E-2,6.711409E-2,3.785117E-2,-9.704036E-3,4.368155E-2,3.0397166E-2,1.5009879E-2,3.1429257E-2,7.958575E-2,-4.935706E-3,-4.032625E-4,-4.0332783E-2,-5.702741E-2,-9.5097525E-3,-5.728233E-2,-1.0644593E-2],"split_indices":[10000,10000,10000,0,3090,4860,10000,2561,0,4615,538,0,0,4567,0,0,0,0,0,0,0],"split_type":[0,0,0,0,0,0,0,0,0,0,0,0,0,0,0,0,0,0,0,0,0],"sum_hessian":[7.788632E2,1.4848143E2,6.303818E2,8.068752E1,6.779391E1,2.3577893E2,3.9460284E2,4.834087E1,1.9453041E1,2.1400014E2,2.1778795E1,2.3669408E2,1.5790877E2,4.2065575E1,6.275294E0,2.0656088E2,7.439259E0,6.494785E0,1.5284009E1,3.491409E1,7.1514883E0],"tree_param":{"num_deleted":"0","num_feature":"10001","num_nodes":"21","size_leaf_vector":"1"}},{"base_weights":[-1.7022534E-8,-3.896612E-1,1.4470601E-1,-6.107756E-2,-2.2171324E-1,5.491055E-2,2.5891757E-1,-1.3603005E-1,-4.4902006E-1,6.905458E-2,-2.3295244E-2,2.3257458E-1,4.4787828E-2,-1.633096E-2,3.0072426E-2,-5.475396E-2,-2.4809062E-3,2.8704623E-2,1.5192963E-2,2.4819009E-2,-8.877213E-3,3.7773408E-2,-5.064416E-2,5.487188E-3,-2.4622131E-2],"categories":[],"categories_nodes":[],"categories_segments":[],"categories_sizes":[],"default_left":[0,0,0,0,0,0,0,0,0,0,0,0,0,0,0,0,0,0,0,0,0,0,0,0,0],"id":13,"left_children":[1,3,5,-1,7,9,11,13,15,17,-1,19,-1,-1,-1,-1,-1,21,-1,-1,-1,23,-1,-1,-1],"loss_changes":[4.3839622E1,7.6832314E0,5.8001833E0,0E0,2.2999768E0,1.3135567E0,1.1366787E0,1.115153E0,1.3552251E0,1.0139383E0,0E0,1.13029E0,0E0,0E0,0E0,0E0,0E0,1.0190423E0,0E0,0E0,0E0,1.0018361E0,0E0,0E0,0E0],"parents":[2147483647,0,0,1,1,2,2,4,4,5,5,6,6,7,7,8,8,9,9,11,11,17,17,21,21],"right_children":[2,4,6,-1,8,10,12,14,16,18,-1,20,-1,-1,-1,-1,-1,22,-1,-1,-1,24,-1,-1,-1],"split_conditions":[4.568528E-2,3.3492822E-2,6.1363637E-2,-6.107756E-2,4.4306014E-3,1.3622187E-2,8.937198E-2,1.5369299E-1,6.36647E-2,5.5276383E-2,-2.3295244E-2,6.933014E-2,4.4787828E-2,-1.633096E-2,3.0072426E-2,-5.475396E-2,-2.4809062E-3,3.0525025E-2,1.5192963E-2,2.4819009E-2,-8.877213E-3,4.915772E-2,-5.064416E-2,5.487188E-3,-2.4622131E-2],"split_indices":[10000,10000,10000,0,102,4705,10000,4543,4573,10000,0,4745,0,0,0,0,0,4429,0,0,0,2848,0,0,0],"split_type":[0,0,0,0,0,0,0,0,0,0,0,0,0,0,0,0,0,0,0,0,0,0,0,0,0],"sum_hessian":[7.754868E2,2.0954253E2,5.659443E2,8.931579E1,1.2022674E2,3.1766797E2,2.4827629E2,8.847469E1,3.175205E1,3.0351498E2,1.4152971E1,2.198569E2,2.8419395E1,8.386274E1,4.611956E0,2.5531778E1,6.2202716E0,2.0503467E2,9.8480316E1,2.098854E2,9.971501E0,2.025319E2,2.5027657E0,1.917915E2,1.0740407E1],"tree_param":{"num_deleted":"0","num_feature":"10001","num_nodes":"25","size_leaf_vector":"1"}},{"base_weights":[-1.1752355E-8,-4.425213E-1,1.2025823E-1,-6.193597E-2,-2.88433E-1,1.8300362E-2,2.360861E-1,-1.961305E-2,-5.570304E-2,3.0321736E-2,-3.740634E-2,1.7008852E-2,3.1009559E-2,-6.689086E-2,8.1473246E-2,-3.8810357E-2,-4.348048E-2,9.0623505E-2,-5.148066E-2,-1.4001447E-3,-4.6575602E-2,1.0538325E-2,-2.645192E-2],"categories":[],"categories_nodes":[],"categories_segments":[],"categories_sizes":[],"default_left":[0,0,0,0,0,0,0,0,0,0,0,0,0,0,0,0,0,0,0,0,0,0,0],"id":14,"left_children":[1,3,5,-1,7,9,11,-1,-1,13,-1,-1,-1,15,17,19,-1,21,-1,-1,-1,-1,-1],"loss_changes":[4.119056E1,4.328186E0,7.1831875E0,0E0,2.128366E0,1.5432168E0,1.3385639E0,0E0,0E0,1.5769987E0,0E0,0E0,0E0,1.114511E0,1.1789722E0,1.0828072E0,0E0,1.1037362E0,0E0,0E0,0E0,0E0,0E0],"parents":[2147483647,0,0,1,1,2,2,4,4,5,5,6,6,9,9,13,13,14,14,15,15,17,17],"right_children":[2,4,6,-1,8,10,12,-1,-1,14,-1,-1,-1,16,18,20,-1,22,-1,-1,-1,-1,-1],"split_conditions":[4.290429E-2,3.076923E-2,5.927835E-2,-6.193597E-2,4.4306014E-3,7.993027E-2,6.94864E-2,-1.961305E-2,-5.570304E-2,4.8780486E-2,-3.740634E-2,1.7008852E-2,3.1009559E-2,2.9284498E-2,5.5582218E-2,7.352595E-2,-4.348048E-2,1.8830733E-2,-5.148066E-2,-1.4001447E-3,-4.6575602E-2,1.0538325E-2,-2.645192E-2],"split_indices":[10000,10000,10000,0,102,4786,10000,0,0,10000,0,0,0,1190,120,3889,0,4805,0,0,0,0,0],"split_type":[0,0,0,0,0,0,0,0,0,0,0,0,0,0,0,0,0,0,0,0,0,0,0],"sum_hessian":[7.720138E2,1.6439609E2,6.076177E2,7.514124E1,8.9254845E1,3.2377322E2,2.8384445E2,6.7715034E1,2.1539814E1,3.1504352E2,8.729691E0,1.5178722E2,1.3205724E2,1.08511505E2,2.0653201E2,1.0184391E2,6.667602E0,2.0424576E2,2.286251E0,9.722704E1,4.6168637E0,1.9677121E2,7.4745526E0],"tree_param":{"num_deleted":"0","num_feature":"10001","num_nodes":"23","size_leaf_vector":"1"}},{"base_weights":[-9.2187795E-9,-4.8740497E-1,1.01629466E-1,-6.1551392E-2,-3.252478E-1,-3.4521636E-2,2.0129414E-1,-3.8935837E-1,3.4211003E-3,-2.3024945E-2,-4.7157463E-2,1.2425083E-2,2.6663711E-2,-5.0231036E-2,-1.3894801E-2,-1.1778445E-1,2.5521917E-2,-2.4134455E-2,-5.568559E-4,5.9582866E-3,-1.6380204E-2],"categories":[],"categories_nodes":[],"categories_segments":[],"categories_sizes":[],"default_left":[0,0,0,0,0,0,0,0,0,0,0,0,0,0,0,0,0,0,0,0,0],"id":15,"left_children":[1,3,5,-1,7,9,11,13,-1,15,-1,-1,-1,-1,-1,17,19,-1,-1,-1,-1],"loss_changes":[3.817121E1,2.5617847E0,8.659375E0,0E0,1.4144697E0,1.3475316E0,1.8209591E0,1.3918967E0,0E0,1.2196256E0,0E0,0E0,0E0,0E0,0E0,1.2433469E0,1.1427517E0,0E0,0E0,0E0,0E0],"parents":[2147483647,0,0,1,1,2,2,4,4,5,5,6,6,7,7,9,9,15,15,16,16],"right_children":[2,4,6,-1,8,10,12,14,-1,16,-1,-1,-1,-1,-1,18,20,-1,-1,-1,-1],"split_conditions":[3.984064E-2,3.076923E-2,5.4744527E-2,-6.1551392E-2,7.11566E-2,1.3622187E-2,6.4425774E-2,1.0290316E-1,3.4211003E-3,4.676259E-2,-4.7157463E-2,1.2425083E-2,2.6663711E-2,-5.0231036E-2,-1.3894801E-2,2.5224343E-2,2.055311E-2,-2.4134455E-2,-5.568559E-4,5.9582866E-3,-1.6380204E-2],"split_indices":[10000,10000,10000,0,1938,4705,10000,4708,0,10000,0,0,0,0,0,1365,3271,0,0,0,0],"split_type":[0,0,0,0,0,0,0,0,0,0,0,0,0,0,0,0,0,0,0,0,0],"sum_hessian":[7.6859515E2,1.3195518E2,6.3663995E2,7.215489E1,5.980029E1,2.693444E2,3.6729556E2,5.0678455E1,9.121836E0,2.6346658E2,5.877814E0,1.6988841E2,1.9740717E2,3.4231697E1,1.6446756E1,8.876952E1,1.7469705E2,4.170154E1,4.706798E1,1.4864066E2,2.6056398E1],"tree_param":{"num_deleted":"0","num_feature":"10001","num_nodes":"21","size_leaf_vector":"1"}},{"base_weights":[1.0278952E-8,-4.7103396E-1,9.7950265E-2,-6.054852E-2,-3.1307015E-1,-8.133091E-2,1.7128064E-1,-4.6497244E-2,-1.8042803E-2,-1.0723498E-3,-1.981063E-2,1.1416404E-2,2.6193822E-2],"categories":[],"categories_nodes":[],"categories_segments":[],"categories_sizes":[],"default_left":[0,0,0,0,0,0,0,0,0,0,0,0,0],"id":16,"left_children":[1,3,5,-1,7,9,11,-1,-1,-1,-1,-1,-1],"loss_changes":[3.5388817E1,2.6148129E0,8.36186E0,0E0,1.1811018E0,1.5232874E0,2.3052645E0,0E0,0E0,0E0,0E0,0E0,0E0],"parents":[2147483647,0,0,1,1,2,2,4,4,5,5,6,6],"right_children":[2,4,6,-1,8,10,12,-1,-1,-1,-1,-1,-1],"split_conditions":[4.032258E-2,3.076923E-2,5.078125E-2,-6.054852E-2,4.539604E-2,4.4306014E-3,6.61157E-2,-4.6497244E-2,-1.8042803E-2,-1.0723498E-3,-1.981063E-2,1.1416404E-2,2.6193822E-2],"split_indices":[10000,10000,10000,0,4708,102,10000,0,0,0,0,0,0],"split_type":[0,0,0,0,0,0,0,0,0,0,0,0,0],"sum_hessian":[7.650227E2,1.3104243E2,6.339802E2,6.9259224E1,6.1783215E1,1.8400587E2,4.4997437E2,2.7632689E1,3.4150524E1,1.1535134E2,6.865453E1,2.7743958E2,1.7253479E2],"tree_param":{"num_deleted":"0","num_feature":"10001","num_nodes":"13","size_leaf_vector":"1"}},{"base_weights":[2.5104152E-8,-3.9373326E-1,1.10990606E-1,-5.956688E-2,-2.5313273E-1,1.6037645E-3,2.0813942E-1,-1.6597558E-2,-5.3109676E-2,1.2253411E-2,-3.8461383E-2,1.7371135E-2,3.280165E-2,1.9704707E-3,-4.9242064E-2],"categories":[],"categories_nodes":[],"categories_segments":[],"categories_sizes":[],"default_left":[0,0,0,0,0,0,0,0,0,0,0,0,0,0,0],"id":17,"left_children":[1,3,5,-1,7,9,11,-1,-1,13,-1,-1,-1,-1,-1],"loss_changes":[3.3379475E1,4.6181736E0,6.331686E0,0E0,2.352934E0,1.1616455E0,1.245429E0,0E0,0E0,1.0427146E0,0E0,0E0,0E0,0E0,0E0],"parents":[2147483647,0,0,1,1,2,2,4,4,5,5,6,6,9,9],"right_children":[2,4,6,-1,8,10,12,-1,-1,14,-1,-1,-1,-1,-1],"split_conditions":[4.3956045E-2,3.076923E-2,5.7613168E-2,-5.956688E-2,4.4306014E-3,1.3622187E-2,7.804878E-2,-1.6597558E-2,-5.3109676E-2,2.7519532E-2,-3.8461383E-2,1.7371135E-2,3.280165E-2,1.9704707E-3,-4.9242064E-2],"split_indices":[10000,10000,10000,0,102,4705,10000,0,0,2883,0,0,0,0,0],"split_type":[0,0,0,0,0,0,0,0,0,0,0,0,0,0,0],"sum_hessian":[7.6182043E2,1.6696686E2,5.9485364E2,6.720622E1,9.976063E1,2.8028128E2,3.1457233E2,7.716289E1,2.2597744E1,2.7370242E2,6.578856E0,2.4628857E2,6.828376E1,2.7066708E2,3.035327E0],"tree_param":{"num_deleted":"0","num_feature":"10001","num_nodes":"15","size_leaf_vector":"1"}},{"base_weights":[1.714954E-8,-3.34729E-1,1.2042018E-1,-5.8348246E-2,-1.997928E-1,4.0600687E-2,2.3024391E-2,-1.5173386E-1,-4.594476E-2,-1.7981144E-3,9.379815E-3,-1.1878031E-2,-4.970815E-2],"categories":[],"categories_nodes":[],"categories_segments":[],"categories_sizes":[],"default_left":[0,0,0,0,0,0,0,0,0,0,0,0,0],"id":18,"left_children":[1,3,5,-1,7,9,-1,11,-1,-1,-1,-1,-1],"loss_changes":[3.0651367E1,6.636484E0,4.892976E0,0E0,1.5769176E0,1.0147455E0,0E0,1.2251163E0,0E0,0E0,0E0,0E0,0E0],"parents":[2147483647,0,0,1,1,2,2,4,4,5,5,7,7],"right_children":[2,4,6,-1,8,10,-1,12,-1,-1,-1,-1,-1],"split_conditions":[4.605263E-2,3.2051284E-2,6.2068965E-2,-5.8348246E-2,2.680643E-2,5.2805282E-2,2.3024391E-2,3.3669937E-2,-4.594476E-2,-1.7981144E-3,9.379815E-3,-1.1878031E-2,-4.970815E-2],"split_indices":[10000,10000,10000,0,102,10000,0,282,0,0,0,0,0],"split_type":[0,0,0,0,0,0,0,0,0,0,0,0,0],"sum_hessian":[7.5842664E2,2.0018834E2,5.5823834E2,6.923331E1,1.3095502E2,3.2407297E2,2.3416536E2,1.118393E2,1.911572E1,1.545463E2,1.6952667E2,1.0332394E2,8.5153675E0],"tree_param":{"num_deleted":"0","num_feature":"10001","num_nodes":"13","size_leaf_vector":"1"}},{"base_weights":[-6.044307E-9,-4.8930314E-1,7.857222E-2,-5.8871906E-2,-3.3509323E-1,-4.4288803E-2,1.8057944E-1,-4.305196E-2,2.2363341E-3,-1.1889714E-1,2.4167194E-3,1.3987462E-2,2.8842641E-2,-2.0510832E-2,-9.316863E-3,9.270049E-3,-1.7143747E-2],"categories":[],"categories_nodes":[],"categories_segments":[],"categories_sizes":[],"default_left":[0,0,0,0,0,0,0,0,0,0,0,0,0,0,0,0,0],"id":19,"left_children":[1,3,5,-1,7,9,11,-1,-1,13,-1,-1,-1,-1,15,-1,-1],"loss_changes":[2.910942E1,1.4088154E0,8.184294E0,0E0,1.4895439E0,1.5184922E0,1.5252924E0,0E0,0E0,1.3411121E0,0E0,0E0,0E0,0E0,1.0685267E0,0E0,0E0],"parents":[2147483647,0,0,1,1,2,2,4,4,5,5,6,6,9,9,14,14],"right_children":[2,4,6,-1,8,10,12,-1,-1,14,-1,-1,-1,-1,16,-1,-1],"split_conditions":[3.731343E-2,3.076923E-2,5.5276383E-2,-5.8871906E-2,7.11566E-2,4.8275862E-2,7.356322E-2,-4.305196E-2,2.2363341E-3,4.481843E-2,2.4167194E-3,1.3987462E-2,2.8842641E-2,-2.0510832E-2,1.7561847E-2,9.270049E-3,-1.7143747E-2],"split_indices":[10000,10000,10000,0,1938,10000,10000,0,0,4708,0,0,0,0,305,0,0],"split_type":[0,0,0,0,0,0,0,0,0,0,0,0,0,0,0,0,0],"sum_hessian":[7.5515796E2,1.037617E2,6.513963E2,6.137614E1,4.2385563E1,2.9575027E2,3.5564603E2,3.3293224E1,9.092336E0,1.4116333E2,1.5458693E2,2.5986267E2,9.578334E1,7.851819E1,6.2645145E1,3.8712685E1,2.393246E1],"tree_param":{"num_deleted":"0","num_feature":"10001","num_nodes":"17","size_leaf_vector":"1"}},{"base_weights":[-2.329457E-8,-3.933714E-1,9.485689E-2,-5.8138724E-2,-2.592518E-1,1.9372938E-3,1.9969486E-2,-3.0578074E-1,1.120705E-2,-7.868285E-2,4.86622E-3,-3.3881806E-2,1.8293904E-2,-5.8673616E-3,-5.215763E-2],"categories":[],"categories_nodes":[],"categories_segments":[],"categories_sizes":[],"default_left":[0,0,0,0,0,0,0,0,0,0,0,0,0,0,0],"id":20,"left_children":[1,3,5,-1,7,9,-1,11,-1,13,-1,-1,-1,-1,-1],"loss_changes":[2.813838E1,3.5438118E0,5.9184046E0,0E0,1.5428686E0,1.2209787E0,0E0,1.3191481E0,0E0,1.0234098E0,0E0,0E0,0E0,0E0,0E0],"parents":[2147483647,0,0,1,1,2,2,4,4,5,5,7,7,9,9],"right_children":[2,4,6,-1,8,10,-1,12,-1,14,-1,-1,-1,-1,-1],"split_conditions":[4.290429E-2,3.076923E-2,5.927835E-2,-5.8138724E-2,1.009251E-1,4.9122807E-2,1.9969486E-2,1.5369299E-1,1.120705E-2,2.3480462E-2,4.86622E-3,-3.3881806E-2,1.8293904E-2,-5.8673616E-3,-5.215763E-2],"split_indices":[10000,10000,10000,0,4344,10000,0,4543,0,1373,0,0,0,0,0],"split_type":[0,0,0,0,0,0,0,0,0,0,0,0,0,0,0],"sum_hessian":[7.520972E2,1.4551207E2,6.065852E2,5.9194843E1,8.631722E1,3.2211124E2,2.8447397E2,7.686241E1,9.454816E0,1.1793674E2,2.041745E2,7.228284E1,4.579574E0,1.1392238E2,4.014358E0],"tree_param":{"num_deleted":"0","num_feature":"10001","num_nodes":"15","size_leaf_vector":"1"}},{"base_weights":[-8.672292E-10,-3.5263953E-1,9.8793775E-2,-5.898568E-2,-2.1995829E-1,2.1146255E-2,2.0280933E-2,-1.480072E-2,-4.6425393E-1,-3.6359914E-3,8.095162E-3,-5.8129687E-2,-2.7639922E-3],"categories":[],"categories_nodes":[],"categories_segments":[],"categories_sizes":[],"default_left":[0,0,0,0,0,0,0,0,0,0,0,0,0],"id":21,"left_children":[1,3,5,-1,7,9,-1,-1,11,-1,-1,-1,-1],"loss_changes":[2.616457E1,5.0432854E0,4.733942E0,0E0,1.8120198E0,1.1620346E0,0E0,0E0,1.2040391E0,0E0,0E0,0E0,0E0],"parents":[2147483647,0,0,1,1,2,2,4,4,5,5,8,8],"right_children":[2,4,6,-1,8,10,-1,-1,12,-1,-1,-1,-1],"split_conditions":[4.453441E-2,3.1111112E-2,6.1363637E-2,-5.898568E-2,4.4306014E-3,5.2434456E-2,2.0280933E-2,-1.480072E-2,4.5273025E-2,-3.6359914E-3,8.095162E-3,-5.8129687E-2,-2.7639922E-3],"split_indices":[10000,10000,10000,0,102,10000,0,0,202,0,0,0,0],"split_type":[0,0,0,0,0,0,0,0,0,0,0,0,0],"sum_hessian":[7.4902264E2,1.6335732E2,5.8566534E2,5.735972E1,1.0599759E2,3.3602573E2,2.4963962E2,8.312197E1,2.2875618E1,1.715056E2,1.6452011E2,1.7778397E1,5.0972214E0],"tree_param":{"num_deleted":"0","num_feature":"10001","num_nodes":"13","size_leaf_vector":"1"}},{"base_weights":[-1.390993E-9,-4.1558805E-1,7.9558924E-2,-5.820709E-2,-2.672894E-1,-2.2768885E-2,1.7425503E-1,-3.4342408E-1,-1.3100046E-3,-1.2005321E-2,1.6703334E-3,1.2300932E-2,2.5587818E-2,-4.1113954E-2,1.4441016E-3],"categories":[],"categories_nodes":[],"categories_segments":[],"categories_sizes":[],"default_left":[0,0,0,0,0,0,0,0,0,0,0,0,0,0,0],"id":22,"left_children":[1,3,5,-1,7,9,11,13,-1,-1,-1,-1,-1,-1,-1],"loss_changes":[2.4723904E1,2.8107967E0,6.085595E0,0E0,1.2610459E0,1.1637561E0,1.3324604E0,1.2244215E0,0E0,0E0,0E0,0E0,0E0,0E0,0E0],"parents":[2147483647,0,0,1,1,2,2,4,4,5,5,6,6,7,7],"right_children":[2,4,6,-1,8,10,12,14,-1,-1,-1,-1,-1,-1,-1],"split_conditions":[4.109589E-2,3.1111112E-2,5.695509E-2,-5.820709E-2,1.1156967E-1,4.7058824E-2,7.070707E-2,1.5447953E-1,-1.3100046E-3,-1.2005321E-2,1.6703334E-3,1.2300932E-2,2.5587818E-2,-4.1113954E-2,1.4441016E-3],"split_indices":[10000,10000,10000,0,4381,10000,10000,1938,0,0,0,0,0,0,0],"split_type":[0,0,0,0,0,0,0,0,0,0,0,0,0,0,0],"sum_hessian":[7.4576495E2,1.19148926E2,6.26616E2,5.475498E1,6.439395E1,3.015371E2,3.2507892E2,4.928198E1,1.5111971E1,8.6443825E1,2.1509329E2,2.0124052E2,1.23838394E2,4.1315384E1,7.9665933E0],"tree_param":{"num_deleted":"0","num_feature":"10001","num_nodes":"15","size_leaf_vector":"1"}},{"base_weights":[-9.877664E-9,-4.0622494E-1,7.799608E-2,-5.7204593E-2,-2.5456005E-1,-4.2973994E-3,1.5362872E-1,-3.931252E-2,-9.310565E-3,1.2658331E-2,3.0157566E-2],"categories":[],"categories_nodes":[],"categories_segments":[],"categories_sizes":[],"default_left":[0,0,0,0,0,0,0,0,0,0,0],"id":23,"left_children":[1,3,5,-1,7,-1,9,-1,-1,-1,-1],"loss_changes":[2.3591002E1,2.8705826E0,5.721614E0,0E0,1.4050846E0,0E0,1.5005646E0,0E0,0E0,0E0,0E0],"parents":[2147483647,0,0,1,1,2,2,4,4,6,6],"right_children":[2,4,6,-1,8,-1,10,-1,-1,-1,-1],"split_conditions":[4.137931E-2,3.2051284E-2,5.3846154E-2,-5.7204593E-2,6.600711E-2,-4.2973994E-3,8.070866E-2,-3.931252E-2,-9.310565E-3,1.2658331E-2,3.0157566E-2],"split_indices":[10000,10000,10000,0,4708,0,10000,0,0,0,0],"split_type":[0,0,0,0,0,0,0,0,0,0,0],"sum_hessian":[7.4257245E2,1.18932304E2,6.236402E2,5.5490574E1,6.3441727E1,2.4007913E2,3.8356104E2,3.3368748E1,3.007298E1,3.2584973E2,5.7711304E1],"tree_param":{"num_deleted":"0","num_feature":"10001","num_nodes":"11","size_leaf_vector":"1"}},{"base_weights":[1.8000856E-8,-3.5238397E-1,8.3961405E-2,-5.6416657E-2,-2.1885277E-1,1.5787784E-2,2.0649781E-2,-1.5031586E-2,-4.9217697E-2,-7.143581E-3,6.619134E-3],"categories":[],"categories_nodes":[],"categories_segments":[],"categories_sizes":[],"default_left":[0,0,0,0,0,0,0,0,0,0,0],"id":24,"left_children":[1,3,5,-1,7,9,-1,-1,-1,-1,-1],"loss_changes":[2.1944351E1,3.9125118E0,5.0004725E0,0E0,1.5962882E0,1.701485E0,0E0,0E0,0E0,0E0,0E0],"parents":[2147483647,0,0,1,1,2,2,4,4,5,5],"right_children":[2,4,6,-1,8,10,-1,-1,-1,-1,-1],"split_conditions":[4.366812E-2,3.2051284E-2,6.3253015E-2,-5.6416657E-2,4.4306014E-3,5.042017E-2,2.0649781E-2,-1.5031586E-2,-4.9217697E-2,-7.143581E-3,6.619134E-3],"split_indices":[10000,10000,10000,0,102,10000,0,0,0,0,0],"split_type":[0,0,0,0,0,0,0,0,0,0,0],"sum_hessian":[7.396977E2,1.4171715E2,5.979805E2,5.355426E1,8.816289E1,3.8494412E2,2.130364E2,7.172705E1,1.6435835E1,1.4082628E2,2.4411784E2],"tree_param":{"num_deleted":"0","num_feature":"10001","num_nodes":"11","size_leaf_vector":"1"}},{"base_weights":[-9.272435E-9,-2.580677E-1,1.09994106E-1,-5.4887712E-2,-1.605388E-1,6.1747506E-3,2.2724828E-2,-1.0958704E-2,-2.8458372E-2],"categories":[],"categories_nodes":[],"categories_segments":[],"categories_sizes":[],"default_left":[0,0,0,0,0,0,0,0,0],"id":25,"left_children":[1,3,5,-1,7,-1,-1,-1,-1],"loss_changes":[2.0969255E1,6.17327E0,2.9161038E0,0E0,1.0226226E0,0E0,0E0,0E0,0E0],"parents":[2147483647,0,0,1,1,2,2,4,4],"right_children":[2,4,6,-1,8,-1,-1,-1,-1],"split_conditions":[4.7945205E-2,3.255814E-2,6.818182E-2,-5.4887712E-2,4.4306014E-3,6.1747506E-3,2.2724828E-2,-1.0958704E-2,-2.8458372E-2],"split_indices":[10000,10000,10000,0,102,0,0,0,0],"split_type":[0,0,0,0,0,0,0,0,0],"sum_hessian":[7.3672015E2,2.1976419E2,5.1695593E2,5.4030247E1,1.6573395E2,3.673351E2,1.4962085E2,1.18814186E2,4.6919758E1],"tree_param":{"num_deleted":"0","num_feature":"10001","num_nodes":"9","size_leaf_vector":"1"}},{"base_weights":[1.9984157E-8,-3.8159978E-1,7.119065E-2,-5.579139E-2,-2.4936803E-1,-2.8480499E-3,1.615719E-1,-3.4828007E-2,-6.4934487E-3,1.2517025E-2,2.557433E-2],"categories":[],"categories_nodes":[],"categories_segments":[],"categories_sizes":[],"default_left":[0,0,0,0,0,0,0,0,0,0,0],"id":26,"left_children":[1,3,5,-1,7,-1,9,-1,-1,-1,-1],"loss_changes":[1.9995285E1,2.5588913E0,5.5925875E0,0E0,1.2167354E0,0E0,1.0836792E0,0E0,0E0,0E0,0E0],"parents":[2147483647,0,0,1,1,2,2,4,4,6,6],"right_children":[2,4,6,-1,8,-1,10,-1,-1,-1,-1],"split_conditions":[4.1666668E-2,3.1496063E-2,5.695509E-2,-5.579139E-2,7.076911E-2,-2.8480499E-3,6.006095E-2,-3.4828007E-2,-6.4934487E-3,1.2517025E-2,2.557433E-2],"split_indices":[10000,10000,10000,0,3090,0,5963,0,0,0,0],"split_type":[0,0,0,0,0,0,0,0,0,0,0],"sum_hessian":[7.340318E2,1.1472366E2,6.1930817E2,4.7786835E1,6.693683E1,2.9484366E2,3.2446448E2,4.2991848E1,2.3944984E1,2.3568886E2,8.877563E1],"tree_param":{"num_deleted":"0","num_feature":"10001","num_nodes":"11","size_leaf_vector":"1"}},{"base_weights":[-2.0419044E-8,-2.9025838E-1,9.127051E-2,-5.488239E-2,-1.8938834E-2,1.0808444E-3,1.8342247E-2],"categories":[],"categories_nodes":[],"categories_segments":[],"categories_sizes":[],"default_left":[0,0,0,0,0,0,0],"id":27,"left_children":[1,3,5,-1,-1,-1,-1],"loss_changes":[1.9423868E1,4.4706945E0,4.1339507E0,0E0,0E0,0E0,0E0],"parents":[2147483647,0,0,1,1,2,2],"right_children":[2,4,6,-1,-1,-1,-1],"split_conditions":[4.605263E-2,3.2051284E-2,6.0606062E-2,-5.488239E-2,-1.8938834E-2,1.0808444E-3,1.8342247E-2],"split_indices":[10000,10000,10000,0,0,0,0],"split_type":[0,0,0,0,0,0,0],"sum_hessian":[7.311966E2,1.7439757E2,5.56799E2,4.769572E1,1.2670184E2,2.9784998E2,2.5894904E2],"tree_param":{"num_deleted":"0","num_feature":"10001","num_nodes":"7","size_leaf_vector":"1"}},{"base_weights":[5.18764E-9,-2.250918E-1,1.1228389E-1,-4.914606E-2,-1.2901491E-1,7.109189E-3,2.5172887E-2,-1.039009E-2,-3.9647765E-2],"categories":[],"categories_nodes":[],"categories_segments":[],"categories_sizes":[],"default_left":[0,0,0,0,0,0,0,0,0],"id":28,"left_children":[1,3,5,-1,7,-1,-1,-1,-1],"loss_changes":[1.8466843E1,6.1599026E0,2.782228E0,0E0,1.1683497E0,0E0,0E0,0E0,0E0],"parents":[2147483647,0,0,1,1,2,2,4,4],"right_children":[2,4,6,-1,8,-1,-1,-1,-1],"split_conditions":[4.9122807E-2,3.539823E-2,7.2E-2,-4.914606E-2,3.3669937E-2,7.109189E-3,2.5172887E-2,-1.039009E-2,-3.9647765E-2],"split_indices":[10000,10000,10000,0,282,0,0,0,0],"split_type":[0,0,0,0,0,0,0,0,0],"sum_hessian":[7.2866034E2,2.4217514E2,4.864852E2,6.310477E1,1.7907037E2,3.7671387E2,1.09771324E2,1.6496873E2,1.4101638E1],"tree_param":{"num_deleted":"0","num_feature":"10001","num_nodes":"9","size_leaf_vector":"1"}},{"base_weights":[-1.1192844E-8,-3.620203E-1,6.692583E-2,-5.464988E-2,-2.435807E-1,-1.9222466E-2,1.6831584E-1,-3.0066002E-2,2.1313129E-3,-7.480444E-3,4.472473E-3,1.3617906E-2,2.9338151E-2],"categories":[],"categories_nodes":[],"categories_segments":[],"categories_sizes":[],"default_left":[0,0,0,0,0,0,0,0,0,0,0,0,0],"id":29,"left_children":[1,3,5,-1,7,9,11,-1,-1,-1,-1,-1,-1],"loss_changes":[1.7645363E1,2.349658E0,5.3720193E0,0E0,1.0800099E0,1.1876572E0,1.0952902E0,0E0,0E0,0E0,0E0,0E0,0E0],"parents":[2147483647,0,0,1,1,2,2,4,4,5,5,6,6],"right_children":[2,4,6,-1,8,10,12,-1,-1,-1,-1,-1,-1],"split_conditions":[4.1860465E-2,3.137255E-2,5.927835E-2,-5.464988E-2,7.11566E-2,5.1150896E-2,8.070866E-2,-3.0066002E-2,2.1313129E-3,-7.480444E-3,4.472473E-3,1.3617906E-2,2.9338151E-2],"split_indices":[10000,10000,10000,0,1938,10000,10000,0,0,0,0,0,0],"split_type":[0,0,0,0,0,0,0,0,0,0,0,0,0],"sum_hessian":[7.262892E2,1.126305E2,6.136587E2,4.262491E1,7.00056E1,3.3220428E2,2.814544E2,5.748394E1,1.2521657E1,1.7763593E2,1.5456834E2,2.2557872E2,5.587567E1],"tree_param":{"num_deleted":"0","num_feature":"10001","num_nodes":"13","size_leaf_vector":"1"}},{"base_weights":[-1.6197827E-8,-2.6782262E-1,8.742576E-2,-4.721832E-2,-1.4979884E-2,2.5055934E-2,1.971873E-2,-2.7694806E-4,1.3244194E-2],"categories":[],"categories_nodes":[],"categories_segments":[],"categories_sizes":[],"default_left":[0,0,0,0,0,0,0,0,0],"id":30,"left_children":[1,3,5,-1,-1,7,-1,-1,-1],"loss_changes":[1.6990482E1,4.2364464E0,3.740119E0,0E0,0E0,1.0461397E0,0E0,0E0,0E0],"parents":[2147483647,0,0,1,1,2,2,5,5],"right_children":[2,4,6,-1,-1,8,-1,-1,-1],"split_conditions":[4.639175E-2,3.5971224E-2,6.4425774E-2,-4.721832E-2,-1.4979884E-2,2.1432776E-2,1.971873E-2,-2.7694806E-4,1.3244194E-2],"split_indices":[10000,10000,10000,0,0,2666,0,0,0],"split_type":[0,0,0,0,0,0,0,0,0],"sum_hessian":[7.2363617E2,1.7757732E2,5.4605884E2,6.391188E1,1.13665436E2,3.4898392E2,1.9707494E2,2.7793958E2,7.1044334E1],"tree_param":{"num_deleted":"0","num_feature":"10001","num_nodes":"9","size_leaf_vector":"1"}},{"base_weights":[-5.6813976E-9,-4.245329E-2,5.3080745E-2,-7.528247E-3,1.3183287E-1,8.385882E-3,2.2472162E-2],"categories":[],"categories_nodes":[],"categories_segments":[],"categories_sizes":[],"default_left":[0,0,0,0,0,0,0],"id":31,"left_children":[1,-1,3,-1,5,-1,-1],"loss_changes":[1.630388E1,0E0,6.5109234E0,0E0,1.7589059E0,0E0,0E0],"parents":[2147483647,0,0,2,2,4,4],"right_children":[2,-1,4,-1,6,-1,-1],"split_conditions":[3.773585E-2,-4.245329E-2,5.2805282E-2,-7.528247E-3,6.94864E-2,8.385882E-3,2.2472162E-2],"split_indices":[10000,0,10000,0,10000,0,0],"split_type":[0,0,0,0,0,0,0],"sum_hessian":[7.215067E2,7.9408676E1,6.42098E2,2.4416374E2,3.979343E2,2.636634E2,1.3427089E2],"tree_param":{"num_deleted":"0","num_feature":"10001","num_nodes":"7","size_leaf_vector":"1"}},{"base_weights":[-2.2207331E-8,-2.929155E-1,7.512138E-2,-5.2905645E-2,-1.9602487E-2,-1.1112631E-3,1.5917888E-2],"categories":[],"categories_nodes":[],"categories_segments":[],"categories_sizes":[],"default_left":[0,0,0,0,0,0,0],"id":32,"left_children":[1,3,5,-1,-1,-1,-1],"loss_changes":[1.5879212E1,3.2664337E0,4.1649857E0,0E0,0E0,0E0,0E0],"parents":[2147483647,0,0,1,1,2,2],"right_children":[2,4,6,-1,-1,-1,-1],"split_conditions":[4.477612E-2,3.2051284E-2,5.882353E-2,-5.2905645E-2,-1.9602487E-2,-1.1112631E-3,1.5917888E-2],"split_indices":[10000,10000,10000,0,0,0,0],"split_type":[0,0,0,0,0,0,0],"sum_hessian":[7.196439E2,1.4629747E2,5.7334644E2,4.1265423E1,1.0503205E2,2.8343756E2,2.8990884E2],"tree_param":{"num_deleted":"0","num_feature":"10001","num_nodes":"7","size_leaf_vector":"1"}},{"base_weights":[1.690791E-8,-1.9982459E-1,1.0751926E-1,-5.2492984E-2,-1.3646351E-1,5.8377427E-3,2.019575E-2,-1.2116469E-2,-5.047938E-2],"categories":[],"categories_nodes":[],"categories_segments":[],"categories_sizes":[],"default_left":[0,0,0,0,0,0,0,0,0],"id":33,"left_children":[1,3,5,-1,7,-1,-1,-1,-1],"loss_changes":[1.5455368E1,5.112216E0,2.1587505E0,0E0,1.1332345E0,0E0,0E0,0E0,0E0],"parents":[2147483647,0,0,1,1,2,2,4,4],"right_children":[2,4,6,-1,8,-1,-1,-1,-1],"split_conditions":[5E-2,3.2051284E-2,6.711409E-2,-5.2492984E-2,4.321173E-2,5.8377427E-3,2.019575E-2,-1.2116469E-2,-5.047938E-2],"split_indices":[10000,10000,10000,0,4957,0,0,0,0],"split_type":[0,0,0,0,0,0,0,0,0],"sum_hessian":[7.173565E2,2.5065515E2,4.6670132E2,3.969511E1,2.1096005E2,3.0803207E2,1.5866925E2,2.0382309E2,7.136953E0],"tree_param":{"num_deleted":"0","num_feature":"10001","num_nodes":"9","size_leaf_vector":"1"}},{"base_weights":[1.48412616E-8,-2.4506092E-1,8.3683535E-2,-5.2083146E-2,-1.681737E-2,1.5430812E-3,1.7205378E-2],"categories":[],"categories_nodes":[],"categories_segments":[],"categories_sizes":[],"default_left":[0,0,0,0,0,0,0],"id":34,"left_children":[1,3,5,-1,-1,-1,-1],"loss_changes":[1.4707988E1,3.7834072E0,3.2219834E0,0E0,0E0,0E0,0E0],"parents":[2147483647,0,0,1,1,2,2],"right_children":[2,4,6,-1,-1,-1,-1],"split_conditions":[4.7058824E-2,3.2051284E-2,6.2068965E-2,-5.2083146E-2,-1.681737E-2,1.5430812E-3,1.7205378E-2],"split_indices":[10000,10000,10000,0,0,0,0],"split_type":[0,0,0,0,0,0,0],"sum_hessian":[7.151983E2,1.8156636E2,5.3363196E2,3.8326645E1,1.4323972E2,3.0175006E2,2.318819E2],"tree_param":{"num_deleted":"0","num_feature":"10001","num_nodes":"7","size_leaf_vector":"1"}},{"base_weights":[6.9121766E-9,-3.056451E-1,6.4496905E-2,-5.1758926E-2,-2.1030422E-1,-3.849576E-3,1.3986582E-1,-1.537636E-1,-4.635763E-2,1.04583325E-2,2.4409734E-2,-1.884318E-2,2.6039878E-2],"categories":[],"categories_nodes":[],"categories_segments":[],"categories_sizes":[],"default_left":[0,0,0,0,0,0,0,0,0,0,0,0,0],"id":35,"left_children":[1,3,5,-1,7,-1,9,11,-1,-1,-1,-1,-1],"loss_changes":[1.4097013E1,2.409069E0,4.5891075E0,0E0,1.183588E0,0E0,1.2292242E0,1.0991374E0,0E0,0E0,0E0,0E0,0E0],"parents":[2147483647,0,0,1,1,2,2,4,4,6,6,7,7],"right_children":[2,4,6,-1,8,-1,10,12,-1,-1,-1,-1,-1],"split_conditions":[4.366812E-2,3.2051284E-2,5.5793993E-2,-5.1758926E-2,4.4306014E-3,-3.849576E-3,7.590759E-2,1.4487228E-1,-4.635763E-2,1.04583325E-2,2.4409734E-2,-1.884318E-2,2.6039878E-2],"split_indices":[10000,10000,10000,0,102,0,10000,2022,0,0,0,0,0],"split_type":[0,0,0,0,0,0,0,0,0,0,0,0,0],"sum_hessian":[7.131067E2,1.23606674E2,5.895E2,3.697714E1,8.662953E1,2.493073E2,3.401927E2,7.2133514E1,1.4496021E1,2.5565617E2,8.453653E1,6.7064766E1,5.068745E0],"tree_param":{"num_deleted":"0","num_feature":"10001","num_nodes":"13","size_leaf_vector":"1"}},{"base_weights":[6.6774435E-9,-2.0826305E-1,9.283094E-2,-4.2320546E-2,-1.1934337E-1,4.2647566E-3,1.8548386E-2,-9.914068E-3,-4.6634715E-2],"categories":[],"categories_nodes":[],"categories_segments":[],"categories_sizes":[],"default_left":[0,0,0,0,0,0,0,0,0],"id":36,"left_children":[1,3,5,-1,7,-1,-1,-1,-1],"loss_changes":[1.3780365E1,4.149659E0,2.2844605E0,0E0,1.0533011E0,0E0,0E0,0E0,0E0],"parents":[2147483647,0,0,1,1,2,2,4,4],"right_children":[2,4,6,-1,8,-1,-1,-1,-1],"split_conditions":[4.8780486E-2,3.6764707E-2,6.61157E-2,-4.2320546E-2,7.938037E-2,4.2647566E-3,1.8548386E-2,-9.914068E-3,-4.6634715E-2],"split_indices":[10000,10000,10000,0,4974,0,0,0,0],"split_type":[0,0,0,0,0,0,0,0,0],"sum_hessian":[7.1078046E2,2.1875887E2,4.9202158E2,6.291566E1,1.558432E2,3.2010446E2,1.7191711E2,1.4848412E2,7.359097E0],"tree_param":{"num_deleted":"0","num_feature":"10001","num_nodes":"9","size_leaf_vector":"1"}},{"base_weights":[-2.8323497E-9,-3.2365718E-1,5.7386894E-2,-5.0915927E-2,-2.2572597E-2,-4.8315665E-3,1.2889819E-1,1.0642624E-2,2.8539259E-2],"categories":[],"categories_nodes":[],"categories_segments":[],"categories_sizes":[],"default_left":[0,0,0,0,0,0,0,0,0],"id":37,"left_children":[1,3,5,-1,-1,-1,7,-1,-1],"loss_changes":[1.3204462E1,1.8301163E0,4.5707245E0,0E0,0E0,0E0,1.237246E0,0E0,0E0],"parents":[2147483647,0,0,1,1,2,2,6,6],"right_children":[2,4,6,-1,-1,-1,8,-1,-1],"split_conditions":[4.2372882E-2,3.2051284E-2,5.4744527E-2,-5.0915927E-2,-2.2572597E-2,-4.8315665E-3,8.411215E-2,1.0642624E-2,2.8539259E-2],"split_indices":[10000,10000,10000,0,0,0,10000,0,0],"split_type":[0,0,0,0,0,0,0,0,0],"sum_hessian":[7.089233E2,1.0606814E2,6.0285516E2,3.5197533E1,7.0870605E1,2.4340166E2,3.5945346E2,3.1578775E2,4.3665733E1],"tree_param":{"num_deleted":"0","num_feature":"10001","num_nodes":"9","size_leaf_vector":"1"}},{"base_weights":[7.4561415E-9,-1.740177E-1,1.0469922E-1,-4.259613E-2,-1.0815801E-2,7.069291E-3,2.2462226E-2],"categories":[],"categories_nodes":[],"categories_segments":[],"categories_sizes":[],"default_left":[0,0,0,0,0,0,0],"id":38,"left_children":[1,3,5,-1,-1,-1,-1],"loss_changes":[1.2916977E1,4.372963E0,1.7892828E0,0E0,0E0,0E0,0E0],"parents":[2147483647,0,0,1,1,2,2],"right_children":[2,4,6,-1,-1,-1,-1],"split_conditions":[5.078125E-2,3.5971224E-2,7.356322E-2,-4.259613E-2,-1.0815801E-2,7.069291E-3,2.2462226E-2],"split_indices":[10000,10000,10000,0,0,0,0],"split_type":[0,0,0,0,0,0,0],"sum_hessian":[7.0696375E2,2.6532022E2,4.4164355E2,5.3850304E1,2.1146991E2,3.4531332E2,9.633023E1],"tree_param":{"num_deleted":"0","num_feature":"10001","num_nodes":"7","size_leaf_vector":"1"}},{"base_weights":[2.0975381E-8,-2.6306397E-1,6.725339E-2,-5.106861E-2,-1.8925607E-2,-3.1442507E-4,1.5996393E-2],"categories":[],"categories_nodes":[],"categories_segments":[],"categories_sizes":[],"default_left":[0,0,0,0,0,0,0],"id":39,"left_children":[1,3,5,-1,-1,-1,-1],"loss_changes":[1.2513178E1,2.5352354E0,3.6767898E0,0E0,0E0,0E0,0E0],"parents":[2147483647,0,0,1,1,2,2],"right_children":[2,4,6,-1,-1,-1,-1],"split_conditions":[4.511278E-2,3.137255E-2,6.1363637E-2,-5.106861E-2,-1.8925607E-2,-3.1442507E-4,1.5996393E-2],"split_indices":[10000,10000,10000,0,0,0,0],"split_type":[0,0,0,0,0,0,0],"sum_hessian":[7.052813E2,1.4300407E2,5.622772E2,3.1477932E1,1.11526146E2,3.2014697E2,2.4213023E2],"tree_param":{"num_deleted":"0","num_feature":"10001","num_nodes":"7","size_leaf_vector":"1"}},{"base_weights":[3.4606635E-9,-2.1216205E-1,8.017777E-2,-5.0671455E-2,-1.542843E-2,1.7773622E-4,1.4571597E-2],"categories":[],"categories_nodes":[],"categories_segments":[],"categories_sizes":[],"default_left":[0,0,0,0,0,0,0],"id":40,"left_children":[1,3,5,-1,-1,-1,-1],"loss_changes":[1.1999701E1,3.2201138E0,2.630259E0,0E0,0E0,0E0,0E0],"parents":[2147483647,0,0,1,1,2,2],"right_children":[2,4,6,-1,-1,-1,-1],"split_conditions":[4.7945205E-2,3.137255E-2,5.927835E-2,-5.0671455E-2,-1.542843E-2,1.7773622E-4,1.4571597E-2],"split_indices":[10000,10000,10000,0,0,0,0],"split_type":[0,0,0,0,0,0,0],"sum_hessian":[7.034216E2,1.9247047E2,5.1095108E2,3.0334864E1,1.6213562E2,2.3311415E2,2.778369E2],"tree_param":{"num_deleted":"0","num_feature":"10001","num_nodes":"7","size_leaf_vector":"1"}},{"base_weights":[3.5657357E-9,-1.5396614E-1,1.0730851E-1,-3.6904562E-2,-8.458164E-3,6.795934E-3,2.0076683E-2],"categories":[],"categories_nodes":[],"categories_segments":[],"categories_sizes":[],"default_left":[0,0,0,0,0,0,0],"id":41,"left_children":[1,3,5,-1,-1,-1,-1],"loss_changes":[1.1625336E1,4.2814374E0,1.5112071E0,0E0,0E0,0E0,0E0],"parents":[2147483647,0,0,1,1,2,2],"right_children":[2,4,6,-1,-1,-1,-1],"split_conditions":[5.1948052E-2,3.846154E-2,7.070707E-2,-3.6904562E-2,-8.458164E-3,6.795934E-3,2.0076683E-2],"split_indices":[10000,10000,10000,0,0,0,0],"split_type":[0,0,0,0,0,0,0],"sum_hessian":[7.016329E2,2.879901E2,4.1364276E2,6.9191154E1,2.1879898E2,2.9230112E2,1.2134167E2],"tree_param":{"num_deleted":"0","num_feature":"10001","num_nodes":"7","size_leaf_vector":"1"}},{"base_weights":[-1.2311517E-9,-2.8076962E-1,5.6975905E-2,-5.006313E-2,-2.0479855E-1,-2.5561333E-3,1.3655384E-2,-1.5310295E-2,-4.433988E-2],"categories":[],"categories_nodes":[],"categories_segments":[],"categories_sizes":[],"default_left":[0,0,0,0,0,0,0,0,0],"id":42,"left_children":[1,3,5,-1,7,-1,-1,-1,-1],"loss_changes":[1.1231531E1,1.8757925E0,3.8370366E0,0E0,1.0387311E0,0E0,0E0,0E0,0E0],"parents":[2147483647,0,0,1,1,2,2,4,4],"right_children":[2,4,6,-1,8,-1,-1,-1,-1],"split_conditions":[4.3956045E-2,3.137255E-2,5.8139537E-2,-5.006313E-2,4.4306014E-3,-2.5561333E-3,1.3655384E-2,-1.5310295E-2,-4.433988E-2],"split_indices":[10000,10000,10000,0,102,0,0,0,0],"split_type":[0,0,0,0,0,0,0,0,0],"sum_hessian":[7.000978E2,1.1744022E2,5.826576E2,2.8723665E1,8.871656E1,2.86344E2,2.963136E2,7.426733E1,1.4449236E1],"tree_param":{"num_deleted":"0","num_feature":"10001","num_nodes":"9","size_leaf_vector":"1"}},{"base_weights":[3.5138537E-9,-1.7573047E-1,8.818686E-2,-4.9663197E-2,-1.3025261E-2,3.569245E-3,1.6785914E-2],"categories":[],"categories_nodes":[],"categories_segments":[],"categories_sizes":[],"default_left":[0,0,0,0,0,0,0],"id":43,"left_children":[1,3,5,-1,-1,-1,-1],"loss_changes":[1.0850218E1,3.3495612E0,1.9437947E0,0E0,0E0,0E0,0E0],"parents":[2147483647,0,0,1,1,2,2],"right_children":[2,4,6,-1,-1,-1,-1],"split_conditions":[4.9763035E-2,3.137255E-2,6.521739E-2,-4.9663197E-2,-1.3025261E-2,3.569245E-3,1.6785914E-2],"split_indices":[10000,10000,10000,0,0,0,0],"split_type":[0,0,0,0,0,0,0],"sum_hessian":[6.981443E2,2.3295024E2,4.6519403E2,2.768421E1,2.0526604E2,2.812996E2,1.8389445E2],"tree_param":{"num_deleted":"0","num_feature":"10001","num_nodes":"7","size_leaf_vector":"1"}},{"base_weights":[1.3975726E-8,-2.258171E-1,6.6472076E-2,-4.9237903E-2,-1.6832083E-2,-4.3846472E-4,1.3829312E-2],"categories":[],"categories_nodes":[],"categories_segments":[],"categories_sizes":[],"default_left":[0,0,0,0,0,0,0],"id":44,"left_children":[1,3,5,-1,-1,-1,-1],"loss_changes":[1.0485243E1,2.3518286E0,2.746978E0,0E0,0E0,0E0,0E0],"parents":[2147483647,0,0,1,1,2,2],"right_children":[2,4,6,-1,-1,-1,-1],"split_conditions":[4.639175E-2,3.137255E-2,6E-2,-4.9237903E-2,-1.6832083E-2,-4.3846472E-4,1.3829312E-2],"split_indices":[10000,10000,10000,0,0,0,0],"split_type":[0,0,0,0,0,0,0],"sum_hessian":[6.965258E2,1.5785791E2,5.386679E2,2.6666067E1,1.3119185E2,2.7162695E2,2.6704095E2],"tree_param":{"num_deleted":"0","num_feature":"10001","num_nodes":"7","size_leaf_vector":"1"}},{"base_weights":[1.5040749E-8,-1.4309001E-1,1.03150286E-1,-3.4002945E-2,-7.5105773E-3,7.5597274E-3,2.2889597E-2],"categories":[],"categories_nodes":[],"categories_segments":[],"categories_sizes":[],"default_left":[0,0,0,0,0,0,0],"id":45,"left_children":[1,3,5,-1,-1,-1,-1],"loss_changes":[1.0286436E1,3.8832068E0,1.3858256E0,0E0,0E0,0E0,0E0],"parents":[2147483647,0,0,1,1,2,2],"right_children":[2,4,6,-1,-1,-1,-1],"split_conditions":[5.2434456E-2,3.960396E-2,7.804878E-2,-3.4002945E-2,-7.5105773E-3,7.5597274E-3,2.2889597E-2],"split_indices":[10000,10000,10000,0,0,0,0],"split_type":[0,0,0,0,0,0,0],"sum_hessian":[6.949236E2,2.909419E2,4.039817E2,7.363411E1,2.1730779E2,3.3268576E2,7.129593E1],"tree_param":{"num_deleted":"0","num_feature":"10001","num_nodes":"7","size_leaf_vector":"1"}},{"base_weights":[1.1588337E-8,-1.8317196E-1,7.7249445E-2,-4.431708E-2,-1.298382E-2,3.6574171E-3,1.8339058E-2],"categories":[],"categories_nodes":[],"categories_segments":[],"categories_sizes":[],"default_left":[0,0,0,0,0,0,0],"id":46,"left_children":[1,3,5,-1,-1,-1,-1],"loss_changes":[9.842827E0,2.8037224E0,2.105625E0,0E0,0E0,0E0,0E0],"parents":[2147483647,0,0,1,1,2,2],"right_children":[2,4,6,-1,-1,-1,-1],"split_conditions":[4.8780486E-2,3.3898305E-2,6.94864E-2,-4.431708E-2,-1.298382E-2,3.6574171E-3,1.8339058E-2],"split_indices":[10000,10000,10000,0,0,0,0],"split_type":[0,0,0,0,0,0,0],"sum_hessian":[6.9360956E2,2.0534036E2,4.882692E2,3.3707745E1,1.7163261E2,3.5396698E2,1.3430222E2],"tree_param":{"num_deleted":"0","num_feature":"10001","num_nodes":"7","size_leaf_vector":"1"}},{"base_weights":[-1.573452E-8,-3.0338758E-1,4.5624435E-2,-4.8382018E-2,-2.2833882E-2,-4.9138977E-3,1.1589101E-2],"categories":[],"categories_nodes":[],"categories_segments":[],"categories_sizes":[],"default_left":[0,0,0,0,0,0,0],"id":47,"left_children":[1,3,5,-1,-1,-1,-1],"loss_changes":[9.6082E0,1.1182718E0,4.0235424E0,0E0,0E0,0E0,0E0],"parents":[2147483647,0,0,1,1,2,2],"right_children":[2,4,6,-1,-1,-1,-1],"split_conditions":[4.1860465E-2,3.137255E-2,5.5276383E-2,-4.8382018E-2,-2.2833882E-2,-4.9138977E-3,1.1589101E-2],"split_indices":[10000,10000,10000,0,0,0,0],"split_type":[0,0,0,0,0,0,0],"sum_hessian":[6.921393E2,8.974107E1,6.023982E2,2.4761826E1,6.497925E1,2.5661752E2,3.457807E2],"tree_param":{"num_deleted":"0","num_feature":"10001","num_nodes":"7","size_leaf_vector":"1"}},{"base_weights":[-8.504432E-10,-1.537973E-1,8.810158E-2,-3.6805447E-2,-9.531332E-3,3.1381862E-3,1.5092584E-2],"categories":[],"categories_nodes":[],"categories_segments":[],"categories_sizes":[],"default_left":[0,0,0,0,0,0,0],"id":48,"left_children":[1,3,5,-1,-1,-1,-1],"loss_changes":[9.385162E0,3.1259704E0,1.5644908E0,0E0,0E0,0E0,0E0],"parents":[2147483647,0,0,1,1,2,2],"right_children":[2,4,6,-1,-1,-1,-1],"split_conditions":[5.078125E-2,3.7037037E-2,6.3253015E-2,-3.6805447E-2,-9.531332E-3,3.1381862E-3,1.5092584E-2],"split_indices":[10000,10000,10000,0,0,0,0],"split_type":[0,0,0,0,0,0,0],"sum_hessian":[6.906429E2,2.5126628E2,4.393766E2,5.274409E1,1.9852219E2,2.3169478E2,2.076818E2],"tree_param":{"num_deleted":"0","num_feature":"10001","num_nodes":"7","size_leaf_vector":"1"}},{"base_weights":[-1.2231787E-9,-2.5096017E-1,5.3251974E-2,-4.7868297E-2,-1.9067004E-2,-2.6942666E-3,1.2196769E-2],"categories":[],"categories_nodes":[],"categories_segments":[],"categories_sizes":[],"default_left":[0,0,0,0,0,0,0],"id":49,"left_children":[1,3,5,-1,-1,-1,-1],"loss_changes":[9.239574E0,1.5703182E0,3.1462624E0,0E0,0E0,0E0,0E0],"parents":[2147483647,0,0,1,1,2,2],"right_children":[2,4,6,-1,-1,-1,-1],"split_conditions":[4.453441E-2,3.137255E-2,5.7613168E-2,-4.7868297E-2,-1.9067004E-2,-2.6942666E-3,1.2196769E-2],"split_indices":[10000,10000,10000,0,0,0,0],"split_type":[0,0,0,0,0,0,0],"sum_hessian":[6.8937146E2,1.2002376E2,5.693477E2,2.3672047E1,9.635171E1,2.6300998E2,3.0633774E2],"tree_param":{"num_deleted":"0","num_feature":"10001","num_nodes":"7","size_leaf_vector":"1"}},{"base_weights":[7.3311583E-9,-2.0552099E-1,6.3333265E-2,-4.749274E-2,-1.579046E-2,1.0711024E-4,1.3525759E-2],"categories":[],"categories_nodes":[],"categories_segments":[],"categories_sizes":[],"default_left":[0,0,0,0,0,0,0],"id":50,"left_children":[1,3,5,-1,-1,-1,-1],"loss_changes":[8.980004E0,2.0098248E0,2.3615718E0,0E0,0E0,0E0,0E0],"parents":[2147483647,0,0,1,1,2,2],"right_children":[2,4,6,-1,-1,-1,-1],"split_conditions":[4.7058824E-2,3.137255E-2,6.1363637E-2,-4.749274E-2,-1.579046E-2,1.0711024E-4,1.3525759E-2],"split_indices":[10000,10000,10000,0,0,0,0],"split_type":[0,0,0,0,0,0,0],"sum_hessian":[6.879038E2,1.6151875E2,5.263851E2,2.291201E1,1.3860674E2,2.826878E2,2.4369727E2],"tree_param":{"num_deleted":"0","num_feature":"10001","num_nodes":"7","size_leaf_vector":"1"}},{"base_weights":[9.6958175E-9,-1.3415414E-1,9.458752E-2,-3.284304E-2,-7.706627E-3,7.0793065E-3,2.2910261E-1,1.6691113E-2,5.5657495E-2],"categories":[],"categories_nodes":[],"categories_segments":[],"categories_sizes":[],"default_left":[0,0,0,0,0,0,0,0,0],"id":51,"left_children":[1,3,5,-1,-1,-1,7,-1,-1],"loss_changes":[8.737132E0,3.1324778E0,1.2762997E0,0E0,0E0,0E0,1.1341243E0,0E0,0E0],"parents":[2147483647,0,0,1,1,2,2,6,6],"right_children":[2,4,6,-1,-1,-1,8,-1,-1],"split_conditions":[5.2434456E-2,3.8910504E-2,8.070866E-2,-3.284304E-2,-7.706627E-3,7.0793065E-3,5.998421E-2,1.6691113E-2,5.5657495E-2],"split_indices":[10000,10000,10000,0,0,0,7297,0,0],"split_type":[0,0,0,0,0,0,0,0,0],"sum_hessian":[6.865429E2,2.8372104E2,4.028219E2,6.335704E1,2.20364E2,3.4357327E2,5.9248608E1,5.10611E1,8.187508E0],"tree_param":{"num_deleted":"0","num_feature":"10001","num_nodes":"9","size_leaf_vector":"1"}},{"base_weights":[1.4237856E-8,-1.5232614E-1,8.079525E-2,-4.4437447E-1,-1.1484344E-2,4.522194E-3,1.9006707E-1,-5.1275622E-2,1.51125E-2,2.2135894E-1,-1.13567775E-2,1.758164E-2,4.713602E-2],"categories":[],"categories_nodes":[],"categories_segments":[],"categories_sizes":[],"default_left":[0,0,0,0,0,0,0,0,0,0,0,0,0],"id":52,"left_children":[1,3,5,7,-1,-1,9,-1,-1,11,-1,-1,-1],"loss_changes":[8.458175E0,2.556355E0,1.7369907E0,1.1665545E0,0E0,0E0,1.070055E0,0E0,0E0,1.0561538E0,0E0,0E0,0E0],"parents":[2147483647,0,0,1,1,2,2,3,3,6,6,9,9],"right_children":[2,4,6,8,-1,-1,10,-1,-1,12,-1,-1,-1],"split_conditions":[5.042017E-2,3.255814E-2,7.2E-2,4.5856703E-2,-1.1484344E-2,4.522194E-3,4.6455316E-2,-5.1275622E-2,1.51125E-2,9.7222224E-2,-1.13567775E-2,1.758164E-2,4.713602E-2],"split_indices":[10000,10000,10000,8964,0,0,9464,0,0,10000,0,0,0],"split_type":[0,0,0,0,0,0,0,0,0,0,0,0,0],"sum_hessian":[6.852527E2,2.3718811E2,4.4806458E2,2.5744339E1,2.1144377E2,3.3908856E2,1.0897602E2,2.3217232E1,2.5271084E0,9.9040146E1,9.93587E0,8.521911E1,1.3821043E1],"tree_param":{"num_deleted":"0","num_feature":"10001","num_nodes":"13","size_leaf_vector":"1"}},{"base_weights":[6.983283E-9,-1.846791E-1,6.5681964E-2,-4.584896E-2,-1.39176715E-2,1.4086668E-3,1.5750807E-2],"categories":[],"categories_nodes":[],"categories_segments":[],"categories_sizes":[],"default_left":[0,0,0,0,0,0,0],"id":53,"left_children":[1,3,5,-1,-1,-1,-1],"loss_changes":[8.317296E0,2.1773953E0,2.3941047E0,0E0,0E0,0E0,0E0],"parents":[2147483647,0,0,1,1,2,2],"right_children":[2,4,6,-1,-1,-1,-1],"split_conditions":[4.7945205E-2,3.255814E-2,6.521739E-2,-4.584896E-2,-1.39176715E-2,1.4086668E-3,1.5750807E-2],"split_indices":[10000,10000,10000,0,0,0,0],"split_type":[0,0,0,0,0,0,0],"sum_hessian":[6.83675E2,1.788861E2,5.047889E2,2.4198082E1,1.5468802E2,3.239315E2,1.808574E2],"tree_param":{"num_deleted":"0","num_feature":"10001","num_nodes":"7","size_leaf_vector":"1"}},{"base_weights":[1.7257877E-8,-1.1987506E-1,9.971145E-2,-3.1187147E-2,-6.5458016E-3,7.849122E-3,2.6936835E-2],"categories":[],"categories_nodes":[],"categories_segments":[],"categories_sizes":[],"default_left":[0,0,0,0,0,0,0],"id":54,"left_children":[1,3,5,-1,-1,-1,-1],"loss_changes":[8.180184E0,3.2263932E0,1.3238935E0,0E0,0E0,0E0,0E0],"parents":[2147483647,0,0,1,1,2,2],"right_children":[2,4,6,-1,-1,-1,-1],"split_conditions":[5.3846154E-2,3.984064E-2,8.411215E-2,-3.1187147E-2,-6.5458016E-3,7.849122E-3,2.6936835E-2],"split_indices":[10000,10000,10000,0,0,0,0],"split_type":[0,0,0,0,0,0,0],"sum_hessian":[6.8236725E2,3.0976245E2,3.7260483E2,6.736199E1,2.4240045E2,3.3248157E2,4.0123253E1],"tree_param":{"num_deleted":"0","num_feature":"10001","num_nodes":"7","size_leaf_vector":"1"}},{"base_weights":[-1.459368E-8,-2.2146626E-1,5.2921474E-2,-4.7324825E-2,-1.7243417E-2,-5.6302914E-4,1.4023832E-2],"categories":[],"categories_nodes":[],"categories_segments":[],"categories_sizes":[],"default_left":[0,0,0,0,0,0,0],"id":55,"left_children":[1,3,5,-1,-1,-1,-1],"loss_changes":[8.007586E0,1.5451975E0,2.8200998E0,0E0,0E0,0E0,0E0],"parents":[2147483647,0,0,1,1,2,2],"right_children":[2,4,6,-1,-1,-1,-1],"split_conditions":[4.5454547E-2,3.137255E-2,6.25E-2,-4.7324825E-2,-1.7243417E-2,-5.6302914E-4,1.4023832E-2],"split_indices":[10000,10000,10000,0,0,0,0],"split_type":[0,0,0,0,0,0,0],"sum_hessian":[6.812222E2,1.3077388E2,5.5044836E2,1.9905657E1,1.10868225E2,3.3005798E2,2.2039037E2],"tree_param":{"num_deleted":"0","num_feature":"10001","num_nodes":"7","size_leaf_vector":"1"}},{"base_weights":[-2.57478E-9,-1.3542953E-1,8.553352E-2,-3.4525298E-2,-8.8013215E-3,4.8680934E-3,1.9328188E-2],"categories":[],"categories_nodes":[],"categories_segments":[],"categories_sizes":[],"default_left":[0,0,0,0,0,0,0],"id":56,"left_children":[1,3,5,-1,-1,-1,-1],"loss_changes":[7.899082E0,2.5958E0,1.6501749E0,0E0,0E0,0E0,0E0],"parents":[2147483647,0,0,1,1,2,2],"right_children":[2,4,6,-1,-1,-1,-1],"split_conditions":[5.1502146E-2,3.7037037E-2,7.2E-2,-3.4525298E-2,-8.8013215E-3,4.8680934E-3,1.9328188E-2],"split_indices":[10000,10000,10000,0,0,0,0],"split_type":[0,0,0,0,0,0,0],"sum_hessian":[6.799098E2,2.6296335E2,4.1694647E2,4.7313526E1,2.1564981E2,3.1176648E2,1.0517999E2],"tree_param":{"num_deleted":"0","num_feature":"10001","num_nodes":"7","size_leaf_vector":"1"}},{"base_weights":[2.6348284E-8,-2.3978733E-1,4.6656802E-2,-4.6838343E-2,-1.876849E-2,-3.8204435E-3,1.1020479E-1,9.744874E-3,3.7361756E-2],"categories":[],"categories_nodes":[],"categories_segments":[],"categories_sizes":[],"default_left":[0,0,0,0,0,0,0,0,0],"id":57,"left_children":[1,3,5,-1,-1,-1,7,-1,-1],"loss_changes":[7.6172943E0,1.2329655E0,3.0778806E0,0E0,0E0,0E0,1.0595407E0,0E0,0E0],"parents":[2147483647,0,0,1,1,2,2,6,6],"right_children":[2,4,6,-1,-1,-1,8,-1,-1],"split_conditions":[4.4247787E-2,3.137255E-2,5.625E-2,-4.6838343E-2,-1.876849E-2,-3.8204435E-3,9.7222224E-2,9.744874E-3,3.7361756E-2],"split_indices":[10000,10000,10000,0,0,0,10000,0,0],"split_type":[0,0,0,0,0,0,0,0,0],"sum_hessian":[6.7886304E2,1.09900764E2,5.689623E2,1.8916437E1,9.098433E1,2.437972E2,3.2516507E2,3.1145258E2,1.3712485E1],"tree_param":{"num_deleted":"0","num_feature":"10001","num_nodes":"9","size_leaf_vector":"1"}},{"base_weights":[5.731458E-9,-1.589705E-1,6.935741E-2,-4.4496313E-2,-1.2307063E-2,2.5586986E-3,1.714629E-2],"categories":[],"categories_nodes":[],"categories_segments":[],"categories_sizes":[],"default_left":[0,0,0,0,0,0,0],"id":58,"left_children":[1,3,5,-1,-1,-1,-1],"loss_changes":[7.492546E0,2.0645828E0,2.110111E0,0E0,0E0,0E0,0E0],"parents":[2147483647,0,0,1,1,2,2],"right_children":[2,4,6,-1,-1,-1,-1],"split_conditions":[4.9122807E-2,3.255814E-2,6.818182E-2,-4.4496313E-2,-1.2307063E-2,2.5586986E-3,1.714629E-2],"split_indices":[10000,10000,10000,0,0,0,0],"split_type":[0,0,0,0,0,0,0],"sum_hessian":[6.7754785E2,2.05421E2,4.7212686E2,2.163929E1,1.8378171E2,3.313394E2,1.4078748E2],"tree_param":{"num_deleted":"0","num_feature":"10001","num_nodes":"7","size_leaf_vector":"1"}},{"base_weights":[-4.703354E-9,-1.2150595E-1,8.969268E-2,-3.0230248E-2,-7.006587E-3,5.8584344E-3,2.092844E-2],"categories":[],"categories_nodes":[],"categories_segments":[],"categories_sizes":[],"default_left":[0,0,0,0,0,0,0],"id":59,"left_children":[1,3,5,-1,-1,-1,-1],"loss_changes":[7.393179E0,2.6581993E0,1.4397209E0,0E0,0E0,0E0,0E0],"parents":[2147483647,0,0,1,1,2,2],"right_children":[2,4,6,-1,-1,-1,-1],"split_conditions":[5.2805282E-2,3.9473683E-2,7.590759E-2,-3.0230248E-2,-7.006587E-3,5.8584344E-3,2.092844E-2],"split_indices":[10000,10000,10000,0,0,0,0],"split_type":[0,0,0,0,0,0,0],"sum_hessian":[6.763857E2,2.8709955E2,3.892861E2,6.251194E1,2.245876E2,3.1010986E2,7.9176254E1],"tree_param":{"num_deleted":"0","num_feature":"10001","num_nodes":"7","size_leaf_vector":"1"}},{"base_weights":[2.9185525E-9,-1.6369276E-1,6.446283E-2,-4.3707304E-2,-1.2776146E-2,2.0281503E-3,1.6084516E-2],"categories":[],"categories_nodes":[],"categories_segments":[],"categories_sizes":[],"default_left":[0,0,0,0,0,0,0],"id":60,"left_children":[1,3,5,-1,-1,-1,-1],"loss_changes":[7.147493E0,1.8240523E0,2.0661616E0,0E0,0E0,0E0,0E0],"parents":[2147483647,0,0,1,1,2,2],"right_children":[2,4,6,-1,-1,-1,-1],"split_conditions":[4.8543688E-2,3.255814E-2,6.711409E-2,-4.3707304E-2,-1.2776146E-2,2.0281503E-3,1.6084516E-2],"split_indices":[10000,10000,10000,0,0,0,0],"split_type":[0,0,0,0,0,0,0],"sum_hessian":[6.753527E2,1.9037851E2,4.8497424E2,2.081851E1,1.6956E2,3.333693E2,1.5160492E2],"tree_param":{"num_deleted":"0","num_feature":"10001","num_nodes":"7","size_leaf_vector":"1"}},{"base_weights":[1.2096751E-8,-9.525072E-2,1.1004566E-2,-2.691345E-2,-4.4550817E-3],"categories":[],"categories_nodes":[],"categories_segments":[],"categories_sizes":[],"default_left":[0,0,0,0,0],"id":61,"left_children":[1,3,-1,-1,-1],"loss_changes":[7.087818E0,3.1834385E0,0E0,0E0,0E0],"parents":[2147483647,0,0,1,1],"right_children":[2,4,-1,-1,-1],"split_conditions":[5.695509E-2,4.1860465E-2,1.1004566E-2,-2.691345E-2,-4.4550817E-3],"split_indices":[10000,10000,0,0,0],"split_type":[0,0,0,0,0],"sum_hessian":[6.741941E2,3.614624E2,3.127317E2,8.062773E1,2.808347E2],"tree_param":{"num_deleted":"0","num_feature":"10001","num_nodes":"5","size_leaf_vector":"1"}},{"base_weights":[4.8915028E-9,-2.0096508E-1,5.0901927E-2,-4.5739196E-2,-1.6045067E-2,-1.3597077E-3,1.2433242E-2],"categories":[],"categories_nodes":[],"categories_segments":[],"categories_sizes":[],"default_left":[0,0,0,0,0,0,0],"id":62,"left_children":[1,3,5,-1,-1,-1,-1],"loss_changes":[6.90773E0,1.3444157E0,2.5535655E0,0E0,0E0,0E0,0E0],"parents":[2147483647,0,0,1,1,2,2],"right_children":[2,4,6,-1,-1,-1,-1],"split_conditions":[4.605263E-2,3.137255E-2,6.0606062E-2,-4.5739196E-2,-1.6045067E-2,-1.3597077E-3,1.2433242E-2],"split_indices":[10000,10000,10000,0,0,0,0],"split_type":[0,0,0,0,0,0,0],"sum_hessian":[6.732748E2,1.3547195E2,5.3780286E2,1.7079775E1,1.1839219E2,2.8674765E2,2.5105516E2],"tree_param":{"num_deleted":"0","num_feature":"10001","num_nodes":"7","size_leaf_vector":"1"}},{"base_weights":[-6.405175E-10,-1.083239E-1,9.28685E-2,-3.256375E-2,-7.140224E-3,6.5532834E-3,2.121742E-2],"categories":[],"categories_nodes":[],"categories_segments":[],"categories_sizes":[],"default_left":[0,0,0,0,0,0,0],"id":63,"left_children":[1,3,5,-1,-1,-1,-1],"loss_changes":[6.7813787E0,2.4733567E0,1.169761E0,0E0,0E0,0E0,0E0],"parents":[2147483647,0,0,1,1,2,2],"right_children":[2,4,6,-1,-1,-1,-1],"split_conditions":[5.4347824E-2,3.7037037E-2,7.804878E-2,-3.256375E-2,-7.140224E-3,6.5532834E-3,2.121742E-2],"split_indices":[10000,10000,10000,0,0,0,0],"split_type":[0,0,0,0,0,0,0],"sum_hessian":[6.7210144E2,3.1015884E2,3.6194263E2,4.3907623E1,2.6625122E2,2.9573276E2,6.620987E1],"tree_param":{"num_deleted":"0","num_feature":"10001","num_nodes":"7","size_leaf_vector":"1"}},{"base_weights":[5.9540497E-9,-1.4411771E-1,6.8343535E-2,-4.2820957E-2,-1.1374897E-2,3.2163232E-3,1.7391626E-2],"categories":[],"categories_nodes":[],"categories_segments":[],"categories_sizes":[],"default_left":[0,0,0,0,0,0,0],"id":64,"left_children":[1,3,5,-1,-1,-1,-1],"loss_changes":[6.6302757E0,1.8194771E0,1.7385342E0,0E0,0E0,0E0,0E0],"parents":[2147483647,0,0,1,1,2,2],"right_children":[2,4,6,-1,-1,-1,-1],"split_conditions":[4.9763035E-2,3.255814E-2,7.070707E-2,-4.2820957E-2,-1.1374897E-2,3.2163232E-3,1.7391626E-2],"split_indices":[10000,10000,10000,0,0,0,0],"split_type":[0,0,0,0,0,0,0],"sum_hessian":[6.711577E2,2.1553818E2,4.5561954E2,1.9550243E1,1.9598793E2,3.4030124E2,1.1531829E2],"tree_param":{"num_deleted":"0","num_feature":"10001","num_nodes":"7","size_leaf_vector":"1"}},{"base_weights":[4.5760253E-9,-1.7483239E-1,5.532746E-2,-4.4698264E-2,-1.4193676E-2,4.6713394E-4,1.4041915E-2],"categories":[],"categories_nodes":[],"categories_segments":[],"categories_sizes":[],"default_left":[0,0,0,0,0,0,0],"id":65,"left_children":[1,3,5,-1,-1,-1,-1],"loss_changes":[6.5017366E0,1.3830786E0,2.2001314E0,0E0,0E0,0E0,0E0],"parents":[2147483647,0,0,1,1,2,2],"right_children":[2,4,6,-1,-1,-1,-1],"split_conditions":[4.72973E-2,3.137255E-2,6.4425774E-2,-4.4698264E-2,-1.4193676E-2,4.6713394E-4,1.4041915E-2],"split_indices":[10000,10000,10000,0,0,0,0],"split_type":[0,0,0,0,0,0,0],"sum_hessian":[6.701509E2,1.6057639E2,5.095745E2,1.5958828E1,1.4461755E2,3.2008115E2,1.8949335E2],"tree_param":{"num_deleted":"0","num_feature":"10001","num_nodes":"7","size_leaf_vector":"1"}},{"base_weights":[-8.66303E-9,-1.2122119E-1,7.894542E-2,-2.9030433E-2,-7.414566E-3,4.8274295E-3,1.8206622E-2],"categories":[],"categories_nodes":[],"categories_segments":[],"categories_sizes":[],"default_left":[0,0,0,0,0,0,0],"id":66,"left_children":[1,3,5,-1,-1,-1,-1],"loss_changes":[6.422457E0,2.0852911E0,1.2766712E0,0E0,0E0,0E0,0E0],"parents":[2147483647,0,0,1,1,2,2],"right_children":[2,4,6,-1,-1,-1,-1],"split_conditions":[5.1948052E-2,3.90625E-2,7.356322E-2,-2.9030433E-2,-7.414566E-3,4.8274295E-3,1.8206622E-2],"split_indices":[10000,10000,10000,0,0,0,0],"split_type":[0,0,0,0,0,0,0],"sum_hessian":[6.691131E2,2.6368607E2,4.0542706E2,5.6300922E1,2.0738515E2,3.1361652E2,9.181054E1],"tree_param":{"num_deleted":"0","num_feature":"10001","num_nodes":"7","size_leaf_vector":"1"}},{"base_weights":[1.5702667E-10,-9.877044E-2,9.437167E-2,-2.8684324E-2,-5.68303E-3,7.8027993E-3,2.7680699E-2],"categories":[],"categories_nodes":[],"categories_segments":[],"categories_sizes":[],"default_left":[0,0,0,0,0,0,0],"id":67,"left_children":[1,3,5,-1,-1,-1,-1],"loss_changes":[6.2477155E0,2.5669885E0,1.0004258E0,0E0,0E0,0E0,0E0],"parents":[2147483647,0,0,1,1,2,2],"right_children":[2,4,6,-1,-1,-1,-1],"split_conditions":[5.5276383E-2,3.9473683E-2,8.937198E-2,-2.8684324E-2,-5.68303E-3,7.8027993E-3,2.7680699E-2],"split_indices":[10000,10000,10000,0,0,0,0],"split_type":[0,0,0,0,0,0,0],"sum_hessian":[6.682744E2,3.2650452E2,3.417699E2,5.8469505E1,2.6803503E2,3.1497977E2,2.6790117E1],"tree_param":{"num_deleted":"0","num_feature":"10001","num_nodes":"7","size_leaf_vector":"1"}},{"base_weights":[1.102241E-10,-1.6333796E-1,5.6631465E-2,-3.593731E-2,-1.217313E-2,-1.4217871E-3,1.14411395E-2],"categories":[],"categories_nodes":[],"categories_segments":[],"categories_sizes":[],"default_left":[0,0,0,0,0,0,0],"id":68,"left_children":[1,3,5,-1,-1,-1,-1],"loss_changes":[6.1915994E0,1.3618155E0,2.036304E0,0E0,0E0,0E0,0E0],"parents":[2147483647,0,0,1,1,2,2],"right_children":[2,4,6,-1,-1,-1,-1],"split_conditions":[4.7945205E-2,3.521127E-2,5.927835E-2,-3.593731E-2,-1.217313E-2,-1.4217871E-3,1.14411395E-2],"split_indices":[10000,10000,10000,0,0,0,0],"split_type":[0,0,0,0,0,0,0],"sum_hessian":[6.6735724E2,1.7132703E2,4.9603018E2,2.8659012E1,1.4266801E2,2.2315413E2,2.7287604E2],"tree_param":{"num_deleted":"0","num_feature":"10001","num_nodes":"7","size_leaf_vector":"1"}},{"base_weights":[-1.358949E-8,-2.081162E-1,4.3723837E-2,-5.081991E-2,-1.763588E-2,-1.0931517E-3,1.2684101E-2],"categories":[],"categories_nodes":[],"categories_segments":[],"categories_sizes":[],"default_left":[0,0,0,0,0,0,0],"id":69,"left_children":[1,3,5,-1,-1,-1,-1],"loss_changes":[6.082515E0,1.0163331E0,2.5107493E0,0E0,0E0,0E0,0E0],"parents":[2147483647,0,0,1,1,2,2],"right_children":[2,4,6,-1,-1,-1,-1],"split_conditions":[4.477612E-2,2.2988506E-2,6.25E-2,-5.081991E-2,-1.763588E-2,-1.0931517E-3,1.2684101E-2],"split_indices":[10000,10000,10000,0,0,0,0],"split_type":[0,0,0,0,0,0,0],"sum_hessian":[6.664346E2,1.1505198E2,5.513826E2,9.574815E0,1.05477165E2,3.331691E2,2.1821352E2],"tree_param":{"num_deleted":"0","num_feature":"10001","num_nodes":"7","size_leaf_vector":"1"}},{"base_weights":[-4.1137125E-9,-1.2400455E-1,7.2452344E-2,-2.796861E-2,-7.5778194E-2,3.744247E-3,1.6482787E-2,-5.3530503E-3,-3.381501E-2],"categories":[],"categories_nodes":[],"categories_segments":[],"categories_sizes":[],"default_left":[0,0,0,0,0,0,0,0,0],"id":70,"left_children":[1,3,5,-1,7,-1,-1,-1,-1],"loss_changes":[5.996751E0,1.8269365E0,1.3563511E0,0E0,1.0869299E0,0E0,0E0,0E0,0E0],"parents":[2147483647,0,0,1,1,2,2,4,4],"right_children":[2,4,6,-1,8,-1,-1,-1,-1],"split_conditions":[5.1150896E-2,3.9473683E-2,7.070707E-2,-2.796861E-2,4.7454525E-2,3.744247E-3,1.6482787E-2,-5.3530503E-3,-3.381501E-2],"split_indices":[10000,10000,10000,0,7883,0,0,0,0],"split_type":[0,0,0,0,0,0,0,0,0],"sum_hessian":[6.65461E2,2.4515637E2,4.2030463E2,5.684694E1,1.8830943E2,3.058096E2,1.1449503E2,1.7469987E2,1.3609561E1],"tree_param":{"num_deleted":"0","num_feature":"10001","num_nodes":"9","size_leaf_vector":"1"}},{"base_weights":[2.0746208E-8,-1.07694566E-1,8.209191E-2,-2.9009936E-2,-6.559543E-3,5.947187E-3,2.1580657E-2],"categories":[],"categories_nodes":[],"categories_segments":[],"categories_sizes":[],"default_left":[0,0,0,0,0,0,0],"id":71,"left_children":[1,3,5,-1,-1,-1,-1],"loss_changes":[5.8935986E0,2.1952417E0,1.1313274E0,0E0,0E0,0E0,0E0],"parents":[2147483647,0,0,1,1,2,2],"right_children":[2,4,6,-1,-1,-1,-1],"split_conditions":[5.3333335E-2,3.90625E-2,8.070866E-2,-2.9009936E-2,-6.559543E-3,5.947187E-3,2.1580657E-2],"split_indices":[10000,10000,10000,0,0,0,0],"split_type":[0,0,0,0,0,0,0],"sum_hessian":[6.646324E2,2.8735098E2,3.7728143E2,5.2779602E1,2.3457138E2,3.2392834E2,5.3353085E1],"tree_param":{"num_deleted":"0","num_feature":"10001","num_nodes":"7","size_leaf_vector":"1"}},{"base_weights":[9.577729E-10,-1.9802256E-2,4.390832E-2,-2.4960588E-3,1.0779834E-2],"categories":[],"categories_nodes":[],"categories_segments":[],"categories_sizes":[],"default_left":[0,0,0,0,0],"id":72,"left_children":[1,-1,3,-1,-1],"loss_changes":[5.7889476E0,0E0,2.4005175E0,0E0,0E0],"parents":[2147483647,0,0,2,2],"right_children":[2,-1,4,-1,-1],"split_conditions":[4.511278E-2,-1.9802256E-2,5.882353E-2,-2.4960588E-3,1.0779834E-2],"split_indices":[10000,0,10000,0,0],"split_type":[0,0,0,0,0],"sum_hessian":[6.6379126E2,1.1983524E2,5.4395605E2,2.620712E2,2.8188483E2],"tree_param":{"num_deleted":"0","num_feature":"10001","num_nodes":"5","size_leaf_vector":"1"}},{"base_weights":[-1.9149218E-9,-1.3814639E-1,6.2051076E-2,-2.853557E-2,-8.598798E-3,1.7041507E-3,1.4177357E-2],"categories":[],"categories_nodes":[],"categories_segments":[],"categories_sizes":[],"default_left":[0,0,0,0,0,0,0],"id":73,"left_children":[1,3,5,-1,-1,-1,-1],"loss_changes":[5.7013073E0,1.5582991E0,1.6444268E0,0E0,0E0,0E0,0E0],"parents":[2147483647,0,0,1,1,2,2],"right_children":[2,4,6,-1,-1,-1,-1],"split_conditions":[4.9479168E-2,3.90625E-2,6.61157E-2,-2.853557E-2,-8.598798E-3,1.7041507E-3,1.4177357E-2],"split_indices":[10000,10000,10000,0,0,0,0],"split_type":[0,0,0,0,0,0,0],"sum_hessian":[6.630979E2,2.0514667E2,4.579512E2,5.2500618E1,1.5264606E2,2.9347525E2,1.6447595E2],"tree_param":{"num_deleted":"0","num_feature":"10001","num_nodes":"7","size_leaf_vector":"1"}},{"base_weights":[1.778055E-8,-8.94004E-2,9.413383E-3,-2.7697256E-2,-5.1882262E-3],"categories":[],"categories_nodes":[],"categories_segments":[],"categories_sizes":[],"default_left":[0,0,0,0,0],"id":74,"left_children":[1,3,-1,-1,-1],"loss_changes":[5.590134E0,2.3832219E0,0E0,0E0,0E0],"parents":[2147483647,0,0,1,1],"right_children":[2,4,-1,-1,-1],"split_conditions":[5.625E-2,3.9473683E-2,9.413383E-3,-2.7697256E-2,-5.1882262E-3],"split_indices":[10000,10000,0,0,0],"split_type":[0,0,0,0,0],"sum_hessian":[6.6225836E2,3.3969485E2,3.225635E2,5.5556667E1,2.841382E2],"tree_param":{"num_deleted":"0","num_feature":"10001","num_nodes":"5","size_leaf_vector":"1"}},{"base_weights":[1.7743906E-8,-1.5174337E-1,5.4936502E-2,-4.3498617E-2,-1.24779055E-2,-3.0362152E-4,1.1570992E-2],"categories":[],"categories_nodes":[],"categories_segments":[],"categories_sizes":[],"default_left":[0,0,0,0,0,0,0],"id":75,"left_children":[1,3,5,-1,-1,-1,-1],"loss_changes":[5.531161E0,1.2926888E0,1.7166568E0,0E0,0E0,0E0,0E0],"parents":[2147483647,0,0,1,1,2,2],"right_children":[2,4,6,-1,-1,-1,-1],"split_conditions":[4.8275862E-2,3.137255E-2,6.1363637E-2,-4.3498617E-2,-1.24779055E-2,-3.0362152E-4,1.1570992E-2],"split_indices":[10000,10000,10000,0,0,0,0],"split_type":[0,0,0,0,0,0,0],"sum_hessian":[6.6150726E2,1.7536337E2,4.8614392E2,1.3927888E1,1.6143549E2,2.4929117E2,2.3685274E2],"tree_param":{"num_deleted":"0","num_feature":"10001","num_nodes":"7","size_leaf_vector":"1"}},{"base_weights":[-1.0130936E-8,-2.1637429E-2,3.7653506E-2,-2.4880373E-3,1.0448522E-2],"categories":[],"categories_nodes":[],"categories_segments":[],"categories_sizes":[],"default_left":[0,0,0,0,0],"id":76,"left_children":[1,-1,3,-1,-1],"loss_changes":[5.3982987E0,0E0,2.3612745E0,0E0,0E0],"parents":[2147483647,0,0,2,2],"right_children":[2,-1,4,-1,-1],"split_conditions":[4.3956045E-2,-2.1637429E-2,5.927835E-2,-2.4880373E-3,1.0448522E-2],"split_indices":[10000,0,10000,0,0],"split_type":[0,0,0,0,0],"sum_hessian":[6.605913E2,9.721325E1,5.6337805E2,2.9137167E2,2.7200638E2],"tree_param":{"num_deleted":"0","num_feature":"10001","num_nodes":"5","size_leaf_vector":"1"}},{"base_weights":[2.3253586E-8,-1.2145956E-1,6.605254E-2,-2.7167235E-2,-7.401777E-3,2.9059686E-3,1.51303485E-2],"categories":[],"categories_nodes":[],"categories_segments":[],"categories_sizes":[],"default_left":[0,0,0,0,0,0,0],"id":77,"left_children":[1,3,5,-1,-1,-1,-1],"loss_changes":[5.310131E0,1.6414361E0,1.3476871E0,0E0,0E0,0E0,0E0],"parents":[2147483647,0,0,1,1,2,2],"right_children":[2,4,6,-1,-1,-1,-1],"split_conditions":[5.078125E-2,3.9473683E-2,6.94864E-2,-2.7167235E-2,-7.401777E-3,2.9059686E-3,1.51303485E-2],"split_indices":[10000,10000,10000,0,0,0,0],"split_type":[0,0,0,0,0,0,0],"sum_hessian":[6.598874E2,2.321547E2,4.2773267E2,5.4588184E1,1.7756651E2,2.9922928E2,1.2850337E2],"tree_param":{"num_deleted":"0","num_feature":"10001","num_nodes":"7","size_leaf_vector":"1"}},{"base_weights":[5.669481E-9,-1.7211169E-1,4.5863632E-2,-5.011409E-2,-1.4683815E-2,-2.6525065E-4,1.2205219E-2],"categories":[],"categories_nodes":[],"categories_segments":[],"categories_sizes":[],"default_left":[0,0,0,0,0,0,0],"id":78,"left_children":[1,3,5,-1,-1,-1,-1],"loss_changes":[5.218732E0,1.0831857E0,1.9299148E0,0E0,0E0,0E0,0E0],"parents":[2147483647,0,0,1,1,2,2],"right_children":[2,4,6,-1,-1,-1,-1],"split_conditions":[4.639175E-2,2.2988506E-2,6.3253015E-2,-5.011409E-2,-1.4683815E-2,-2.6525065E-4,1.2205219E-2],"split_indices":[10000,10000,10000,0,0,0,0],"split_type":[0,0,0,0,0,0,0],"sum_hessian":[6.59129E2,1.3810646E2,5.210226E2,8.508466E0,1.2959799E2,3.1890936E2,2.0211322E2],"tree_param":{"num_deleted":"0","num_feature":"10001","num_nodes":"7","size_leaf_vector":"1"}},{"base_weights":[9.974682E-9,-9.453313E-2,8.326176E-3,-2.4773827E-2,-5.4610167E-3],"categories":[],"categories_nodes":[],"categories_segments":[],"categories_sizes":[],"default_left":[0,0,0,0,0],"id":79,"left_children":[1,3,-1,-1,-1],"loss_changes":[5.197276E0,1.8778062E0,0E0,0E0,0E0],"parents":[2147483647,0,0,1,1],"right_children":[2,4,-1,-1,-1],"split_conditions":[5.4744527E-2,4.090909E-2,8.326176E-3,-2.4773827E-2,-5.4610167E-3],"split_indices":[10000,10000,0,0,0],"split_type":[0,0,0,0,0],"sum_hessian":[6.583075E2,3.0822348E2,3.50084E2,6.2639153E1,2.4558432E2],"tree_param":{"num_deleted":"0","num_feature":"10001","num_nodes":"5","size_leaf_vector":"1"}},{"base_weights":[-1.6785132E-8,-1.2956586E-1,5.9605867E-2,-4.0310074E-2,-1.04761105E-2,2.2091728E-3,1.4126109E-2],"categories":[],"categories_nodes":[],"categories_segments":[],"categories_sizes":[],"default_left":[0,0,0,0,0,0,0],"id":80,"left_children":[1,3,5,-1,-1,-1,-1],"loss_changes":[5.094179E0,1.3679526E0,1.3807893E0,0E0,0E0,0E0,0E0],"parents":[2147483647,0,0,1,1,2,2],"right_children":[2,4,6,-1,-1,-1,-1],"split_conditions":[4.9763035E-2,3.255814E-2,6.818182E-2,-4.0310074E-2,-1.04761105E-2,2.2091728E-3,1.4126109E-2],"split_indices":[10000,10000,10000,0,0,0,0],"split_type":[0,0,0,0,0,0,0],"sum_hessian":[6.5762115E2,2.068392E2,4.5078192E2,1.5929163E1,1.9091005E2,3.0974777E2,1.4103415E2],"tree_param":{"num_deleted":"0","num_feature":"10001","num_nodes":"7","size_leaf_vector":"1"}},{"base_weights":[-2.574812E-8,-7.99068E-2,9.483957E-3,-2.1168519E-2,-3.4118479E-3],"categories":[],"categories_nodes":[],"categories_segments":[],"categories_sizes":[],"default_left":[0,0,0,0,0],"id":81,"left_children":[1,3,-1,-1,-1],"loss_changes":[4.9927154E0,2.1502433E0,0E0,0E0,0E0],"parents":[2147483647,0,0,1,1],"right_children":[2,4,-1,-1,-1],"split_conditions":[5.7613168E-2,4.366812E-2,9.483957E-3,-2.1168519E-2,-3.4118479E-3],"split_indices":[10000,10000,0,0,0],"split_type":[0,0,0,0,0],"sum_hessian":[6.5681506E2,3.565568E2,3.0025824E2,9.1009415E1,2.655474E2],"tree_param":{"num_deleted":"0","num_feature":"10001","num_nodes":"5","size_leaf_vector":"1"}},{"base_weights":[-5.7501164E-9,-1.0577673E-1,7.095583E-2,-3.2203544E-2,-7.837775E-3,4.386988E-3,1.7377427E-2],"categories":[],"categories_nodes":[],"categories_segments":[],"categories_sizes":[],"default_left":[0,0,0,0,0,0,0],"id":82,"left_children":[1,3,5,-1,-1,-1,-1],"loss_changes":[4.9396615E0,1.5404229E0,1.089379E0,0E0,0E0,0E0,0E0],"parents":[2147483647,0,0,1,1,2,2],"right_children":[2,4,6,-1,-1,-1,-1],"split_conditions":[5.2434456E-2,3.5714287E-2,7.590759E-2,-3.2203544E-2,-7.837775E-3,4.386988E-3,1.7377427E-2],"split_indices":[10000,10000,10000,0,0,0,0],"split_type":[0,0,0,0,0,0,0],"sum_hessian":[6.5614105E2,2.632351E2,3.9290594E2,2.8391205E1,2.348439E2,3.121116E2,8.079436E1],"tree_param":{"num_deleted":"0","num_feature":"10001","num_nodes":"7","size_leaf_vector":"1"}},{"base_weights":[-1.9277701E-8,-1.4810765E-1,4.9709875E-2,-4.9565088E-2,-1.2765526E-2,-2.2800476E-4,1.111793E-2],"categories":[],"categories_nodes":[],"categories_segments":[],"categories_sizes":[],"default_left":[0,0,0,0,0,0,0],"id":83,"left_children":[1,3,5,-1,-1,-1,-1],"loss_changes":[4.8402176E0,1.1110177E0,1.5732781E0,0E0,0E0,0E0,0E0],"parents":[2147483647,0,0,1,1,2,2],"right_children":[2,4,6,-1,-1,-1,-1],"split_conditions":[4.7945205E-2,2.2988506E-2,6.2068965E-2,-4.9565088E-2,-1.2765526E-2,-2.2800476E-4,1.111793E-2],"split_indices":[10000,10000,10000,0,0,0,0],"split_type":[0,0,0,0,0,0,0],"sum_hessian":[6.5542255E2,1.642048E2,4.9121777E2,7.83483E0,1.5636998E2,2.6665112E2,2.2456665E2],"tree_param":{"num_deleted":"0","num_feature":"10001","num_nodes":"7","size_leaf_vector":"1"}},{"base_weights":[2.5331733E-8,-1.1562716E-1,6.1971903E-2,-3.8255062E-2,-9.302995E-3,3.1096193E-3,1.5488038E-2],"categories":[],"categories_nodes":[],"categories_segments":[],"categories_sizes":[],"default_left":[0,0,0,0,0,0,0],"id":84,"left_children":[1,3,5,-1,-1,-1,-1],"loss_changes":[4.7054005E0,1.3465056E0,1.2215879E0,0E0,0E0,0E0,0E0],"parents":[2147483647,0,0,1,1,2,2],"right_children":[2,4,6,-1,-1,-1,-1],"split_conditions":[5.078125E-2,3.2894738E-2,7.2E-2,-3.8255062E-2,-9.302995E-3,3.1096193E-3,1.5488038E-2],"split_indices":[10000,10000,10000,0,0,0,0],"split_type":[0,0,0,0,0,0,0],"sum_hessian":[6.546622E2,2.281374E2,4.2652478E2,1.6562952E1,2.1157445E2,3.2113773E2,1.05387054E2],"tree_param":{"num_deleted":"0","num_feature":"10001","num_nodes":"7","size_leaf_vector":"1"}},{"base_weights":[4.2347384E-8,-1.9371571E-2,3.624142E-2,-2.0996265E-3,9.986877E-2,1.2503974E-2,-6.3643954E-3],"categories":[],"categories_nodes":[],"categories_segments":[],"categories_sizes":[],"default_left":[0,0,0,0,0,0,0],"id":85,"left_children":[1,-1,3,-1,5,-1,-1],"loss_changes":[4.6049376E0,0E0,2.0144212E0,0E0,1.0856466E0,0E0,0E0],"parents":[2147483647,0,0,2,2,4,4],"right_children":[2,-1,4,-1,6,-1,-1],"split_conditions":[4.453441E-2,-1.9371571E-2,6E-2,-2.0996265E-3,6.6950075E-2,1.2503974E-2,-6.3643954E-3],"split_indices":[10000,0,10000,0,7901,0,0],"split_type":[0,0,0,0,0,0,0],"sum_hessian":[6.5392487E2,1.02374146E2,5.515507E2,2.9070724E2,2.608435E2,2.2625009E2,3.4593403E1],"tree_param":{"num_deleted":"0","num_feature":"10001","num_nodes":"7","size_leaf_vector":"1"}},{"base_weights":[-3.9703894E-9,-9.4939835E-2,7.507947E-2,-2.575366E-2,-6.076209E-3,5.4949056E-3,2.371587E-2],"categories":[],"categories_nodes":[],"categories_segments":[],"categories_sizes":[],"default_left":[0,0,0,0,0,0,0],"id":86,"left_children":[1,3,5,-1,-1,-1,-1],"loss_changes":[4.6690884E0,1.5918133E0,1.1803868E0,0E0,0E0,0E0,0E0],"parents":[2147483647,0,0,1,1,2,2],"right_children":[2,4,6,-1,-1,-1,-1],"split_conditions":[5.3846154E-2,3.90625E-2,8.411215E-2,-2.575366E-2,-6.076209E-3,5.4949056E-3,2.371587E-2],"split_indices":[10000,10000,10000,0,0,0,0],"split_type":[0,0,0,0,0,0,0],"sum_hessian":[6.5303186E2,2.8825803E2,3.6477383E2,4.893241E1,2.393256E2,3.2566495E2,3.91089E1],"tree_param":{"num_deleted":"0","num_feature":"10001","num_nodes":"7","size_leaf_vector":"1"}},{"base_weights":[1.768336E-8,-1.3668893E-1,5.1349584E-2,-3.950609E-2,-1.1116851E-2,6.4421224E-4,1.2675648E-2],"categories":[],"categories_nodes":[],"categories_segments":[],"categories_sizes":[],"default_left":[0,0,0,0,0,0,0],"id":87,"left_children":[1,3,5,-1,-1,-1,-1],"loss_changes":[4.5927463E0,1.1342986E0,1.6098973E0,0E0,0E0,0E0,0E0],"parents":[2147483647,0,0,1,1,2,2],"right_children":[2,4,6,-1,-1,-1,-1],"split_conditions":[4.8543688E-2,3.255814E-2,6.521739E-2,-3.950609E-2,-1.1116851E-2,6.4421224E-4,1.2675648E-2],"split_indices":[10000,10000,10000,0,0,0,0],"split_type":[0,0,0,0,0,0,0],"sum_hessian":[6.523382E2,1.776867E2,4.746515E2,1.4671399E1,1.630153E2,2.981676E2,1.7648389E2],"tree_param":{"num_deleted":"0","num_feature":"10001","num_nodes":"7","size_leaf_vector":"1"}},{"base_weights":[4.875793E-9,-7.8799166E-2,8.829837E-3,-2.0844106E-2,-3.7184644E-3],"categories":[],"categories_nodes":[],"categories_segments":[],"categories_sizes":[],"default_left":[0,0,0,0,0],"id":88,"left_children":[1,3,-1,-1,-1],"loss_changes":[4.547574E0,1.85553E0,0E0,0E0,0E0],"parents":[2147483647,0,0,1,1],"right_children":[2,4,-1,-1,-1],"split_conditions":[5.695509E-2,4.290429E-2,8.829837E-3,-2.0844106E-2,-3.7184644E-3],"split_indices":[10000,10000,0,0,0],"split_type":[0,0,0,0,0],"sum_hessian":[6.5159015E2,3.443728E2,3.0721738E2,8.270688E1,2.6166592E2],"tree_param":{"num_deleted":"0","num_feature":"10001","num_nodes":"5","size_leaf_vector":"1"}},{"base_weights":[-3.9327768E-9,-1.06835276E-1,6.4534314E-2,-2.6073882E-2,-7.147287E-3,3.9790007E-3,1.924482E-2],"categories":[],"categories_nodes":[],"categories_segments":[],"categories_sizes":[],"default_left":[0,0,0,0,0,0,0],"id":89,"left_children":[1,3,5,-1,-1,-1,-1],"loss_changes":[4.5018563E0,